{"learner":{"attributes":{},"feature_names":["ema_9","ema_21","ema_50","rsi","bb_mid","bb_high","bb_low","body","upper_shadow","lower_shadow","atr_h4","rsi_h4","ema_h4_21","ema_h4_50"],"feature_types":[],"gradient_booster":{"model":{"gbtree_model_param":{"num_parallel_tree":"1","num_trees":"600"},"iteration_indptr":[0,1,2,3,4,5,6,7,8,9,10,11,12,13,14,15,16,17,18,19,20,21,22,23,24,25,26,27,28,29,30,31,32,33,34,35,36,37,38,39,40,41,42,43,44,45,46,47,48,49,50,51,52,53,54,55,56,57,58,59,60,61,62,63,64,65,66,67,68,69,70,71,72,73,74,75,76,77,78,79,80,81,82,83,84,85,86,87,88,89,90,91,92,93,94,95,96,97,98,99,100,101,102,103,104,105,106,107,108,109,110,111,112,113,114,115,116,117,118,119,120,121,122,123,124,125,126,127,128,129,130,131,132,133,134,135,136,137,138,139,140,141,142,143,144,145,146,147,148,149,150,151,152,153,154,155,156,157,158,159,160,161,162,163,164,165,166,167,168,169,170,171,172,173,174,175,176,177,178,179,180,181,182,183,184,185,186,187,188,189,190,191,192,193,194,195,196,197,198,199,200,201,202,203,204,205,206,207,208,209,210,211,212,213,214,215,216,217,218,219,220,221,222,223,224,225,226,227,228,229,230,231,232,233,234,235,236,237,238,239,240,241,242,243,244,245,246,247,248,249,250,251,252,253,254,255,256,257,258,259,260,261,262,263,264,265,266,267,268,269,270,271,272,273,274,275,276,277,278,279,280,281,282,283,284,285,286,287,288,289,290,291,292,293,294,295,296,297,298,299,300,301,302,303,304,305,306,307,308,309,310,311,312,313,314,315,316,317,318,319,320,321,322,323,324,325,326,327,328,329,330,331,332,333,334,335,336,337,338,339,340,341,342,343,344,345,346,347,348,349,350,351,352,353,354,355,356,357,358,359,360,361,362,363,364,365,366,367,368,369,370,371,372,373,374,375,376,377,378,379,380,381,382,383,384,385,386,387,388,389,390,391,392,393,394,395,396,397,398,399,400,401,402,403,404,405,406,407,408,409,410,411,412,413,414,415,416,417,418,419,420,421,422,423,424,425,426,427,428,429,430,431,432,433,434,435,436,437,438,439,440,441,442,443,444,445,446,447,448,449,450,451,452,453,454,455,456,457,458,459,460,461,462,463,464,465,466,467,468,469,470,471,472,473,474,475,476,477,478,479,480,481,482,483,484,485,486,487,488,489,490,491,492,493,494,495,496,497,498,499,500,501,502,503,504,505,506,507,508,509,510,511,512,513,514,515,516,517,518,519,520,521,522,523,524,525,526,527,528,529,530,531,532,533,534,535,536,537,538,539,540,541,542,543,544,545,546,547,548,549,550,551,552,553,554,555,556,557,558,559,560,561,562,563,564,565,566,567,568,569,570,571,572,573,574,575,576,577,578,579,580,581,582,583,584,585,586,587,588,589,590,591,592,593,594,595,596,597,598,599,600],"tree_info":[0,0,0,0,0,0,0,0,0,0,0,0,0,0,0,0,0,0,0,0,0,0,0,0,0,0,0,0,0,0,0,0,0,0,0,0,0,0,0,0,0,0,0,0,0,0,0,0,0,0,0,0,0,0,0,0,0,0,0,0,0,0,0,0,0,0,0,0,0,0,0,0,0,0,0,0,0,0,0,0,0,0,0,0,0,0,0,0,0,0,0,0,0,0,0,0,0,0,0,0,0,0,0,0,0,0,0,0,0,0,0,0,0,0,0,0,0,0,0,0,0,0,0,0,0,0,0,0,0,0,0,0,0,0,0,0,0,0,0,0,0,0,0,0,0,0,0,0,0,0,0,0,0,0,0,0,0,0,0,0,0,0,0,0,0,0,0,0,0,0,0,0,0,0,0,0,0,0,0,0,0,0,0,0,0,0,0,0,0,0,0,0,0,0,0,0,0,0,0,0,0,0,0,0,0,0,0,0,0,0,0,0,0,0,0,0,0,0,0,0,0,0,0,0,0,0,0,0,0,0,0,0,0,0,0,0,0,0,0,0,0,0,0,0,0,0,0,0,0,0,0,0,0,0,0,0,0,0,0,0,0,0,0,0,0,0,0,0,0,0,0,0,0,0,0,0,0,0,0,0,0,0,0,0,0,0,0,0,0,0,0,0,0,0,0,0,0,0,0,0,0,0,0,0,0,0,0,0,0,0,0,0,0,0,0,0,0,0,0,0,0,0,0,0,0,0,0,0,0,0,0,0,0,0,0,0,0,0,0,0,0,0,0,0,0,0,0,0,0,0,0,0,0,0,0,0,0,0,0,0,0,0,0,0,0,0,0,0,0,0,0,0,0,0,0,0,0,0,0,0,0,0,0,0,0,0,0,0,0,0,0,0,0,0,0,0,0,0,0,0,0,0,0,0,0,0,0,0,0,0,0,0,0,0,0,0,0,0,0,0,0,0,0,0,0,0,0,0,0,0,0,0,0,0,0,0,0,0,0,0,0,0,0,0,0,0,0,0,0,0,0,0,0,0,0,0,0,0,0,0,0,0,0,0,0,0,0,0,0,0,0,0,0,0,0,0,0,0,0,0,0,0,0,0,0,0,0,0,0,0,0,0,0,0,0,0,0,0,0,0,0,0,0,0,0,0,0,0,0,0,0,0,0,0,0,0,0,0,0,0,0,0,0,0,0,0,0,0,0,0,0,0,0,0,0,0,0,0,0,0,0,0,0,0,0,0,0,0,0,0,0,0,0,0,0,0,0,0,0,0,0,0,0,0,0,0,0,0,0,0,0,0,0,0,0,0,0,0,0,0,0,0,0,0,0,0,0,0,0,0,0,0,0,0,0,0,0,0,0,0],"trees":[{"base_weights":[9.047385E-3,-3.0219045E-1,6.821441E-2,1.4082512E0,-3.2864907E-1,8.59454E-2,-1.2233195E0,7.7819034E-2,1.4219957E-2,-4.5677182E-1,7.818005E-2,1.6811745E-1,-1.9343536E-2,-1.4946476E0,-4.5038113E-1,-1.5545747E0,-4.1468933E-1,-1.0064875E0,2.834794E-1,9.011844E-2,3.877636E-1,-8.510738E-2,2.608504E-1,-1.4214478E-1,-1.6442841E0,3.9392105E-1,-9.041734E-2,-1.9143654E-2,-1.6329707E0,3.6080715E-1,-5.174128E-1,8.189541E-1,-1.3290673E0,-7.816318E-2,3.3950552E-1,1.2244481E-1,-7.843975E-1,9.2908686E-1,1.9201237E-1,-3.509455E-2,-8.026715E-1,4.4616026E-1,-2.4739364E-1,6.1341684E-2,-9.472828E-1,-8.537444E-1,-1.7685219E0,-6.24742E-1,6.96001E-1,-2.223181E-2,-8.449361E-2,6.6923625E-3,6.997878E-2,-5.1971197E-2,-2.319278E-2,5.7110656E-2,-1.3170749E-2,-7.374158E-2,-2.622895E-2,6.4458765E-2,9.349774E-3,5.031092E-2,5.1912456E-3,-5.5802938E-2,1.9403448E-2,6.012024E-3,5.292533E-2,-3.4441665E-2,1.47524765E-2,2.6909444E-2,-4.1370094E-3,2.2746626E-2,-4.6443146E-2,1.0011221E-2,3.9578546E-2,-5.7531077E-2,1.6953036E-2,-1.9143654E-2,-6.2264502E-2,-7.937454E-2,-2.9547538E-3,-3.2266673E-2,-9.259837E-2,9.068291E-3,-5.7648826E-2,4.6827532E-2,-2.6378648E-3],"categories":[],"categories_nodes":[],"categories_segments":[],"categories_sizes":[],"default_left":[0,0,0,0,0,0,0,0,0,0,0,0,0,0,0,0,0,0,0,0,0,0,0,0,0,0,0,0,0,0,0,0,0,0,0,0,0,0,0,0,0,0,0,0,0,0,0,0,0,0,0,0,0,0,0,0,0,0,0,0,0,0,0,0,0,0,0,0,0,0,0,0,0,0,0,0,0,0,0,0,0,0,0,0,0,0,0],"id":0,"left_children":[1,3,5,7,9,11,13,-1,-1,15,17,19,21,23,25,27,29,31,33,35,37,39,41,43,45,47,-1,-1,49,51,53,55,57,-1,59,61,63,65,67,69,71,73,75,-1,77,79,81,83,85,-1,-1,-1,-1,-1,-1,-1,-1,-1,-1,-1,-1,-1,-1,-1,-1,-1,-1,-1,-1,-1,-1,-1,-1,-1,-1,-1,-1,-1,-1,-1,-1,-1,-1,-1,-1,-1,-1],"loss_changes":[1.13831436E2,4.514878E1,1.19046844E2,2.0928879E0,5.076155E1,4.433958E1,1.4092255E1,0E0,0E0,3.355327E1,5.237777E1,4.9277092E1,4.1430305E1,1.0225655E1,2.3327118E1,1.8516617E0,5.708725E1,2.3141087E1,2.0963394E1,6.0179653E1,7.9716194E1,6.531453E1,4.03658E1,8.043135E0,3.0510483E0,4.4301243E0,0E0,0E0,9.3685913E-1,1.9648628E1,1.7162964E1,2.4851594E0,3.0031624E0,0E0,2.763791E1,3.363737E1,2.9946896E1,2.0806656E1,5.057447E1,4.656596E1,1.9242622E1,2.6479267E1,6.1223663E1,0E0,2.7930307E-1,4.7107687E0,2.4786682E0,1.6980108E0,1.938273E0,0E0,0E0,0E0,0E0,0E0,0E0,0E0,0E0,0E0,0E0,0E0,0E0,0E0,0E0,0E0,0E0,0E0,0E0,0E0,0E0,0E0,0E0,0E0,0E0,0E0,0E0,0E0,0E0,0E0,0E0,0E0,0E0,0E0,0E0,0E0,0E0,0E0,0E0],"parents":[2147483647,0,0,1,1,2,2,3,3,4,4,5,5,6,6,9,9,10,10,11,11,12,12,13,13,14,14,15,15,16,16,17,17,18,18,19,19,20,20,21,21,22,22,23,23,24,24,25,25,28,28,29,29,30,30,31,31,32,32,34,34,35,35,36,36,37,37,38,38,39,39,40,40,41,41,42,42,44,44,45,45,46,46,47,47,48,48],"right_children":[2,4,6,8,10,12,14,-1,-1,16,18,20,22,24,26,28,30,32,34,36,38,40,42,44,46,48,-1,-1,50,52,54,56,58,-1,60,62,64,66,68,70,72,74,76,-1,78,80,82,84,86,-1,-1,-1,-1,-1,-1,-1,-1,-1,-1,-1,-1,-1,-1,-1,-1,-1,-1,-1,-1,-1,-1,-1,-1,-1,-1,-1,-1,-1,-1,-1,-1,-1,-1,-1,-1,-1,-1],"split_conditions":[-1.0518657E0,-2.0581248E0,1.596886E0,4.8068812E-1,4.508674E-1,3.5848424E-1,1.1599891E0,7.7819034E-2,1.4219957E-2,-1.846404E0,-1.9933326E0,-1.1138133E-3,1.0894629E0,1.432938E0,1.6566131E0,-2.0591662E0,-1.6768532E0,-2.6587504E-1,-5.83789E-1,1.3646022E-2,2.0539589E-1,1.0566099E0,1.5549569E0,-1.2575805E-1,1.5802367E0,-1.0710392E0,-9.041734E-2,-1.9143654E-2,-2.0576854E0,-1.6787139E0,-1.4711307E0,4.0382043E-1,-2.0472324E0,-7.816318E-2,-4.4499132E-1,-1.9380912E0,1.6776468E0,-7.345557E-1,-6.664759E-1,-7.1239907E-1,8.973245E-1,1.4806073E0,-5.6330293E-2,6.1341684E-2,-8.264023E-2,1.5658425E0,-1.6109868E0,1.6198652E0,1.5916827E0,-2.223181E-2,-8.449361E-2,6.6923625E-3,6.997878E-2,-5.1971197E-2,-2.319278E-2,5.7110656E-2,-1.3170749E-2,-7.374158E-2,-2.622895E-2,6.4458765E-2,9.349774E-3,5.031092E-2,5.1912456E-3,-5.5802938E-2,1.9403448E-2,6.012024E-3,5.292533E-2,-3.4441665E-2,1.47524765E-2,2.6909444E-2,-4.1370094E-3,2.2746626E-2,-4.6443146E-2,1.0011221E-2,3.9578546E-2,-5.7531077E-2,1.6953036E-2,-1.9143654E-2,-6.2264502E-2,-7.937454E-2,-2.9547538E-3,-3.2266673E-2,-9.259837E-2,9.068291E-3,-5.7648826E-2,4.6827532E-2,-2.6378648E-3],"split_indices":[11,1,2,7,10,6,11,0,0,12,11,12,12,13,2,0,0,0,12,0,0,6,1,9,0,10,0,0,2,2,12,7,11,0,5,0,11,10,10,11,13,13,11,0,7,6,7,1,12,0,0,0,0,0,0,0,0,0,0,0,0,0,0,0,0,0,0,0,0,0,0,0,0,0,0,0,0,0,0,0,0,0,0,0,0,0,0],"split_type":[0,0,0,0,0,0,0,0,0,0,0,0,0,0,0,0,0,0,0,0,0,0,0,0,0,0,0,0,0,0,0,0,0,0,0,0,0,0,0,0,0,0,0,0,0,0,0,0,0,0,0,0,0,0,0,0,0,0,0,0,0,0,0,0,0,0,0,0,0,0,0,0,0,0,0,0,0,0,0,0,0,0,0,0,0,0,0],"sum_hessian":[6.179327E3,9.8640546E2,5.192922E3,1.4230603E1,9.7217487E2,5.1235166E3,6.9405396E1,1.2233325E1,1.9972776E0,7.392424E2,2.329325E2,2.8773281E3,2.2461882E3,5.068092E1,1.8724478E1,2.596461E1,7.132778E2,3.6450317E1,1.964822E2,2.1243545E3,7.5297363E2,1.8197695E3,4.2641876E2,5.2428536E0,4.5438065E1,1.1983665E1,6.740812E0,1.9972776E0,2.396733E1,8.313668E1,6.301411E2,5.2428536E0,3.1207462E1,4.993194E0,1.91489E2,2.0494565E3,7.489791E1,1.9897878E2,5.539949E2,1.7021798E3,1.1758972E2,3.1257394E2,1.13844826E2,1.747618E0,3.495236E0,7.2401314E0,3.8197933E1,2.496597E0,9.487069E0,1.4979582E0,2.2469374E1,6.915574E1,1.3980944E1,5.6922413E1,5.732187E2,3.9945552E0,1.2482985E0,2.5714949E1,5.4925137E0,2.546529E1,1.660237E2,4.119385E1,2.0082627E3,5.8420372E1,1.6477541E1,2.7712227E1,1.7126656E2,5.742173E1,4.9657315E2,1.2982304E2,1.5723568E3,1.0485707E1,1.0710401E2,1.8349988E2,1.2907407E2,4.4439426E1,6.9405396E1,1.9972776E0,1.4979582E0,3.2455761E0,3.9945552E0,3.2455761E0,3.495236E1,1.2482985E0,1.2482985E0,6.990472E0,2.496597E0],"tree_param":{"num_deleted":"0","num_feature":"14","num_nodes":"87","size_leaf_vector":"1"}},{"base_weights":[-5.45255E-3,8.6789895E-3,-1.168449E0,-2.9166815E-1,6.666804E-2,3.5549605E-1,-1.3073362E0,1.4520401E0,-3.1672204E-1,1.5894198E-1,-8.110003E-2,7.206317E-2,-9.680612E-1,1.5545586E-2,-1.360868E0,7.775005E-2,1.738063E-2,-4.301135E-1,3.52407E-2,6.44117E-2,3.2124048E-1,5.3738736E-2,-2.0478953E-1,-1.4487641E-2,-5.950461E-2,-1.0595533E0,-9.154023E-2,-3.085342E-1,-8.1105316E-1,-9.67573E-1,2.2843277E-1,-1.6587788E0,7.895577E-2,3.6229312E-1,-2.0611909E-1,-2.2482503E-2,6.756714E-1,-1.0874163E0,-1.7604454E-1,-1.3243823E0,-1.9917141E-1,-6.0068E-2,-1.3750687E-2,-1.6226476E-2,-4.5818534E-2,3.383514E-2,-6.295231E-2,-7.481941E-2,1.4005569E-2,-9.523777E-2,-4.501566E-2,4.258789E-2,2.9255475E-3,1.681312E-2,6.502926E-2,2.1463875E-2,-3.703994E-2,1.3137186E-2,-7.1682134E-3,4.9075097E-2,-6.060896E-3,-6.733821E-2,-1.1859339E-2,5.5440377E-2,-1.0173238E-2,-7.430078E-2,5.0322744E-3,2.7646432E-2,-5.073622E-2],"categories":[],"categories_nodes":[],"categories_segments":[],"categories_sizes":[],"default_left":[0,0,0,0,0,0,0,0,0,0,0,0,0,0,0,0,0,0,0,0,0,0,0,0,0,0,0,0,0,0,0,0,0,0,0,0,0,0,0,0,0,0,0,0,0,0,0,0,0,0,0,0,0,0,0,0,0,0,0,0,0,0,0,0,0,0,0,0,0],"id":1,"left_children":[1,3,5,7,9,11,13,15,17,19,21,-1,23,-1,25,-1,-1,27,29,31,33,35,37,-1,-1,39,-1,41,43,45,47,49,51,53,55,57,59,61,63,65,67,-1,-1,-1,-1,-1,-1,-1,-1,-1,-1,-1,-1,-1,-1,-1,-1,-1,-1,-1,-1,-1,-1,-1,-1,-1,-1,-1,-1],"loss_changes":[1.0157677E2,1.0637935E2,1.6169235E1,4.364106E1,6.981523E1,1.1431132E1,6.332367E0,1.0718861E0,3.8936935E1,4.833367E1,3.28429E1,0E0,2.1923947E-1,0E0,7.4362946E0,0E0,0E0,3.391536E1,4.643868E1,5.007838E1,2.51838E1,4.469976E1,2.5863026E1,0E0,0E0,9.470245E0,0E0,1.645399E1,8.816185E0,1.941187E1,1.8320803E1,1.4054985E0,3.1189709E1,2.5853134E1,2.899224E1,2.9023174E1,2.5207645E1,6.780117E0,3.530639E1,7.6327553E0,7.4503193E0,0E0,0E0,0E0,0E0,0E0,0E0,0E0,0E0,0E0,0E0,0E0,0E0,0E0,0E0,0E0,0E0,0E0,0E0,0E0,0E0,0E0,0E0,0E0,0E0,0E0,0E0,0E0,0E0],"parents":[2147483647,0,0,1,1,2,2,3,3,4,4,5,5,6,6,7,7,8,8,9,9,10,10,12,12,14,14,17,17,18,18,19,19,20,20,21,21,22,22,25,25,27,27,28,28,29,29,30,30,31,31,32,32,33,33,34,34,35,35,36,36,37,37,38,38,39,39,40,40],"right_children":[2,4,6,8,10,12,14,16,18,20,22,-1,24,-1,26,-1,-1,28,30,32,34,36,38,-1,-1,40,-1,42,44,46,48,50,52,54,56,58,60,62,64,66,68,-1,-1,-1,-1,-1,-1,-1,-1,-1,-1,-1,-1,-1,-1,-1,-1,-1,-1,-1,-1,-1,-1,-1,-1,-1,-1,-1,-1],"split_conditions":[1.596886E0,-1.0518657E0,1.5561002E0,-2.0581248E0,3.8701826E-1,1.6664094E0,-2.0421443E0,4.8068812E-1,4.508674E-1,4.6245995E-1,2.1213612E-1,7.206317E-2,1.6566131E0,1.5545586E-2,1.6531212E0,7.775005E-2,1.738063E-2,2.9894182E-1,-1.9933326E0,-1.5644456E0,1.1212755E0,-1.1138133E-3,1.8158832E-1,-1.4487641E-2,-5.950461E-2,9.928457E-1,-9.154023E-2,-1.846404E0,-1.6768532E0,-3.3203262E-1,-5.83789E-1,-3.7013497E-2,-1.8317438E0,2.0060935E0,7.891588E-1,-8.5404044E-1,2.1446483E-1,3.995543E-1,2.434692E-1,1.6673577E0,4.8587134E-1,-6.0068E-2,-1.3750687E-2,-1.6226476E-2,-4.5818534E-2,3.383514E-2,-6.295231E-2,-7.481941E-2,1.4005569E-2,-9.523777E-2,-4.501566E-2,4.258789E-2,2.9255475E-3,1.681312E-2,6.502926E-2,2.1463875E-2,-3.703994E-2,1.3137186E-2,-7.1682134E-3,4.9075097E-2,-6.060896E-3,-6.733821E-2,-1.1859339E-2,5.5440377E-2,-1.0173238E-2,-7.430078E-2,5.0322744E-3,2.7646432E-2,-5.073622E-2],"split_indices":[2,11,12,1,3,1,3,7,10,11,6,0,2,0,6,0,0,3,11,10,10,12,13,0,0,11,0,12,0,0,12,11,6,11,11,10,5,5,12,5,3,0,0,0,0,0,0,0,0,0,0,0,0,0,0,0,0,0,0,0,0,0,0,0,0,0,0,0,0],"split_type":[0,0,0,0,0,0,0,0,0,0,0,0,0,0,0,0,0,0,0,0,0,0,0,0,0,0,0,0,0,0,0,0,0,0,0,0,0,0,0,0,0,0,0,0,0,0,0,0,0,0,0,0,0,0,0,0,0,0,0,0,0,0,0,0,0,0,0,0,0],"sum_hessian":[6.1789243E3,6.105726E3,7.319798E1,9.874291E2,5.118297E3,5.9835606E0,6.7214424E1,1.3179808E1,9.7424927E2,3.150739E3,1.9675582E3,3.2382016E0,2.7453587E0,1.9983052E0,6.521612E1,1.1682711E1,1.497097E0,7.366889E2,2.3756038E2,1.9919377E3,1.1588013E3,9.4162335E2,1.0259348E3,1.2454622E0,1.4998966E0,4.1720417E1,2.34957E1,5.598266E2,1.7686229E2,3.7725906E1,1.9983447E2,1.5725444E1,1.9762123E3,1.0753992E3,8.34021E1,8.396799E2,1.019435E2,3.1196737E1,9.947381E2,3.1488752E1,1.0231664E1,1.8997005E1,5.408296E2,3.2198757E1,1.4466353E2,5.481527E0,3.2244377E1,4.999976E0,1.948345E2,1.0733239E1,4.992204E0,4.988608E1,1.9263262E3,1.0476917E3,2.7707434E1,3.8201622E1,4.5200478E1,2.495891E2,5.9009076E2,7.350287E1,2.8440628E1,2.3457443E1,7.739294E0,1.9961218E1,9.7477686E2,2.8242552E1,3.2461998E0,5.49043E0,4.7412343E0],"tree_param":{"num_deleted":"0","num_feature":"14","num_nodes":"69","size_leaf_vector":"1"}},{"base_weights":[-6.557206E-4,-2.8579783E-1,5.2382004E-2,1.2903209E0,-3.1046522E-1,7.512929E-2,-6.3304037E-1,1.4354899E0,5.749807E-3,-4.280291E-1,4.281194E-2,1.6575183E-1,-6.853663E-2,5.886985E-1,-8.720792E-1,7.74522E-2,2.5945885E-2,-3.1911358E-1,-7.62051E-1,-8.1407845E-1,2.0254332E-1,1.0927422E0,1.5095614E-1,5.6891143E-2,-1.8737972E-1,-4.455744E-1,1.1889775E0,-1.3338242E0,-3.5817063E-1,-1.2132192E0,-2.8335556E-1,-9.2166406E-1,-3.7984666E-1,7.4149364E-1,-1.1300882E0,1.16618775E-1,1.2133299E0,1.2472687E0,-6.2518686E-2,1.2732296E-1,7.616111E-1,-9.9073555E-3,5.9461075E-1,-2.287667E-1,4.6886924E-1,-7.489476E-1,3.0628173E-2,8.1618406E-2,-9.274419E-1,1.12261035E-1,-1.3916409E0,-8.5613686E-1,2.2537228E-1,-2.2861267E-2,-7.137958E-2,2.7124483E-2,-1.8648302E-2,-2.2030028E-2,-5.6005813E-2,7.924542E-2,-2.9677307E-2,-3.804269E-2,6.000342E-2,-1.447628E-2,-7.005228E-2,1.1646799E-2,-5.951176E-2,8.149543E-2,1.5953347E-2,7.1173064E-2,2.8886823E-2,5.074342E-3,3.6152326E-2,4.3798022E-2,-5.497873E-2,1.2075836E-3,-5.1120438E-2,4.0174592E-2,-4.90352E-3,-5.5363007E-2,-1.0129933E-2,1.3324999E-3,7.170652E-2,2.4977146E-2,-6.52809E-2,-5.7768233E-2,-1.3063902E-2,5.3640176E-2,-3.9830714E-2,-2.0327626E-2,-7.262209E-2,6.949097E-3,-6.2336516E-2,5.5045437E-2,-3.0575156E-2],"categories":[],"categories_nodes":[],"categories_segments":[],"categories_sizes":[],"default_left":[0,0,0,0,0,0,0,0,0,0,0,0,0,0,0,0,0,0,0,0,0,0,0,0,0,0,0,0,0,0,0,0,0,0,0,0,0,0,0,0,0,0,0,0,0,0,0,0,0,0,0,0,0,0,0,0,0,0,0,0,0,0,0,0,0,0,0,0,0,0,0,0,0,0,0,0,0,0,0,0,0,0,0,0,0,0,0,0,0,0,0,0,0,0,0],"id":2,"left_children":[1,3,5,7,9,11,13,15,-1,17,19,21,23,25,27,-1,-1,29,31,33,35,37,39,41,43,45,47,49,51,53,55,57,59,61,63,65,67,69,-1,71,73,75,77,79,81,83,-1,-1,85,87,89,91,93,-1,-1,-1,-1,-1,-1,-1,-1,-1,-1,-1,-1,-1,-1,-1,-1,-1,-1,-1,-1,-1,-1,-1,-1,-1,-1,-1,-1,-1,-1,-1,-1,-1,-1,-1,-1,-1,-1,-1,-1,-1,-1],"loss_changes":[9.316687E1,3.796395E1,8.103502E1,2.4082508E0,3.956092E1,6.547769E1,4.9271294E1,5.842953E-1,0E0,2.5748657E1,3.282732E1,4.2129417E1,2.901339E1,1.7862183E1,3.2752396E1,0E0,0E0,1.6936539E1,1.0323219E1,1.936713E1,1.7397356E1,1.9042408E1,4.3723732E1,3.403479E1,2.724833E1,3.9834073E0,1.8346321E1,6.2926483E0,1.9848751E1,2.6663399E0,3.8759514E1,1.1222E1,2.3295197E1,5.713745E0,6.8199806E0,2.8737358E1,5.334358E0,4.58033E0,0E0,4.4937828E1,2.4998444E1,2.9118889E1,1.5227772E1,2.1400574E1,2.5407078E1,6.895499E0,0E0,0E0,2.6669455E-1,4.1257873E0,3.6409302E0,1.444029E1,2.4073616E1,0E0,0E0,0E0,0E0,0E0,0E0,0E0,0E0,0E0,0E0,0E0,0E0,0E0,0E0,0E0,0E0,0E0,0E0,0E0,0E0,0E0,0E0,0E0,0E0,0E0,0E0,0E0,0E0,0E0,0E0,0E0,0E0,0E0,0E0,0E0,0E0,0E0,0E0,0E0,0E0,0E0,0E0],"parents":[2147483647,0,0,1,1,2,2,3,3,4,4,5,5,6,6,7,7,9,9,10,10,11,11,12,12,13,13,14,14,17,17,18,18,19,19,20,20,21,21,22,22,23,23,24,24,25,25,26,26,27,27,28,28,29,29,30,30,31,31,32,32,33,33,34,34,35,35,36,36,37,37,39,39,40,40,41,41,42,42,43,43,44,44,45,45,48,48,49,49,50,50,51,51,52,52],"right_children":[2,4,6,8,10,12,14,16,-1,18,20,22,24,26,28,-1,-1,30,32,34,36,38,40,42,44,46,48,50,52,54,56,58,60,62,64,66,68,70,-1,72,74,76,78,80,82,84,-1,-1,86,88,90,92,94,-1,-1,-1,-1,-1,-1,-1,-1,-1,-1,-1,-1,-1,-1,-1,-1,-1,-1,-1,-1,-1,-1,-1,-1,-1,-1,-1,-1,-1,-1,-1,-1,-1,-1,-1,-1,-1,-1,-1,-1,-1,-1],"split_conditions":[-1.0754442E0,-2.0581248E0,1.5623544E0,4.8068812E-1,4.508674E-1,3.8701826E-1,1.5561002E0,1.1973705E0,5.749807E-3,2.6530495E-1,-1.9933326E0,-1.8858664E0,2.1569678E-1,7.5107336E-1,1.0830098E-1,7.74522E-2,2.5945885E-2,-1.846404E0,-9.281401E-2,-2.6587504E-1,7.163844E-1,-3.8855913E-1,1.6776468E0,-1.1138133E-3,1.4806073E0,1.5709915E0,1.6664094E0,-1.8944037E0,2.2199187E-1,-4.7901505E-1,-1.6768532E0,-1.5752124E0,-1.6731168E0,-4.3851817E-1,-1.431975E0,5.866587E-1,6.175742E-1,7.891588E-1,-6.2518686E-2,1.4626406E0,1.5327914E0,1.0250857E-2,3.1397384E-1,1.8158832E-1,1.16761895E-2,3.7093334E-2,3.0628173E-2,8.1618406E-2,1.953042E0,-1.1033776E0,1.5461446E0,-6.2985086E-1,1.5942962E0,-2.2861267E-2,-7.137958E-2,2.7124483E-2,-1.8648302E-2,-2.2030028E-2,-5.6005813E-2,7.924542E-2,-2.9677307E-2,-3.804269E-2,6.000342E-2,-1.447628E-2,-7.005228E-2,1.1646799E-2,-5.951176E-2,8.149543E-2,1.5953347E-2,7.1173064E-2,2.8886823E-2,5.074342E-3,3.6152326E-2,4.3798022E-2,-5.497873E-2,1.2075836E-3,-5.1120438E-2,4.0174592E-2,-4.90352E-3,-5.5363007E-2,-1.0129933E-2,1.3324999E-3,7.170652E-2,2.4977146E-2,-6.52809E-2,-5.7768233E-2,-1.3063902E-2,5.3640176E-2,-3.9830714E-2,-2.0327626E-2,-7.262209E-2,6.949097E-3,-6.2336516E-2,5.5045437E-2,-3.0575156E-2],"split_indices":[11,1,4,7,10,3,12,3,0,3,11,5,4,11,10,0,0,12,10,0,13,10,11,12,13,5,1,3,11,10,0,11,12,5,3,12,5,11,0,13,0,1,13,13,11,3,0,0,3,7,5,11,12,0,0,0,0,0,0,0,0,0,0,0,0,0,0,0,0,0,0,0,0,0,0,0,0,0,0,0,0,0,0,0,0,0,0,0,0,0,0,0,0,0,0],"split_type":[0,0,0,0,0,0,0,0,0,0,0,0,0,0,0,0,0,0,0,0,0,0,0,0,0,0,0,0,0,0,0,0,0,0,0,0,0,0,0,0,0,0,0,0,0,0,0,0,0,0,0,0,0,0,0,0,0,0,0,0,0,0,0,0,0,0,0,0,0,0,0,0,0,0,0,0,0,0,0,0,0,0,0,0,0,0,0,0,0,0,0,0,0,0,0],"sum_hessian":[6.1585005E3,9.6516724E2,5.1933335E3,1.408214E1,9.510851E2,5.027379E3,1.6595454E2,1.2336993E1,1.7451466E0,7.1345074E2,2.3763438E2,3.0826995E3,1.9446793E3,2.6917114E1,1.3903743E2,1.0363074E1,1.9739189E0,5.3949225E2,1.7395848E2,3.6693413E1,2.0094098E2,4.7285404E1,3.035414E3,9.4638245E2,9.9829694E2,9.97979E0,1.6937325E1,7.239517E1,6.664226E1,1.9479965E1,5.2001227E2,1.2171669E2,5.2241795E1,5.96821E0,3.0725203E1,1.8622574E2,1.4715233E1,4.479866E1,2.4867444E0,2.92348E3,1.1193421E2,8.4268146E2,1.0370097E2,9.3968616E2,5.861082E1,7.983176E0,1.9966129E0,1.4192668E1,2.7446563E0,2.7469954E0,6.964818E1,3.5705685E1,3.0936573E1,4.9956036E0,1.4484361E1,5.0407307E1,4.6960495E2,3.648774E1,8.522895E1,4.495313E0,4.7746483E1,1.2415543E0,4.7266555E0,7.994189E0,2.2731014E1,1.7175992E2,1.4465821E1,9.477608E0,5.237625E0,3.457415E1,1.0224512E1,2.8030825E3,1.20397385E2,1.0595387E2,5.980344E0,8.162018E2,2.6479658E1,7.9551796E1,2.4149176E1,2.5986116E1,9.137E2,4.0900505E1,1.7710316E1,2.493476E0,5.4897003E0,1.4978304E0,1.246826E0,1.2478474E0,1.4991479E0,4.495715E0,6.5152466E1,1.0246007E1,2.5459677E1,1.4964871E1,1.5971702E1],"tree_param":{"num_deleted":"0","num_feature":"14","num_nodes":"95","size_leaf_vector":"1"}},{"base_weights":[-1.9983118E-3,-2.662278E-1,4.8807733E-2,1.272836E0,-2.910421E-1,6.402546E-2,-1.0345111E0,1.4076794E0,5.5681714E-3,-4.8855707E-1,-7.449142E-2,1.5054189E-1,-7.391163E-2,3.971344E-1,-1.1639084E0,1.5121369E0,2.5138259E-2,-3.5622054E-1,-8.929913E-1,6.221136E-1,-1.7025985E-1,6.6057995E-2,2.9509288E-1,-1.3626745E-1,1.667682E-1,6.699873E-2,-8.476695E-1,1.4969173E-2,-1.2142318E0,7.890739E-2,2.5200604E-2,-3.985254E-2,-4.893111E-1,-4.776947E-1,-1.054758E0,-1.0368083E0,7.758475E-1,-1.2968166E0,-9.509348E-2,-1.6048735E0,7.878674E-2,5.156587E-1,1.8638659E-1,1.7365053E-2,-2.705793E-1,1.118881E0,9.4522744E-2,-1.1195606E-2,-5.4701664E-2,-1.3749319E0,-6.2035954E-1,-1.2458086E-2,3.504904E-2,-4.5591425E-2,-1.8540887E-2,-4.659362E-2,8.48265E-2,-3.8735505E-2,-7.178023E-2,-1.5956538E-2,-6.900515E-2,5.0930288E-2,-3.26638E-2,-1.3346112E-2,-9.4078645E-2,6.922757E-3,-1.5684744E-2,-8.997431E-2,-4.7067426E-2,2.1211756E-3,2.2071248E-2,4.592444E-2,1.6353028E-2,4.765681E-3,3.537561E-2,-2.80901E-3,4.042594E-2,1.363353E-2,-1.6161945E-2,6.9115594E-2,-1.1666949E-2,4.4287696E-2,1.3114447E-3,1.6847888E-3,-7.252499E-2,7.948046E-5,-7.724013E-2],"categories":[],"categories_nodes":[],"categories_segments":[],"categories_sizes":[],"default_left":[0,0,0,0,0,0,0,0,0,0,0,0,0,0,0,0,0,0,0,0,0,0,0,0,0,0,0,0,0,0,0,0,0,0,0,0,0,0,0,0,0,0,0,0,0,0,0,0,0,0,0,0,0,0,0,0,0,0,0,0,0,0,0,0,0,0,0,0,0,0,0,0,0,0,0,0,0,0,0,0,0,0,0,0,0,0,0],"id":3,"left_children":[1,3,5,7,9,11,13,15,-1,17,19,21,23,25,27,29,-1,31,33,35,37,39,41,43,45,-1,47,-1,49,-1,-1,51,53,55,57,59,61,63,65,67,69,71,73,75,77,79,81,-1,-1,83,85,-1,-1,-1,-1,-1,-1,-1,-1,-1,-1,-1,-1,-1,-1,-1,-1,-1,-1,-1,-1,-1,-1,-1,-1,-1,-1,-1,-1,-1,-1,-1,-1,-1,-1,-1,-1],"loss_changes":[8.2678406E1,3.8302727E1,8.522434E1,2.3406277E0,4.180686E1,6.0813644E1,1.3729141E1,5.821285E-1,0E0,2.7055443E1,3.131654E1,3.822222E1,2.950623E1,8.9781275E0,5.2187424E0,1.8699646E-2,0E0,1.6276203E1,7.9227066E0,1.5279745E1,3.4771027E1,4.2188347E1,2.7592354E1,3.221235E1,2.7731567E1,0E0,2.9170346E-1,0E0,5.249138E0,0E0,0E0,1.8113977E1,1.3296196E1,3.8107376E1,8.42717E0,8.510175E-1,1.8885231E1,1.4972729E1,1.9820814E1,2.4275208E-1,2.5875074E1,2.862104E1,3.6719994E1,4.2462723E1,2.3913769E1,1.0456863E1,2.0361704E1,0E0,0E0,5.3180313E0,8.879347E0,0E0,0E0,0E0,0E0,0E0,0E0,0E0,0E0,0E0,0E0,0E0,0E0,0E0,0E0,0E0,0E0,0E0,0E0,0E0,0E0,0E0,0E0,0E0,0E0,0E0,0E0,0E0,0E0,0E0,0E0,0E0,0E0,0E0,0E0,0E0,0E0],"parents":[2147483647,0,0,1,1,2,2,3,3,4,4,5,5,6,6,7,7,9,9,10,10,11,11,12,12,13,13,14,14,15,15,17,17,18,18,19,19,20,20,21,21,22,22,23,23,24,24,26,26,28,28,31,31,32,32,33,33,34,34,35,35,36,36,37,37,38,38,39,39,40,40,41,41,42,42,43,43,44,44,45,45,46,46,49,49,50,50],"right_children":[2,4,6,8,10,12,14,16,-1,18,20,22,24,26,28,30,-1,32,34,36,38,40,42,44,46,-1,48,-1,50,-1,-1,52,54,56,58,60,62,64,66,68,70,72,74,76,78,80,82,-1,-1,84,86,-1,-1,-1,-1,-1,-1,-1,-1,-1,-1,-1,-1,-1,-1,-1,-1,-1,-1,-1,-1,-1,-1,-1,-1,-1,-1,-1,-1,-1,-1,-1,-1,-1,-1,-1,-1],"split_conditions":[-1.0518657E0,-2.0581248E0,1.596886E0,4.8068812E-1,-1.080532E-1,3.8701826E-1,1.5561002E0,1.1973705E0,5.5681714E-3,2.6530495E-1,-5.100847E-1,4.6245995E-1,1.1599891E0,1.6664094E0,-2.0421443E0,1.9461295E-1,2.5138259E-2,-8.950651E-1,-1.5752124E0,-1.7929643E0,-1.7522065E-1,-1.5644456E0,7.891588E-1,2.1152703E-1,1.210376E0,6.699873E-2,2.740152E-1,1.4969173E-2,1.1599891E0,7.890739E-2,2.5200604E-2,3.2295084E-1,-6.7960274E-1,-1.6190587E0,-3.7545508E-1,1.1803166E-1,-1.2233397E0,-4.6429208E-1,-3.2492217E-1,-3.7013497E-2,1.0817538E0,-3.4623826E-1,1.6776468E0,1.9571082E-1,-7.1239907E-1,5.8560896E-1,-1.1047887E0,-1.1195606E-2,-5.4701664E-2,-7.561557E-1,1.6566131E0,-1.2458086E-2,3.504904E-2,-4.5591425E-2,-1.8540887E-2,-4.659362E-2,8.48265E-2,-3.8735505E-2,-7.178023E-2,-1.5956538E-2,-6.900515E-2,5.0930288E-2,-3.26638E-2,-1.3346112E-2,-9.4078645E-2,6.922757E-3,-1.5684744E-2,-8.997431E-2,-4.7067426E-2,2.1211756E-3,2.2071248E-2,4.592444E-2,1.6353028E-2,4.765681E-3,3.537561E-2,-2.80901E-3,4.042594E-2,1.363353E-2,-1.6161945E-2,6.9115594E-2,-1.1666949E-2,4.4287696E-2,1.3114447E-3,1.6847888E-3,-7.252499E-2,7.948046E-5,-7.724013E-2],"split_indices":[11,1,2,7,10,3,12,3,0,3,4,11,11,1,3,8,0,10,11,4,12,10,11,4,11,0,7,0,11,0,0,12,8,11,0,8,11,0,3,11,4,2,11,12,11,0,10,0,0,11,2,0,0,0,0,0,0,0,0,0,0,0,0,0,0,0,0,0,0,0,0,0,0,0,0,0,0,0,0,0,0,0,0,0,0,0,0],"split_type":[0,0,0,0,0,0,0,0,0,0,0,0,0,0,0,0,0,0,0,0,0,0,0,0,0,0,0,0,0,0,0,0,0,0,0,0,0,0,0,0,0,0,0,0,0,0,0,0,0,0,0,0,0,0,0,0,0,0,0,0,0,0,0,0,0,0,0,0,0,0,0,0,0,0,0,0,0,0,0,0,0,0,0,0,0,0,0],"sum_hessian":[6.156822E3,9.9223193E2,5.16459E3,1.4945859E1,9.772861E2,5.093974E3,7.06158E1,1.3201255E1,1.7446039E0,5.1045035E2,4.6683575E2,3.130427E3,1.9635469E3,5.6819444E0,6.493385E1,1.1233502E1,1.9677525E0,3.8602E2,1.2443035E2,5.575879E1,4.1107697E2,1.9766288E3,1.1537982E3,1.5598512E3,4.0369568E2,3.189612E0,2.4923325E0,1.9943224E0,6.2939533E1,1.0012469E1,1.2210329E0,1.1469036E2,2.7132962E2,3.598937E1,8.844099E1,4.241811E0,5.151698E1,2.4695799E1,3.8638116E2,1.3997988E1,1.9626309E3,3.7968045E2,7.7411774E2,7.279999E2,8.318513E2,2.7449905E1,3.7624576E2,1.2461438E0,1.2461885E0,4.8500294E1,1.4439239E1,8.994241E1,2.4747944E1,5.7960827E1,2.133688E2,3.024321E1,5.7461586E0,5.271341E1,3.5727573E1,1.9968632E0,2.2449477E0,4.4282223E1,7.2347546E0,9.471213E0,1.52245865E1,1.8698134E2,1.9939983E2,9.499705E0,4.498283E0,1.7847805E3,1.7785028E2,1.1984063E2,2.598398E2,6.5996405E2,1.1415375E2,6.669313E2,6.1068604E1,7.314017E1,7.587112E2,2.2955593E1,4.4943137E0,2.8943672E1,3.473021E2,2.4975994E0,4.6002693E1,9.228646E0,5.2105923E0],"tree_param":{"num_deleted":"0","num_feature":"14","num_nodes":"87","size_leaf_vector":"1"}},{"base_weights":[3.5908858E-3,1.5831552E-2,-1.0424984E0,1.3868344E0,1.0067894E-2,2.4872099E-1,-1.1575391E0,1.4875904E0,-1.623134E-2,7.5190485E-2,-1.05251074E-1,6.368765E-2,-8.911851E-1,-8.9936054E-1,-1.5628123E0,7.7589415E-2,2.905207E-2,-1.0922341E0,8.037491E-2,-4.7188547E-2,-2.8761473E-1,-1.08851455E-2,-5.703044E-2,6.0561925E-2,-1.0062777E0,2.8226437E-4,-8.329193E-2,-1.9324724E-2,-1.5916828E0,8.500588E-1,7.2111666E-2,-8.172505E-2,6.1999077E-1,-1.539083E0,-2.3282005E-1,-1.2973394E0,-5.88236E-1,-6.975915E-2,6.822809E-2,-8.63169E-2,-3.1161685E-2,-5.1744278E-3,7.093827E-2,1.1536754E-2,1.7015025E-3,8.382895E-5,-1.22553855E-2,1.0450106E-2,5.7638224E-2,-2.5201663E-2,-8.792681E-2,-1.0064772E-2,-7.084296E-2,-7.235976E-2,-1.4085084E-2,-1.3968577E-2,-6.1804783E-2],"categories":[],"categories_nodes":[],"categories_segments":[],"categories_sizes":[],"default_left":[0,0,0,0,0,0,0,0,0,0,0,0,0,0,0,0,0,0,0,0,0,0,0,0,0,0,0,0,0,0,0,0,0,0,0,0,0,0,0,0,0,0,0,0,0,0,0,0,0,0,0,0,0,0,0,0,0],"id":4,"left_children":[1,3,5,7,9,11,13,15,-1,17,19,-1,21,23,25,-1,-1,27,29,31,33,-1,-1,-1,35,-1,-1,37,39,41,43,45,47,49,51,53,55,-1,-1,-1,-1,-1,-1,-1,-1,-1,-1,-1,-1,-1,-1,-1,-1,-1,-1,-1,-1],"loss_changes":[7.888796E1,4.810326E1,1.0872482E1,4.877472E0,4.5553535E1,8.907978E0,5.458763E0,5.094681E-1,0E0,2.3550213E1,2.316711E1,0E0,3.7960768E-1,1.0793545E1,3.9156876E0,0E0,0E0,9.190243E0,2.4490698E1,3.8340385E1,3.588292E1,0E0,0E0,0E0,4.217106E0,0E0,0E0,1.4238538E1,4.536953E-1,2.2332468E1,2.3069891E1,2.1541409E1,1.769273E1,4.1088142E0,1.8658253E1,3.1386185E0,3.382553E0,0E0,0E0,0E0,0E0,0E0,0E0,0E0,0E0,0E0,0E0,0E0,0E0,0E0,0E0,0E0,0E0,0E0,0E0,0E0,0E0],"parents":[2147483647,0,0,1,1,2,2,3,3,4,4,5,5,6,6,7,7,9,9,10,10,12,12,13,13,14,14,17,17,18,18,19,19,20,20,24,24,27,27,28,28,29,29,30,30,31,31,32,32,33,33,34,34,35,35,36,36],"right_children":[2,4,6,8,10,12,14,16,-1,18,20,-1,22,24,26,-1,-1,28,30,32,34,-1,-1,-1,36,-1,-1,38,40,42,44,46,48,50,52,54,56,-1,-1,-1,-1,-1,-1,-1,-1,-1,-1,-1,-1,-1,-1,-1,-1,-1,-1,-1,-1],"split_conditions":[1.596886E0,-2.0581248E0,1.5561002E0,1.451892E0,3.8701826E-1,1.6664094E0,1.6531212E0,1.9461295E-1,-1.623134E-2,-1.5644456E0,7.750245E-1,6.368765E-2,2.740152E-1,1.432938E0,-1.7820147E0,7.7589415E-2,2.905207E-2,-1.2532688E0,-1.3989348E0,7.163844E-1,7.22413E-1,-1.08851455E-2,-5.703044E-2,6.0561925E-2,1.6214901E0,2.8226437E-4,-8.329193E-2,-1.4032917E0,-2.631264E-1,-1.4929827E0,-6.910472E-1,2.1028306E-1,2.579446E-1,7.845772E-1,1.396043E0,6.7282736E-1,4.8587134E-1,-6.975915E-2,6.822809E-2,-8.63169E-2,-3.1161685E-2,-5.1744278E-3,7.093827E-2,1.1536754E-2,1.7015025E-3,8.382895E-5,-1.22553855E-2,1.0450106E-2,5.7638224E-2,-2.5201663E-2,-8.792681E-2,-1.0064772E-2,-7.084296E-2,-7.235976E-2,-1.4085084E-2,-1.3968577E-2,-6.1804783E-2],"split_indices":[2,1,12,3,3,1,6,8,0,10,0,0,7,13,3,0,0,2,10,13,12,0,0,0,4,0,0,0,8,10,7,2,10,5,10,10,3,0,0,0,0,0,0,0,0,0,0,0,0,0,0,0,0,0,0,0,0],"split_type":[0,0,0,0,0,0,0,0,0,0,0,0,0,0,0,0,0,0,0,0,0,0,0,0,0,0,0,0,0,0,0,0,0,0,0,0,0,0,0,0,0,0,0,0,0,0,0,0,0,0,0,0,0,0,0,0,0],"sum_hessian":[6.1585083E3,6.0882524E3,7.025597E1,2.448457E1,6.0637676E3,5.652311E0,6.460365E1,2.3246805E1,1.2377646E0,3.875535E3,2.188233E3,2.9142897E0,2.7380211E0,4.142993E1,2.3173723E1,2.1044758E1,2.2020473E0,1.6207752E1,3.8593271E3,1.6607329E3,5.274999E2,1.2461224E0,1.4918988E0,1.4995366E0,3.9930393E1,1.4866331E0,2.1687092E1,5.478214E0,1.0729539E1,3.9911133E1,3.819416E3,1.5798306E3,8.090235E1,2.0991106E1,5.0650876E2,2.230037E1,1.7630024E1,2.7429817E0,2.7352324E0,8.732741E0,1.9967979E0,1.5216212E1,2.4694918E1,7.384504E2,3.0809658E3,1.0465765E3,5.3325415E2,4.6457054E1,3.4445293E1,4.248736E0,1.6742369E1,4.9451254E2,1.1996206E1,1.9062775E1,3.237595E0,1.29076E1,4.7224236E0],"tree_param":{"num_deleted":"0","num_feature":"14","num_nodes":"57","size_leaf_vector":"1"}},{"base_weights":[2.3590797E-3,-2.5970712E-1,5.0901804E-2,1.2270449E0,-2.827474E-1,6.543261E-2,-9.7209334E-1,3.8698667E-1,7.193343E-2,-3.8243502E-1,2.2271706E-2,1.3685022E-1,-4.9192145E-2,1.1633525E-1,-1.0977504E0,4.1489515E-2,-2.1001136E-2,-1.2945983E0,-3.48082E-1,-8.7243026E-1,1.9035494E-1,1.154755E-1,7.0094854E-1,-1.15124345E-1,2.0031376E-1,6.8588816E-2,-8.151255E-1,3.7048012E-2,-1.1522256E0,-4.2186957E-3,-1.4070963E0,4.3181714E-1,-4.5156753E-1,3.5517572E-3,-1.3378005E0,1.0007862E-1,1.2231133E0,9.0702313E-1,1.0293475E-1,7.991845E-1,-7.578584E-2,1.7091848E-2,-2.2743884E-1,7.145048E-1,7.199871E-2,1.545681E-2,-6.562062E-2,-8.7263983E-1,-7.885709E-2,-5.0789207E-2,-7.9972155E-2,-4.1791234E-2,3.0768326E-2,-7.674227E-3,-2.8071737E-2,1.9210568E-2,-6.844505E-2,-7.73563E-2,1.7867332E-2,9.247256E-3,-6.778553E-2,7.5628325E-2,1.1128247E-2,5.1699996E-2,-5.7010304E-2,1.54312225E-2,3.285553E-3,5.1166177E-2,1.0653812E-2,-2.9843368E-3,3.8061883E-2,-6.0712483E-2,-9.840976E-3,7.4612745E-3,4.9895767E-2,4.3475356E-2,4.2691777E-4,-7.841637E-2,-1.9652292E-2],"categories":[],"categories_nodes":[],"categories_segments":[],"categories_sizes":[],"default_left":[0,0,0,0,0,0,0,0,0,0,0,0,0,0,0,0,0,0,0,0,0,0,0,0,0,0,0,0,0,0,0,0,0,0,0,0,0,0,0,0,0,0,0,0,0,0,0,0,0,0,0,0,0,0,0,0,0,0,0,0,0,0,0,0,0,0,0,0,0,0,0,0,0,0,0,0,0,0,0],"id":5,"left_children":[1,3,5,7,9,11,13,15,-1,17,19,21,23,25,27,-1,-1,29,31,33,35,37,39,41,43,-1,45,-1,47,-1,49,51,53,55,57,59,61,63,65,67,-1,69,71,73,75,-1,-1,77,-1,-1,-1,-1,-1,-1,-1,-1,-1,-1,-1,-1,-1,-1,-1,-1,-1,-1,-1,-1,-1,-1,-1,-1,-1,-1,-1,-1,-1,-1,-1],"loss_changes":[7.849103E1,3.337796E1,7.7445946E1,2.0925598E0,2.89058E1,4.2032547E1,1.0107735E1,1.9089581E0,0E0,2.199575E1,3.5512207E1,3.8059933E1,3.245451E1,1.100719E1,7.415863E0,0E0,0E0,3.370823E0,5.6020264E1,1.5231232E1,1.8401928E1,3.0172573E1,2.6316166E1,2.3169939E1,2.7160402E1,0E0,3.4705577E0,0E0,6.229309E0,0E0,1.3559341E-1,1.9486774E1,1.9928757E1,7.817109E0,9.209206E0,2.2959387E1,4.263136E0,1.3506992E1,2.2968832E1,1.4370697E1,0E0,4.1037094E1,2.524974E1,1.3028919E1,1.6753641E1,0E0,0E0,1.3013689E1,0E0,0E0,0E0,0E0,0E0,0E0,0E0,0E0,0E0,0E0,0E0,0E0,0E0,0E0,0E0,0E0,0E0,0E0,0E0,0E0,0E0,0E0,0E0,0E0,0E0,0E0,0E0,0E0,0E0,0E0,0E0],"parents":[2147483647,0,0,1,1,2,2,3,3,4,4,5,5,6,6,7,7,9,9,10,10,11,11,12,12,13,13,14,14,17,17,18,18,19,19,20,20,21,21,22,22,23,23,24,24,26,26,28,28,30,30,31,31,32,32,33,33,34,34,35,35,36,36,37,37,38,38,39,39,41,41,42,42,43,43,44,44,47,47],"right_children":[2,4,6,8,10,12,14,16,-1,18,20,22,24,26,28,-1,-1,30,32,34,36,38,40,42,44,-1,46,-1,48,-1,50,52,54,56,58,60,62,64,66,68,-1,70,72,74,76,-1,-1,78,-1,-1,-1,-1,-1,-1,-1,-1,-1,-1,-1,-1,-1,-1,-1,-1,-1,-1,-1,-1,-1,-1,-1,-1,-1,-1,-1,-1,-1,-1,-1],"split_conditions":[-1.0754442E0,-2.0581248E0,1.6076763E0,-6.6359216E-1,4.508674E-1,3.8701826E-1,1.543249E0,7.193998E-1,7.193343E-2,-1.846404E0,-1.9933326E0,1.6776468E0,1.1599891E0,-4.9801108E-1,-2.0421443E0,4.1489515E-2,-2.1001136E-2,-2.0591662E0,-1.6768532E0,-1.17784E0,7.163844E-1,-1.8858664E0,1.540597E0,2.0042534E-1,-7.680756E-1,6.8588816E-2,-4.975314E-1,3.7048012E-2,1.6531212E0,-4.2186957E-3,-1.2622541E0,-1.1905226E0,-1.0846697E0,5.982727E-1,-2.0472324E0,4.0941662E-1,6.3296044E-1,-3.8855913E-1,-7.8416264E-1,3.7093334E-2,-7.578584E-2,-2.4984904E-2,1.8158832E-1,-1.4104869E0,1.210376E0,1.545681E-2,-6.562062E-2,1.6890045E-1,-7.885709E-2,-5.0789207E-2,-7.9972155E-2,-4.1791234E-2,3.0768326E-2,-7.674227E-3,-2.8071737E-2,1.9210568E-2,-6.844505E-2,-7.73563E-2,1.7867332E-2,9.247256E-3,-6.778553E-2,7.5628325E-2,1.1128247E-2,5.1699996E-2,-5.7010304E-2,1.54312225E-2,3.285553E-3,5.1166177E-2,1.0653812E-2,-2.9843368E-3,3.8061883E-2,-6.0712483E-2,-9.840976E-3,7.4612745E-3,4.9895767E-2,4.3475356E-2,4.2691777E-4,-7.841637E-2,-1.9652292E-2],"split_indices":[11,1,6,9,10,3,12,3,0,12,11,11,11,3,3,0,0,0,0,3,13,5,4,6,10,0,7,0,6,0,11,10,3,0,11,1,0,10,7,3,0,13,13,5,11,0,0,11,0,0,0,0,0,0,0,0,0,0,0,0,0,0,0,0,0,0,0,0,0,0,0,0,0,0,0,0,0,0,0],"split_type":[0,0,0,0,0,0,0,0,0,0,0,0,0,0,0,0,0,0,0,0,0,0,0,0,0,0,0,0,0,0,0,0,0,0,0,0,0,0,0,0,0,0,0,0,0,0,0,0,0,0,0,0,0,0,0,0,0,0,0,0,0,0,0,0,0,0,0,0,0,0,0,0,0,0,0,0,0,0,0],"sum_hessian":[6.167957E3,9.6326355E2,5.2046934E3,1.3902475E1,9.493611E2,5.132723E3,7.197008E1,3.366705E0,1.053577E1,7.153225E2,2.3403856E2,3.1622632E3,1.9704601E3,7.4565325E0,6.451354E1,2.1556678E0,1.2110372E0,2.463059E1,6.9069196E2,3.6351288E1,1.9768727E2,3.0479744E3,1.1428866E2,1.5590248E3,4.1143533E2,2.9745972E0,4.481935E0,1.4937296E0,6.3019814E1,2.2436767E0,2.2386913E1,8.054055E1,6.1015137E2,1.2956051E1,2.3395237E1,1.828047E2,1.488257E1,4.6424477E1,3.00155E3,1.10050995E2,4.237666E0,7.164594E2,8.4256537E2,8.125551E1,3.3017984E2,1.4905244E0,2.9914105E0,3.9851826E1,2.316799E1,9.447611E0,1.29393015E1,9.737444E0,7.080311E1,1.6496863E2,4.4518277E2,1.0706564E1,2.2494872E0,2.090153E1,2.4937084E0,1.7355983E2,9.2448635E0,1.1146276E1,3.736293E0,4.4179245E1,2.2452335E0,4.5883585E2,2.542714E3,7.906794E1,3.0983055E1,6.5028485E2,6.617452E1,2.419345E1,8.183719E2,2.7644146E1,5.3611362E1,2.3400713E1,3.067791E2,1.5335867E1,2.4515959E1],"tree_param":{"num_deleted":"0","num_feature":"14","num_nodes":"79","size_leaf_vector":"1"}},{"base_weights":[4.2346427E-3,-2.4497177E-1,5.0576963E-2,1.1177495E0,-2.6573274E-1,6.432804E-2,-9.415157E-1,1.2563747E0,2.4367613E-3,-4.4134042E-1,-7.226081E-2,1.762054E-1,-8.291063E-3,-7.2063994E-1,-1.5477374E0,1.3689659E0,1.5797717E-2,-3.3196443E-1,-7.886772E-1,6.866757E-1,-1.7826903E-1,1.5484151E-1,9.3350786E-1,-6.2748775E-2,2.0667273E-1,-1.0182341E0,3.8620528E-2,-3.38132E-2,-1.626154E0,7.166443E-2,2.251237E-2,-2.0880695E-3,-4.6138668E-1,-6.758583E-1,-7.654633E-2,-8.402027E-1,8.279167E-1,-9.2709404E-1,-9.966656E-2,1.0450675E0,1.4042877E-1,1.0739133E0,-7.254191E-2,4.453487E-1,-8.06798E-2,6.1031556E-1,1.04199946E-1,-1.282155E0,-7.326232E-2,1.0410244E0,-7.1387246E-2,-8.4076576E-2,-2.6417201E-2,4.7837395E-2,-6.255348E-3,-9.621236E-3,-3.4369092E-2,-3.7984036E-2,7.466995E-2,1.1499892E-2,-6.1610747E-2,5.1444925E-2,-1.4054716E-2,-5.6708246E-2,5.4270253E-3,7.5910784E-2,-7.360817E-3,6.2486734E-2,-5.497054E-2,1.7639754E-2,4.343878E-3,7.4204737E-3,6.7601494E-2,4.1157957E-2,-6.149925E-4,-1.8041307E-4,-8.957829E-3,-2.3966858E-3,4.0952165E-2,4.809624E-2,2.2078992E-3,-1.9832987E-3,-7.0804365E-2,-4.9297486E-2,5.942128E-2,-1.4950088E-2,7.019835E-2],"categories":[],"categories_nodes":[],"categories_segments":[],"categories_sizes":[],"default_left":[0,0,0,0,0,0,0,0,0,0,0,0,0,0,0,0,0,0,0,0,0,0,0,0,0,0,0,0,0,0,0,0,0,0,0,0,0,0,0,0,0,0,0,0,0,0,0,0,0,0,0,0,0,0,0,0,0,0,0,0,0,0,0,0,0,0,0,0,0,0,0,0,0,0,0,0,0,0,0,0,0,0,0,0,0,0,0],"id":6,"left_children":[1,3,5,7,9,11,13,15,-1,17,19,21,23,25,27,29,-1,31,33,35,37,39,41,43,45,47,49,-1,51,-1,-1,53,55,57,-1,59,61,63,65,67,69,71,-1,73,75,77,79,81,83,85,-1,-1,-1,-1,-1,-1,-1,-1,-1,-1,-1,-1,-1,-1,-1,-1,-1,-1,-1,-1,-1,-1,-1,-1,-1,-1,-1,-1,-1,-1,-1,-1,-1,-1,-1,-1,-1],"loss_changes":[7.130364E1,2.7686249E1,7.1081696E1,2.120142E0,3.239367E1,4.1726097E1,8.423008E0,9.428673E-1,0E0,1.8737007E1,3.675238E1,3.256101E1,3.6480927E1,1.2259506E1,1.4076233E-1,2.2483826E-2,0E0,1.6310356E1,8.933601E0,1.2774004E1,2.3468258E1,2.5093948E1,2.0059029E1,2.2687893E1,2.5990763E1,9.605331E0,2.528747E1,0E0,8.073044E-2,0E0,0E0,1.2936875E1,1.6546658E1,2.0249294E1,0E0,2.4811194E0,1.1827999E1,8.251869E0,2.8178402E1,1.50619545E1,2.1998299E1,1.3380993E1,0E0,1.4690624E1,1.8232956E1,1.7533783E1,2.5891321E1,4.99263E0,1.217005E1,5.378687E0,0E0,0E0,0E0,0E0,0E0,0E0,0E0,0E0,0E0,0E0,0E0,0E0,0E0,0E0,0E0,0E0,0E0,0E0,0E0,0E0,0E0,0E0,0E0,0E0,0E0,0E0,0E0,0E0,0E0,0E0,0E0,0E0,0E0,0E0,0E0,0E0,0E0],"parents":[2147483647,0,0,1,1,2,2,3,3,4,4,5,5,6,6,7,7,9,9,10,10,11,11,12,12,13,13,14,14,15,15,17,17,18,18,19,19,20,20,21,21,22,22,23,23,24,24,25,25,26,26,28,28,31,31,32,32,33,33,35,35,36,36,37,37,38,38,39,39,40,40,41,41,43,43,44,44,45,45,46,46,47,47,48,48,49,49],"right_children":[2,4,6,8,10,12,14,16,-1,18,20,22,24,26,28,30,-1,32,34,36,38,40,42,44,46,48,50,-1,52,-1,-1,54,56,58,-1,60,62,64,66,68,70,72,-1,74,76,78,80,82,84,86,-1,-1,-1,-1,-1,-1,-1,-1,-1,-1,-1,-1,-1,-1,-1,-1,-1,-1,-1,-1,-1,-1,-1,-1,-1,-1,-1,-1,-1,-1,-1,-1,-1,-1,-1,-1,-1],"split_conditions":[-1.0754442E0,-2.0581248E0,1.6076763E0,4.8068812E-1,-1.080532E-1,-2.0878303E-1,2.5478852E-1,1.1973705E0,2.4367613E-3,2.9894182E-1,-5.100847E-1,1.7344261E0,1.1207471E0,9.928457E-1,-5.0755376E-1,1.9461295E-1,1.5797717E-2,-9.084067E-1,6.454807E-1,-1.7929643E0,1.0914601E-1,-1.8858664E0,1.5340778E0,-9.4669944E-1,-7.593481E-1,1.6673577E0,1.6664094E0,-3.38132E-2,1.4251318E0,7.166443E-2,2.251237E-2,-1.8062226E0,-4.6827886E-1,6.6337603E-1,-7.654633E-2,-5.596525E-1,-1.2233397E0,-2.535548E-1,-2.6562202E-1,-4.2904854E-1,-6.910472E-1,-2.6370373E-1,-7.254191E-2,8.9267895E-2,3.42942E-1,-1.5082163E0,-1.5694216E0,1.5632974E0,-7.199394E-2,-1.1728629E0,-7.1387246E-2,-8.4076576E-2,-2.6417201E-2,4.7837395E-2,-6.255348E-3,-9.621236E-3,-3.4369092E-2,-3.7984036E-2,7.466995E-2,1.1499892E-2,-6.1610747E-2,5.1444925E-2,-1.4054716E-2,-5.6708246E-2,5.4270253E-3,7.5910784E-2,-7.360817E-3,6.2486734E-2,-5.497054E-2,1.7639754E-2,4.343878E-3,7.4204737E-3,6.7601494E-2,4.1157957E-2,-6.149925E-4,-1.8041307E-4,-8.957829E-3,-2.3966858E-3,4.0952165E-2,4.809624E-2,2.2078992E-3,-1.9832987E-3,-7.0804365E-2,-4.9297486E-2,5.942128E-2,-1.4950088E-2,7.019835E-2],"split_indices":[11,1,6,7,10,3,3,3,0,3,4,11,11,11,7,8,0,10,1,4,13,5,1,11,10,5,1,0,7,0,0,6,5,2,0,7,11,4,4,10,7,10,0,10,1,5,4,5,10,10,0,0,0,0,0,0,0,0,0,0,0,0,0,0,0,0,0,0,0,0,0,0,0,0,0,0,0,0,0,0,0,0,0,0,0,0,0],"split_type":[0,0,0,0,0,0,0,0,0,0,0,0,0,0,0,0,0,0,0,0,0,0,0,0,0,0,0,0,0,0,0,0,0,0,0,0,0,0,0,0,0,0,0,0,0,0,0,0,0,0,0,0,0,0,0,0,0,0,0,0,0,0,0,0,0,0,0,0,0,0,0,0,0,0,0,0,0,0,0,0,0,0,0,0,0,0,0],"sum_hessian":[6.1720425E3,9.671101E2,5.2049326E3,1.3719849E1,9.5339026E2,5.1346973E3,7.023523E1,1.1989797E1,1.7300515E0,4.9909662E2,4.542936E2,2.0204915E3,3.1142058E3,5.3083206E1,1.7152027E1,1.0300841E1,1.6889555E0,3.8105774E2,1.180389E2,5.5007195E1,3.992864E2,1.9662277E3,5.4263813E1,2.4853018E3,6.2890424E2,3.789074E1,1.5192467E1,2.2104506E0,1.4941577E1,9.103385E0,1.1974566E0,1.07661674E2,2.7339606E2,1.0412315E2,1.3915748E1,4.2384906E0,5.0768707E1,3.690523E1,3.6238116E2,3.0186722E1,1.936041E3,5.1765152E1,2.4986625E0,8.390529E1,2.4013965E3,1.2633026E2,5.0257394E2,2.9339659E1,8.551079E0,9.196099E0,5.9963675E0,1.3717882E1,1.2236946E0,1.1471678E1,9.6189995E1,1.2567677E2,1.4771928E2,1.0087504E2,3.2481203E0,1.24712E0,2.9913707E0,4.304082E1,7.7278857E0,3.067646E1,6.2287717E0,9.463298E0,3.5291788E2,2.793761E1,2.2491097E0,3.8876E2,1.547281E3,1.2315572E1,3.944958E1,4.5524223E1,3.838106E1,1.3476853E3,1.0537112E3,3.059991E1,9.5730354E1,3.1896603E1,4.7067737E2,2.981009E0,2.635865E1,5.0886025E0,3.4624767E0,1.9974505E0,7.198649E0],"tree_param":{"num_deleted":"0","num_feature":"14","num_nodes":"87","size_leaf_vector":"1"}},{"base_weights":[-4.558594E-3,-1.2098743E-1,9.005904E-2,-9.768061E-2,-9.767472E-1,1.4963628E-1,-1.1915045E-1,-1.381492E-1,4.1479024E-1,-1.2581547E0,2.276054E-1,1.110628E-1,5.735191E-1,-8.0511755E-1,-4.2533796E-2,1.2146778E0,-1.5002096E-1,9.520658E-1,2.5056845E-1,-1.4675784E0,-6.0320944E-1,-6.217198E-1,7.99825E-1,9.047354E-2,7.5078714E-1,1.6012331E0,4.7741458E-1,8.244787E-1,-1.0360228E0,-6.5292436E-1,3.0557051E-2,1.2751716E0,5.6894156E-3,-1.2643474E-1,-6.6868865E-1,1.2305673E0,6.2300775E-2,-7.68193E-1,4.534357E-1,-4.7587675E-1,-1.6012535E0,7.1565324E-1,-1.3982624E0,-8.883533E-3,-1.0024136E0,1.031602E0,-6.2702163E-3,2.3153335E-1,6.222599E-4,8.5365105E-1,-6.539195E-2,6.094479E-1,8.67854E-2,-1.1470686E0,5.452817E-1,1.2039943E0,-3.955002E-2,-1.4253815E0,-1.4384209E-2,2.1250285E-1,-1.2206197E0,9.840125E-1,-8.2775705E-2,6.743776E-2,8.78489E-3,-1.3991433E-2,-1.7448716E-3,7.1804137E-3,-5.307091E-2,7.223713E-2,7.7413226E-4,3.8719013E-2,-2.5522713E-2,-6.297926E-2,-1.4115693E-2,3.2936424E-2,-8.691573E-3,4.346385E-2,-5.6211032E-2,-3.699773E-2,-8.495518E-2,6.0083296E-2,-3.944345E-3,-7.6614104E-2,-2.752392E-2,3.197425E-2,-3.2661613E-2,-6.358161E-2,-1.1296479E-2,6.903697E-3,6.942383E-2,6.274921E-2,1.0408289E-2,4.0792846E-3,-1.2342032E-2,5.5427033E-2,-8.119006E-3,5.7884198E-2,-1.3553733E-2,7.485736E-3,-6.95422E-2,3.696637E-2,6.074143E-3,4.182993E-3,7.967418E-2,-3.411446E-2,-8.935988E-2,2.9075498E-2,-8.1665836E-2,-6.695485E-2,3.199674E-2,-7.916959E-2,-2.3632178E-3,7.061977E-2,2.4262369E-2,-1.4106028E-2,1.0919075E-2],"categories":[],"categories_nodes":[],"categories_segments":[],"categories_sizes":[],"default_left":[0,0,0,0,0,0,0,0,0,0,0,0,0,0,0,0,0,0,0,0,0,0,0,0,0,0,0,0,0,0,0,0,0,0,0,0,0,0,0,0,0,0,0,0,0,0,0,0,0,0,0,0,0,0,0,0,0,0,0,0,0,0,0,0,0,0,0,0,0,0,0,0,0,0,0,0,0,0,0,0,0,0,0,0,0,0,0,0,0,0,0,0,0,0,0,0,0,0,0,0,0,0,0,0,0,0,0,0,0,0,0,0,0,0,0,0,0],"id":7,"left_children":[1,3,5,7,9,11,13,15,17,19,21,23,25,27,29,31,33,35,37,39,41,43,45,47,49,51,53,55,57,59,61,63,-1,65,67,69,71,73,75,77,79,81,83,85,87,89,-1,91,93,95,-1,97,-1,99,101,103,-1,105,107,109,111,113,115,-1,-1,-1,-1,-1,-1,-1,-1,-1,-1,-1,-1,-1,-1,-1,-1,-1,-1,-1,-1,-1,-1,-1,-1,-1,-1,-1,-1,-1,-1,-1,-1,-1,-1,-1,-1,-1,-1,-1,-1,-1,-1,-1,-1,-1,-1,-1,-1,-1,-1,-1,-1,-1,-1],"loss_changes":[6.799541E1,5.509621E1,4.2459717E1,5.594738E1,2.5113724E1,4.327878E1,3.966225E1,4.030833E1,1.7186153E1,7.2805023E0,7.6520004E0,3.19512E1,2.1049843E1,2.938773E1,3.037889E1,1.3096695E0,3.0224926E1,1.1291149E1,3.1889128E1,5.1255035E0,1.7905712E1,1.5049062E0,2.109367E0,2.9864378E1,1.7138592E1,1.4045372E0,2.3050293E1,7.0637784E0,2.6576164E1,3.603315E1,6.5852516E1,1.4303246E0,0E0,3.328299E1,3.445718E1,9.056255E0,5.285109E0,5.783886E0,1.6584307E1,6.8189273E0,2.005455E0,2.6917124E0,3.3781815E-1,1.8779409E0,5.4749775E-1,2.1972632E0,0E0,2.1666157E1,2.8879587E1,1.8998955E1,0E0,2.1219246E0,0E0,2.8886652E0,1.6022133E1,3.5618982E0,0E0,1.1793999E1,1.9723581E1,2.0551025E1,1.8704979E1,1.3147278E1,3.277573E1,0E0,0E0,0E0,0E0,0E0,0E0,0E0,0E0,0E0,0E0,0E0,0E0,0E0,0E0,0E0,0E0,0E0,0E0,0E0,0E0,0E0,0E0,0E0,0E0,0E0,0E0,0E0,0E0,0E0,0E0,0E0,0E0,0E0,0E0,0E0,0E0,0E0,0E0,0E0,0E0,0E0,0E0,0E0,0E0,0E0,0E0,0E0,0E0,0E0,0E0,0E0,0E0,0E0,0E0],"parents":[2147483647,0,0,1,1,2,2,3,3,4,4,5,5,6,6,7,7,8,8,9,9,10,10,11,11,12,12,13,13,14,14,15,15,16,16,17,17,18,18,19,19,20,20,21,21,22,22,23,23,24,24,25,25,26,26,27,27,28,28,29,29,30,30,31,31,33,33,34,34,35,35,36,36,37,37,38,38,39,39,40,40,41,41,42,42,43,43,44,44,45,45,47,47,48,48,49,49,51,51,53,53,54,54,55,55,57,57,58,58,59,59,60,60,61,61,62,62],"right_children":[2,4,6,8,10,12,14,16,18,20,22,24,26,28,30,32,34,36,38,40,42,44,46,48,50,52,54,56,58,60,62,64,-1,66,68,70,72,74,76,78,80,82,84,86,88,90,-1,92,94,96,-1,98,-1,100,102,104,-1,106,108,110,112,114,116,-1,-1,-1,-1,-1,-1,-1,-1,-1,-1,-1,-1,-1,-1,-1,-1,-1,-1,-1,-1,-1,-1,-1,-1,-1,-1,-1,-1,-1,-1,-1,-1,-1,-1,-1,-1,-1,-1,-1,-1,-1,-1,-1,-1,-1,-1,-1,-1,-1,-1,-1,-1,-1,-1],"split_conditions":[-1.3106544E-1,1.5503235E0,8.1684715E-1,1.0403959E0,6.7282736E-1,6.1025035E-1,7.7017456E-1,-2.0581248E0,1.4032264E0,1.5880648E0,-4.313255E-1,2.0060935E0,6.648482E-1,8.1127274E-1,-1.0556078E0,1.4290631E0,-1.7969759E-1,5.864204E-1,1.5120059E0,-9.002368E-1,1.56304E0,-2.6102334E-2,1.6001945E0,-1.2418619E-1,2.1954384E0,-3.7013497E-2,6.9156605E-1,7.5134254E-1,1.2534105E0,9.798283E-1,-7.731419E-1,1.9461295E-1,5.6894156E-3,-1.0754442E0,-5.032279E-1,7.632998E-1,1.299052E0,1.4522882E0,1.5227876E0,1.56304E0,-1.4858257E0,-4.8240286E-1,6.9035155E-1,1.5912011E0,1.5793402E0,1.5793402E0,-6.2702163E-3,-1.8858664E0,3.42942E-1,8.877362E-1,-6.539195E-2,6.454807E-1,8.67854E-2,-9.927031E-1,6.0785586E-1,8.2193196E-1,-3.955002E-2,8.3598554E-1,1.0943017E0,8.423172E-1,9.259306E-1,6.351003E-1,-1.080532E-1,6.743776E-2,8.78489E-3,-1.3991433E-2,-1.7448716E-3,7.1804137E-3,-5.307091E-2,7.223713E-2,7.7413226E-4,3.8719013E-2,-2.5522713E-2,-6.297926E-2,-1.4115693E-2,3.2936424E-2,-8.691573E-3,4.346385E-2,-5.6211032E-2,-3.699773E-2,-8.495518E-2,6.0083296E-2,-3.944345E-3,-7.6614104E-2,-2.752392E-2,3.197425E-2,-3.2661613E-2,-6.358161E-2,-1.1296479E-2,6.903697E-3,6.942383E-2,6.274921E-2,1.0408289E-2,4.0792846E-3,-1.2342032E-2,5.5427033E-2,-8.119006E-3,5.7884198E-2,-1.3553733E-2,7.485736E-3,-6.95422E-2,3.696637E-2,6.074143E-3,4.182993E-3,7.967418E-2,-3.411446E-2,-8.935988E-2,2.9075498E-2,-8.1665836E-2,-6.695485E-2,3.199674E-2,-7.916959E-2,-2.3632178E-3,7.061977E-2,2.4262369E-2,-1.4106028E-2,1.0919075E-2],"split_indices":[11,1,5,5,10,13,13,1,12,12,8,11,0,0,10,3,11,3,12,7,1,3,4,3,3,11,12,3,11,0,10,8,0,11,10,9,1,12,5,1,3,9,8,0,1,1,0,5,1,10,0,1,0,3,3,5,0,1,3,12,11,3,10,0,0,0,0,0,0,0,0,0,0,0,0,0,0,0,0,0,0,0,0,0,0,0,0,0,0,0,0,0,0,0,0,0,0,0,0,0,0,0,0,0,0,0,0,0,0,0,0,0,0,0,0,0,0],"split_type":[0,0,0,0,0,0,0,0,0,0,0,0,0,0,0,0,0,0,0,0,0,0,0,0,0,0,0,0,0,0,0,0,0,0,0,0,0,0,0,0,0,0,0,0,0,0,0,0,0,0,0,0,0,0,0,0,0,0,0,0,0,0,0,0,0,0,0,0,0,0,0,0,0,0,0,0,0,0,0,0,0,0,0,0,0,0,0,0,0,0,0,0,0,0,0,0,0,0,0,0,0,0,0,0,0,0,0,0,0,0,0,0,0,0,0,0,0],"sum_hessian":[6.170309E3,2.7661855E3,3.4041238E3,2.69393E3,7.225567E1,2.649813E3,7.543108E2,2.497443E3,1.9648665E2,5.853401E1,1.3721658E1,2.4299487E3,2.1986415E2,7.483016E1,6.794806E2,2.0844343E1,2.4765989E3,4.4874786E1,1.5161186E2,4.341195E1,1.5122063E1,5.4886074E0,8.23305E0,2.3552864E3,7.4662476E1,1.7462618E1,2.0240154E2,8.968068E0,6.586209E1,7.181465E1,6.0766595E2,1.9608545E1,1.2357984E0,2.370065E3,1.0653402E2,3.388543E1,1.0989355E1,2.4714348E1,1.2689752E2,5.6982226E0,3.7713726E1,5.7250347E0,9.397028E0,2.4952004E0,2.993407E0,6.4918284E0,1.7412218E0,9.158668E2,1.4394196E3,7.166682E1,2.9956644E0,2.745551E0,1.4717066E1,7.4790697E0,1.9492247E2,7.4682965E0,1.4997721E0,4.740159E1,1.8460505E1,2.8695406E1,4.3119247E1,6.3740658E1,5.439253E2,1.8166035E1,1.4425108E0,8.8498755E2,1.4850773E3,3.492718E1,7.1606834E1,2.8647E1,5.238431E0,4.7419205E0,6.247435E0,1.1495765E1,1.3218583E1,9.556931E1,3.1328209E1,1.7424023E0,3.9558206E0,4.720948E0,3.299278E1,3.2342625E0,2.4907722E0,7.417117E0,1.9799113E0,1.247483E0,1.2477173E0,1.7492404E0,1.2441667E0,2.2486494E0,4.2431793E0,1.926789E1,8.965989E2,1.0850798E3,3.5433963E2,5.7220882E1,1.4445932E1,1.4980545E0,1.2474967E0,1.2445309E0,6.2345386E0,1.3319272E2,6.1729755E1,2.2399766E0,5.2283196E0,1.6467213E1,3.0934374E1,1.3962147E1,4.4983587E0,5.73698E0,2.2958426E1,3.2669273E1,1.0449975E1,3.3304268E1,3.0436388E1,3.2732346E2,2.1660185E2],"tree_param":{"num_deleted":"0","num_feature":"14","num_nodes":"117","size_leaf_vector":"1"}},{"base_weights":[-1.833419E-5,1.0858932E-2,-9.18172E-1,6.990523E-2,-9.308188E-2,2.5315028E-1,-1.029558E0,4.6319492E-2,3.4959066E-1,-3.23612E-2,-2.8090706E-1,6.3445605E-2,-8.726952E-1,-7.908609E-1,-1.4152702E0,7.4905716E-2,-5.0154644E-1,1.1683045E-1,8.163316E-1,-6.411447E-2,6.211046E-1,-1.266508E0,-2.250578E-1,-1.177284E-2,-5.401845E-2,-9.7964776E-1,3.3112678E-1,-1.6230946E-2,-1.4715191E0,6.216914E-2,8.245354E-1,7.38215E-1,-5.561863E-1,2.5953558E-1,-1.303478E0,1.610403E-1,9.7840625E-1,1.2436891E-3,-1.9276012E-1,-6.59139E-2,6.8991035E-1,-5.208507E-1,-1.6365864E0,-3.5407397E-1,2.6733488E-2,-1.0285397E0,1.21163465E-2,8.9858264E-1,-4.9489594E-1,-7.5327925E-2,-2.3121862E-2,4.386063E-3,-1.53198615E-2,5.7249784E-2,-1.8858483E-2,6.780548E-2,-3.6867276E-2,-3.291585E-2,2.5265936E-3,2.5223738E-2,-2.6946867E-2,4.804071E-2,-7.585471E-2,2.6769346E-2,-7.899542E-2,1.160312E-2,5.8749795E-2,-2.210784E-3,2.3182174E-2,-4.7037695E-2,-5.1401686E-3,1.9484868E-2,5.1687308E-2,-5.8676906E-2,6.978575E-2,-1.969502E-2,-8.609522E-2,-1.2676706E-2,-7.414461E-2,7.731724E-2,-3.0164483E-3,-5.807957E-2,-2.9119173E-2,6.188804E-2,1.1490046E-2,1.4737821E-2,-5.30861E-2],"categories":[],"categories_nodes":[],"categories_segments":[],"categories_sizes":[],"default_left":[0,0,0,0,0,0,0,0,0,0,0,0,0,0,0,0,0,0,0,0,0,0,0,0,0,0,0,0,0,0,0,0,0,0,0,0,0,0,0,0,0,0,0,0,0,0,0,0,0,0,0,0,0,0,0,0,0,0,0,0,0,0,0,0,0,0,0,0,0,0,0,0,0,0,0,0,0,0,0,0,0,0,0,0,0,0,0],"id":8,"left_children":[1,3,5,7,9,11,13,15,17,19,21,-1,23,25,27,29,31,33,35,37,39,41,43,-1,-1,45,47,-1,49,51,53,55,57,59,61,63,65,67,69,-1,71,73,75,77,79,81,-1,83,85,-1,-1,-1,-1,-1,-1,-1,-1,-1,-1,-1,-1,-1,-1,-1,-1,-1,-1,-1,-1,-1,-1,-1,-1,-1,-1,-1,-1,-1,-1,-1,-1,-1,-1,-1,-1,-1,-1],"loss_changes":[6.1622704E1,3.743219E1,9.686081E0,2.564087E1,2.5191181E1,9.199385E0,4.972595E0,5.6232464E1,3.2749786E1,3.4710888E1,2.9421959E1,0E0,2.6817203E-1,9.46204E0,9.9635696E-1,3.251645E1,1.2472725E1,4.146288E1,1.0509247E1,1.3405993E1,1.1254423E1,7.0743675E0,1.664054E1,0E0,0E0,2.470478E0,3.7073684E0,0E0,1.01184845E-1,3.162444E1,2.2346119E1,8.244808E0,1.0636505E1,3.649431E1,1.0498266E1,1.4605058E1,1.1512581E1,2.2265383E1,3.6046158E1,0E0,7.3931236E0,1.5391406E1,1.307621E0,3.8049835E1,2.3163916E1,1.4569244E0,0E0,7.3207116E-1,1.8703004E0,0E0,0E0,0E0,0E0,0E0,0E0,0E0,0E0,0E0,0E0,0E0,0E0,0E0,0E0,0E0,0E0,0E0,0E0,0E0,0E0,0E0,0E0,0E0,0E0,0E0,0E0,0E0,0E0,0E0,0E0,0E0,0E0,0E0,0E0,0E0,0E0,0E0,0E0],"parents":[2147483647,0,0,1,1,2,2,3,3,4,4,5,5,6,6,7,7,8,8,9,9,10,10,12,12,13,13,14,14,15,15,16,16,17,17,18,18,19,19,20,20,21,21,22,22,25,25,26,26,28,28,29,29,30,30,31,31,32,32,33,33,34,34,35,35,36,36,37,37,38,38,40,40,41,41,42,42,43,43,44,44,45,45,47,47,48,48],"right_children":[2,4,6,8,10,12,14,16,18,20,22,-1,24,26,28,30,32,34,36,38,40,42,44,-1,-1,46,48,-1,50,52,54,56,58,60,62,64,66,68,70,-1,72,74,76,78,80,82,-1,84,86,-1,-1,-1,-1,-1,-1,-1,-1,-1,-1,-1,-1,-1,-1,-1,-1,-1,-1,-1,-1,-1,-1,-1,-1,-1,-1,-1,-1,-1,-1,-1,-1,-1,-1,-1,-1,-1,-1],"split_conditions":[1.596886E0,3.8701826E-1,1.5561002E0,1.3178934E0,7.635221E-1,1.6664094E0,1.6531212E0,9.8494834E-1,1.0830098E-1,7.163844E-1,7.22413E-1,6.3445605E-2,1.6566131E0,1.6673577E0,-1.7820147E0,9.991881E-1,8.973245E-1,-1.8652627E-2,1.4533572E0,2.0042534E-1,4.4910783E-1,6.679522E-1,1.0894629E0,-1.177284E-2,-5.401845E-2,1.4844713E0,-4.6259437E-2,-1.6230946E-2,1.6888225E0,8.303516E-1,9.792141E-1,1.0642511E0,1.1217427E0,1.5591003E0,1.4032264E0,1.5340778E0,1.4325219E0,-2.4984904E-2,-6.4627683E-1,-6.59139E-2,2.579446E-1,7.5444585E-1,-3.6724254E-1,1.0674319E0,1.297243E0,5.7898295E-1,1.21163465E-2,-1.1032881E-1,-1.1008036E-1,-7.5327925E-2,-2.3121862E-2,4.386063E-3,-1.53198615E-2,5.7249784E-2,-1.8858483E-2,6.780548E-2,-3.6867276E-2,-3.291585E-2,2.5265936E-3,2.5223738E-2,-2.6946867E-2,4.804071E-2,-7.585471E-2,2.6769346E-2,-7.899542E-2,1.160312E-2,5.8749795E-2,-2.210784E-3,2.3182174E-2,-4.7037695E-2,-5.1401686E-3,1.9484868E-2,5.1687308E-2,-5.8676906E-2,6.978575E-2,-1.969502E-2,-8.609522E-2,-1.2676706E-2,-7.414461E-2,7.731724E-2,-3.0164483E-3,-5.807957E-2,-2.9119173E-2,6.188804E-2,1.1490046E-2,1.4737821E-2,-5.30861E-2],"split_indices":[2,3,12,12,0,1,6,0,10,13,12,0,2,5,3,12,13,10,13,6,6,12,12,0,0,7,7,0,8,1,5,10,2,2,12,1,2,13,10,0,10,2,10,6,0,9,0,9,8,0,0,0,0,0,0,0,0,0,0,0,0,0,0,0,0,0,0,0,0,0,0,0,0,0,0,0,0,0,0,0,0,0,0,0,0,0,0],"split_type":[0,0,0,0,0,0,0,0,0,0,0,0,0,0,0,0,0,0,0,0,0,0,0,0,0,0,0,0,0,0,0,0,0,0,0,0,0,0,0,0,0,0,0,0,0,0,0,0,0,0,0,0,0,0,0,0,0,0,0,0,0,0,0,0,0,0,0,0,0,0,0,0,0,0,0,0,0,0,0,0,0,0,0,0,0,0,0],"sum_hessian":[6.1682925E3,6.09705E3,7.1242905E1,3.8884443E3,2.2086055E3,6.075967E0,6.516694E1,3.5871106E3,3.0133374E2,1.6699208E3,5.386845E2,3.1273396E0,2.9486272E0,4.2139442E1,2.3027496E1,3.4100464E3,1.7706412E2,2.018987E2,9.943504E1,1.5933962E3,7.652457E1,2.7725273E1,5.1095926E2,1.2492223E0,1.6994048E0,3.6178818E1,5.960624E0,1.4614519E0,2.1566044E1,3.3541409E3,5.5905575E1,6.9462132E0,1.701179E2,1.8420773E2,1.7690956E1,2.011218E1,7.932286E1,1.057252E3,5.361443E2,1.9997412E0,7.4524826E1,9.99471E0,1.7730562E1,3.3757953E2,1.7337973E2,3.493918E1,1.2396399E0,3.481253E0,2.4793715E0,2.0365862E1,1.200182E0,3.1373923E3,2.1674847E2,4.4173077E1,1.1732498E1,4.9530606E0,1.9931529E0,1.4553459E2,2.4583313E1,1.4124706E2,4.2960682E1,1.2235636E0,1.6467392E1,1.7122828E1,2.9893534E0,1.6992405E1,6.233046E1,9.634389E2,9.381306E1,5.6541523E1,4.7960278E2,4.0925217E1,3.359961E1,7.744876E0,2.249834E0,1.4999611E0,1.62306E1,3.1109592E2,2.6483616E1,8.486839E0,1.6489288E2,2.5677992E1,9.2611885E0,1.7453268E0,1.7359262E0,1.2366153E0,1.2427561E0],"tree_param":{"num_deleted":"0","num_feature":"14","num_nodes":"87","size_leaf_vector":"1"}},{"base_weights":[5.673274E-3,1.5972398E-2,-8.76639E-1,7.35287E-2,-8.603615E-2,2.877587E-1,-9.935578E-1,-9.67806E-1,7.872212E-2,-3.248835E-2,-2.5035566E-1,6.277171E-2,-8.4932935E-1,-7.836783E-1,-1.330678E0,2.3431104E-1,-7.582495E-2,7.842691E-1,7.1010016E-2,-6.1665554E-2,5.6369394E-1,-1.1172085E0,-2.008798E-1,-1.1445223E-2,-5.264579E-2,5.6033403E-2,-8.806533E-1,1.0945782E-2,-1.4266403E0,-6.596427E-2,6.9823585E-2,-2.7831557E-1,1.4034494E0,1.3183011E0,6.6666886E-2,-5.5360187E-2,-1.4228641E0,2.2379392E-1,9.695095E-1,-4.4060266E-1,-1.4643481E0,-3.2425204E-1,2.0686733E-2,-1.1551452E0,-5.5137604E-1,-7.303447E-2,-2.254873E-2,5.701297E-2,-3.4217726E-2,7.8020565E-2,3.956012E-2,1.7453868E-2,7.231721E-2,1.0898228E-2,1.5002791E-3,6.108136E-3,-4.710274E-3,-2.0403078E-2,-8.083769E-2,2.6611436E-2,-5.7831217E-2,7.173551E-2,3.031739E-2,-5.620402E-2,6.95669E-2,-8.118474E-2,-2.995715E-2,-1.0946049E-2,-6.521511E-2,8.65092E-3,-2.7123153E-2,-6.6408865E-2,1.120437E-2,1.0786786E-2,-4.1375034E-2],"categories":[],"categories_nodes":[],"categories_segments":[],"categories_sizes":[],"default_left":[0,0,0,0,0,0,0,0,0,0,0,0,0,0,0,0,0,0,0,0,0,0,0,0,0,0,0,0,0,0,0,0,0,0,0,0,0,0,0,0,0,0,0,0,0,0,0,0,0,0,0,0,0,0,0,0,0,0,0,0,0,0,0,0,0,0,0,0,0,0,0,0,0,0,0],"id":9,"left_children":[1,3,5,7,9,11,13,15,17,19,21,-1,23,25,27,29,-1,31,33,35,37,39,41,-1,-1,-1,43,-1,45,-1,-1,47,49,51,53,55,57,59,61,63,65,67,69,71,73,-1,-1,-1,-1,-1,-1,-1,-1,-1,-1,-1,-1,-1,-1,-1,-1,-1,-1,-1,-1,-1,-1,-1,-1,-1,-1,-1,-1,-1,-1],"loss_changes":[5.593156E1,3.5724155E1,9.954399E0,2.111199E1,1.9304136E1,9.050075E0,3.5394554E0,1.3136875E1,2.1009102E1,2.8850094E1,2.2905312E1,0E0,2.5568056E-1,8.807236E0,3.7943802E0,1.4371068E1,0E0,2.7865154E1,2.0662792E1,1.3483419E1,1.0457556E1,6.142647E0,1.3985975E1,0E0,0E0,0E0,3.0556831E0,0E0,7.8228E-2,0E0,0E0,1.011669E1,1.3168335E0,1.1380615E0,2.1172783E1,1.0865034E1,7.658577E-1,1.9099865E1,5.0385475E0,1.5624816E1,1.6011238E0,3.3630795E1,1.5865556E1,5.397043E0,4.518041E0,0E0,0E0,0E0,0E0,0E0,0E0,0E0,0E0,0E0,0E0,0E0,0E0,0E0,0E0,0E0,0E0,0E0,0E0,0E0,0E0,0E0,0E0,0E0,0E0,0E0,0E0,0E0,0E0,0E0,0E0],"parents":[2147483647,0,0,1,1,2,2,3,3,4,4,5,5,6,6,7,7,8,8,9,9,10,10,12,12,13,13,14,14,15,15,17,17,18,18,19,19,20,20,21,21,22,22,26,26,28,28,31,31,32,32,33,33,34,34,35,35,36,36,37,37,38,38,39,39,40,40,41,41,42,42,43,43,44,44],"right_children":[2,4,6,8,10,12,14,16,18,20,22,-1,24,26,28,30,-1,32,34,36,38,40,42,-1,-1,-1,44,-1,46,-1,-1,48,50,52,54,56,58,60,62,64,66,68,70,72,74,-1,-1,-1,-1,-1,-1,-1,-1,-1,-1,-1,-1,-1,-1,-1,-1,-1,-1,-1,-1,-1,-1,-1,-1,-1,-1,-1,-1,-1,-1],"split_conditions":[1.596886E0,3.8701826E-1,1.5561002E0,-1.5644456E0,7.635221E-1,1.6590486E0,1.6531212E0,-1.2532688E0,-1.3989348E0,7.163844E-1,7.22413E-1,6.277171E-2,1.6566131E0,1.432938E0,-1.9561338E0,-1.4032917E0,-7.582495E-2,-1.4929827E0,-2.0571206E0,7.036053E-1,2.579446E-1,6.679522E-1,1.0366573E0,-1.1445223E-2,-5.264579E-2,5.6033403E-2,1.5880648E0,1.0945782E-2,1.6888225E0,-6.596427E-2,6.9823585E-2,-1.5389706E0,-3.953078E-1,-6.6359216E-1,-6.910472E-1,-9.084067E-1,-5.55702E-1,2.2124359E-1,6.108142E-1,7.5444585E-1,9.665307E-1,1.0566099E0,1.5705608E0,6.7282736E-1,1.537222E0,-7.303447E-2,-2.254873E-2,5.701297E-2,-3.4217726E-2,7.8020565E-2,3.956012E-2,1.7453868E-2,7.231721E-2,1.0898228E-2,1.5002791E-3,6.108136E-3,-4.710274E-3,-2.0403078E-2,-8.083769E-2,2.6611436E-2,-5.7831217E-2,7.173551E-2,3.031739E-2,-5.620402E-2,6.95669E-2,-8.118474E-2,-2.995715E-2,-1.0946049E-2,-6.521511E-2,8.65092E-3,-2.7123153E-2,-6.6408865E-2,1.120437E-2,1.0786786E-2,-4.1375034E-2],"split_indices":[2,3,12,10,0,4,6,2,10,13,12,0,2,13,3,0,0,10,4,13,10,12,13,0,0,0,12,0,8,0,0,6,8,9,7,10,10,10,6,2,7,6,0,10,13,0,0,0,0,0,0,0,0,0,0,0,0,0,0,0,0,0,0,0,0,0,0,0,0,0,0,0,0,0,0],"split_type":[0,0,0,0,0,0,0,0,0,0,0,0,0,0,0,0,0,0,0,0,0,0,0,0,0,0,0,0,0,0,0,0,0,0,0,0,0,0,0,0,0,0,0,0,0,0,0,0,0,0,0,0,0,0,0,0,0,0,0,0,0,0,0,0,0,0,0,0,0,0,0,0,0,0,0],"sum_hessian":[6.1525483E3,6.08253E3,7.001874E1,3.888692E3,2.193838E3,6.255807E0,6.3762928E1,1.8377914E1,3.870314E3,1.655536E3,5.3830194E2,3.323441E0,2.932366E0,4.1346577E1,2.241635E1,5.939089E0,1.2438826E1,4.0758976E1,3.829555E3,1.5791489E3,7.638709E1,2.7899616E1,5.104023E2,1.249353E0,1.6830127E0,1.4919611E0,3.9854618E1,1.2325146E0,2.1183836E1,2.4836724E0,3.4554164E0,1.5209035E1,2.554994E1,1.2238636E1,3.8173164E3,1.5729036E3,6.2453585E0,4.2413864E1,3.397323E1,1.0229891E1,1.7669725E1,3.27552E2,1.8285033E2,2.0367638E1,1.9486979E1,1.9989126E1,1.1947097E0,2.982132E0,1.2226903E1,1.9103668E1,6.446272E0,1.862987E0,1.03756485E1,7.4360095E2,3.0737153E3,2.8200342E2,1.2909001E3,1.4998533E0,4.7455053E0,3.517006E1,7.2438045E0,1.3600603E1,2.0372627E1,7.7316804E0,2.49821E0,1.4181272E1,3.4884534E0,2.968693E2,3.0682703E1,1.4446532E2,3.838501E1,1.8130135E1,2.2375038E0,5.2157145E0,1.4271264E1],"tree_param":{"num_deleted":"0","num_feature":"14","num_nodes":"75","size_leaf_vector":"1"}},{"base_weights":[1.0481596E-3,-2.279663E-1,4.3633785E-2,-3.1787643E-1,5.229905E-2,5.552912E-2,-8.4727556E-1,1.5480743E-1,-4.0664646E-1,-8.049384E-1,2.1259499E-1,1.5334012E-1,-1.4152748E-2,1.7653239E-1,-9.791417E-1,-1.8692818E-1,9.574982E-1,-3.2214755E-1,-6.874082E-1,5.9931153E-1,-1.0913097E0,1.155593E0,1.4387122E-1,1.3360044E-1,8.4733284E-1,-3.0187886E-2,5.509609E-1,6.813449E-2,-8.617312E-1,-7.185715E-1,-1.3427072E0,1.4259416E-1,-1.2433054E0,3.4017067E-2,1.5555472E0,3.0077627E-1,-3.6633593E-1,-1.1394905E0,-4.8243693E-1,-2.6662866E-2,1.0817043E0,-3.558058E-1,-1.3183304E0,7.67195E-2,7.015051E-1,-1.2212274E0,1.862268E-1,9.7855675E-1,1.19846195E-1,9.6003467E-1,-6.847532E-2,-2.0273427E-2,-9.047078E-1,6.817634E-1,-1.3129047E0,6.667809E-3,-6.017771E-2,-7.102328E-2,-3.7103364E-1,-1.5129191E-2,-1.3958709E0,4.672922E-2,-9.319301E-3,3.9478734E-2,-7.038123E-2,2.4295337E-2,-7.095339E-2,8.734627E-2,5.2051146E-2,-4.7446012E-2,2.8377978E-2,-4.674026E-2,-1.5248254E-2,-1.6560085E-2,-6.560018E-2,4.6628643E-2,-2.8747424E-2,6.7752205E-2,5.6575644E-3,1.4748409E-2,-7.080225E-2,-7.845724E-2,9.539824E-3,5.4226827E-2,-3.76327E-2,-2.4375472E-2,-7.100656E-2,5.2138846E-2,3.4234112E-3,5.685687E-2,-4.9343135E-2,-5.3386625E-2,6.4165206E-3,4.454451E-3,6.290697E-2,-2.9854665E-3,8.615308E-3,1.4066274E-2,-5.7645775E-2,6.79204E-2,2.0107651E-2,-7.836463E-2,-1.1025115E-2,-4.4412576E-2,2.7464686E-2,-7.140838E-2,-2.2038467E-2],"categories":[],"categories_nodes":[],"categories_segments":[],"categories_sizes":[],"default_left":[0,0,0,0,0,0,0,0,0,0,0,0,0,0,0,0,0,0,0,0,0,0,0,0,0,0,0,0,0,0,0,0,0,0,0,0,0,0,0,0,0,0,0,0,0,0,0,0,0,0,0,0,0,0,0,0,0,0,0,0,0,0,0,0,0,0,0,0,0,0,0,0,0,0,0,0,0,0,0,0,0,0,0,0,0,0,0,0,0,0,0,0,0,0,0,0,0,0,0,0,0,0,0,0,0,0,0],"id":10,"left_children":[1,3,5,7,9,11,13,15,17,19,21,23,25,27,29,31,33,35,37,39,41,43,45,47,49,51,53,-1,55,57,59,61,63,65,67,69,71,73,75,-1,77,79,81,-1,83,85,87,89,91,93,-1,95,97,99,101,-1,-1,-1,103,-1,105,-1,-1,-1,-1,-1,-1,-1,-1,-1,-1,-1,-1,-1,-1,-1,-1,-1,-1,-1,-1,-1,-1,-1,-1,-1,-1,-1,-1,-1,-1,-1,-1,-1,-1,-1,-1,-1,-1,-1,-1,-1,-1,-1,-1,-1,-1],"loss_changes":[5.9905983E1,2.4285847E1,5.4936127E1,3.0665726E1,3.243331E1,3.4844124E1,9.39436E0,3.2008762E1,1.4352074E1,1.5611715E1,1.2703604E1,2.9022846E1,2.7076647E1,1.18160715E1,4.782089E0,2.879937E1,1.9173786E1,1.3159302E1,1.2536957E1,4.371718E0,4.748806E0,1.2194786E0,1.099585E1,2.3930542E1,1.5964226E1,2.5167036E1,2.0995707E1,0E0,1.9361773E0,8.617695E0,9.1444016E-1,1.673748E1,7.6763515E0,1.034588E1,2.5979233E-1,1.1190771E1,1.5174053E1,5.606365E0,1.3483339E1,0E0,1.2237158E0,6.4481893E0,9.197926E0,0E0,5.22357E0,1.449318E-1,1.8236296E1,1.1408697E1,2.0663227E1,1.4527592E1,0E0,2.1831083E1,9.903334E0,1.4154182E1,1.2518501E0,0E0,0E0,0E0,1.3067445E1,0E0,7.142639E-2,0E0,0E0,0E0,0E0,0E0,0E0,0E0,0E0,0E0,0E0,0E0,0E0,0E0,0E0,0E0,0E0,0E0,0E0,0E0,0E0,0E0,0E0,0E0,0E0,0E0,0E0,0E0,0E0,0E0,0E0,0E0,0E0,0E0,0E0,0E0,0E0,0E0,0E0,0E0,0E0,0E0,0E0,0E0,0E0,0E0,0E0],"parents":[2147483647,0,0,1,1,2,2,3,3,4,4,5,5,6,6,7,7,8,8,9,9,10,10,11,11,12,12,13,13,14,14,15,15,16,16,17,17,18,18,19,19,20,20,21,21,22,22,23,23,24,24,25,25,26,26,28,28,29,29,30,30,31,31,32,32,33,33,34,34,35,35,36,36,37,37,38,38,40,40,41,41,42,42,44,44,45,45,46,46,47,47,48,48,49,49,51,51,52,52,53,53,54,54,58,58,60,60],"right_children":[2,4,6,8,10,12,14,16,18,20,22,24,26,28,30,32,34,36,38,40,42,44,46,48,50,52,54,-1,56,58,60,62,64,66,68,70,72,74,76,-1,78,80,82,-1,84,86,88,90,92,94,-1,96,98,100,102,-1,-1,-1,104,-1,106,-1,-1,-1,-1,-1,-1,-1,-1,-1,-1,-1,-1,-1,-1,-1,-1,-1,-1,-1,-1,-1,-1,-1,-1,-1,-1,-1,-1,-1,-1,-1,-1,-1,-1,-1,-1,-1,-1,-1,-1,-1,-1,-1,-1,-1,-1],"split_conditions":[-1.0754442E0,4.508674E-1,1.6076763E0,-1.6808116E0,-1.9933326E0,-1.4577645E-1,1.543249E0,-1.7701551E0,2.6530495E-1,-2.6801574E-1,5.2549905E-1,1.7344261E0,2.0060935E0,-4.6152028E-1,1.6531212E0,-1.245394E0,-1.6190587E0,-1.2987502E0,-7.026693E-1,-4.312524E-1,-1.431975E0,-3.3421147E-1,-5.83789E-1,-1.8858664E0,1.540597E0,1.8557905E0,2.0958622E0,6.813449E-2,-4.975314E-1,1.57416E-1,-1.7820147E0,-1.8113221E0,-2.0581248E0,2.0194748E-1,-1.7028319E0,-1.4929827E0,-1.4711307E0,-1.5343127E0,-6.7358375E-1,-2.6662866E-2,3.6788871E0,1.0642511E0,-2.0472324E0,7.67195E-2,2.1586896E-1,-8.372768E-1,-5.506096E-1,-3.8855913E-1,-1.5644456E0,-2.6370373E-1,-6.847532E-2,1.1207471E0,-1.0051309E0,-3.2212812E-1,2.664772E0,6.667809E-3,-6.017771E-2,-7.102328E-2,-1.080532E-1,-1.5129191E-2,1.9419953E0,4.672922E-2,-9.319301E-3,3.9478734E-2,-7.038123E-2,2.4295337E-2,-7.095339E-2,8.734627E-2,5.2051146E-2,-4.7446012E-2,2.8377978E-2,-4.674026E-2,-1.5248254E-2,-1.6560085E-2,-6.560018E-2,4.6628643E-2,-2.8747424E-2,6.7752205E-2,5.6575644E-3,1.4748409E-2,-7.080225E-2,-7.845724E-2,9.539824E-3,5.4226827E-2,-3.76327E-2,-2.4375472E-2,-7.100656E-2,5.2138846E-2,3.4234112E-3,5.685687E-2,-4.9343135E-2,-5.3386625E-2,6.4165206E-3,4.454451E-3,6.290697E-2,-2.9854665E-3,8.615308E-3,1.4066274E-2,-5.7645775E-2,6.79204E-2,2.0107651E-2,-7.836463E-2,-1.1025115E-2,-4.4412576E-2,2.7464686E-2,-7.140838E-2,-2.2038467E-2],"split_indices":[11,10,6,6,11,3,12,6,3,1,10,11,11,3,6,11,11,10,10,5,3,3,12,5,4,11,3,0,7,11,3,13,1,3,6,10,12,4,10,0,8,10,11,0,1,7,4,10,10,10,0,11,10,6,7,0,0,0,10,0,8,0,0,0,0,0,0,0,0,0,0,0,0,0,0,0,0,0,0,0,0,0,0,0,0,0,0,0,0,0,0,0,0,0,0,0,0,0,0,0,0,0,0,0,0,0,0],"split_type":[0,0,0,0,0,0,0,0,0,0,0,0,0,0,0,0,0,0,0,0,0,0,0,0,0,0,0,0,0,0,0,0,0,0,0,0,0,0,0,0,0,0,0,0,0,0,0,0,0,0,0,0,0,0,0,0,0,0,0,0,0,0,0,0,0,0,0,0,0,0,0,0,0,0,0,0,0,0,0,0,0,0,0,0,0,0,0,0,0,0,0,0,0,0,0,0,0,0,0,0,0,0,0,0,0,0,0],"sum_hessian":[6.140468E3,9.6211414E2,5.178354E3,7.283293E2,2.337849E2,5.1110493E3,6.730459E1,1.1503663E2,6.132926E2,3.61955E1,1.975894E2,2.1258445E3,2.9852046E3,7.6410227E0,5.9663563E1,8.122375E1,3.3812878E1,4.73065E2,1.4022763E2,5.9459867E0,3.0249512E1,1.2347485E1,1.8524191E2,2.0682097E3,5.7634888E1,2.9037568E3,8.144772E1,3.420652E0,4.220371E0,3.6488457E1,2.3175108E1,6.2570698E1,1.8653051E1,1.3705824E1,2.0107054E1,3.0950394E1,4.421146E2,4.2322456E1,9.790518E1,1.7445843E0,4.2014027E0,7.74016E0,2.2509352E1,5.434775E0,6.9127097E0,4.7370343E0,1.8050488E2,3.2003647E1,2.036206E3,5.538605E1,2.2488358E0,2.8722178E3,3.1539234E1,7.669933E1,4.7483907E0,1.2350017E0,2.9853692E0,1.1061408E1,2.542705E1,1.4523398E0,2.1722769E1,1.7822874E1,4.474782E1,1.1104126E0,1.7542639E1,1.09623E1,2.7435236E0,1.2909953E1,7.1970997E0,4.995062E0,2.5955332E1,4.1692364E1,4.0042224E2,7.957664E0,3.436479E1,5.450868E0,9.2454315E1,2.9654653E0,1.2359374E0,5.2434964E0,2.4966636E0,1.9267378E1,3.2419748E0,5.6726847E0,1.240025E0,1.7462896E0,2.9907448E0,2.0867083E1,1.596378E2,3.0004175E1,1.9994718E0,1.3558108E1,2.022648E3,1.4454498E1,4.0931553E1,2.3845967E3,4.87621E2,5.4350452E0,2.6104189E1,2.129885E1,5.5400482E1,3.4988847E0,1.2495061E0,1.6300901E1,9.126146E0,2.0533138E1,1.1896294E0],"tree_param":{"num_deleted":"0","num_feature":"14","num_nodes":"107","size_leaf_vector":"1"}},{"base_weights":[3.0202344E-3,-1.0101669E-1,8.745552E-2,-7.975068E-2,-9.294377E-1,1.4689264E-1,-1.2175558E-1,-1.1639147E-1,4.0927127E-1,-1.1852704E0,2.4283679E-1,1.1142399E-1,5.379397E-1,-6.818271E-2,-1.0008781E0,1.138915E0,-1.2802994E-1,4.7217774E-1,-8.9780164E-1,-7.1250904E-1,-1.4407357E0,-6.0838062E-2,5.725377E-1,1.2442751E-1,-7.2003293E-1,1.5176203E0,4.4770652E-1,-2.8628157E-2,-1.2298801E0,-1.3213515E-1,-1.4926788E0,2.8836516E-1,1.22994E0,-2.3120798E-1,-1.816598E-2,7.390452E-2,7.1359736E-1,3.378007E-2,-7.606651E-2,-1.1487468E0,5.805504E-1,-3.0703664E-2,-7.382559E-2,9.546569E-1,-3.8524824E-1,1.6181484E-1,-1.560106E-1,-1.33608E0,6.706248E-2,5.6148046E-1,8.2554735E-2,2.779025E-1,9.1507584E-1,-1.7779014E-1,4.1868204E-1,-6.6282013E-3,-1.3201765E0,-5.8555174E-1,7.2112894E-1,-1.6144398E0,2.9638669E-2,-1.45665E-3,2.2975873E-2,6.778508E-2,3.0614123E-2,1.4372993E-3,-1.4570286E-2,2.3243193E-2,-4.189213E-3,5.372519E-2,-8.823914E-3,3.958928E-2,-1.5163809E-2,4.1749563E-2,-7.1763955E-2,-5.211575E-3,6.2125113E-2,-2.0512989E-2,6.538091E-2,1.1754254E-2,-4.8903894E-2,7.0300037E-3,4.5357276E-2,-1.5101128E-3,-8.121332E-2,-2.327083E-2,-8.3474405E-2,5.5405688E-2,-3.449357E-2,5.55632E-2,-1.4958712E-2,2.7626082E-2,-3.536455E-2,5.876441E-2,4.534721E-3,-1.724099E-2,1.8554017E-2,4.7759403E-2,-9.3222316E-4,-6.755072E-2,-2.0641228E-2,4.6565462E-2,-5.0121333E-2,-4.47852E-3,5.990227E-2,-8.5298695E-2,-2.1980943E-2],"categories":[],"categories_nodes":[],"categories_segments":[],"categories_sizes":[],"default_left":[0,0,0,0,0,0,0,0,0,0,0,0,0,0,0,0,0,0,0,0,0,0,0,0,0,0,0,0,0,0,0,0,0,0,0,0,0,0,0,0,0,0,0,0,0,0,0,0,0,0,0,0,0,0,0,0,0,0,0,0,0,0,0,0,0,0,0,0,0,0,0,0,0,0,0,0,0,0,0,0,0,0,0,0,0,0,0,0,0,0,0,0,0,0,0,0,0,0,0,0,0,0,0,0,0,0,0],"id":11,"left_children":[1,3,5,7,9,11,13,15,17,19,21,23,25,27,29,31,33,35,37,39,41,-1,43,45,47,49,51,53,55,57,59,61,63,65,67,69,71,-1,-1,73,75,-1,-1,77,79,81,83,85,87,89,-1,91,93,95,97,-1,99,101,103,105,-1,-1,-1,-1,-1,-1,-1,-1,-1,-1,-1,-1,-1,-1,-1,-1,-1,-1,-1,-1,-1,-1,-1,-1,-1,-1,-1,-1,-1,-1,-1,-1,-1,-1,-1,-1,-1,-1,-1,-1,-1,-1,-1,-1,-1,-1,-1],"loss_changes":[5.4016777E1,4.845843E1,4.2226135E1,4.8193405E1,2.0937683E1,3.6609455E1,3.5326527E1,3.667725E1,1.5842024E1,5.820122E0,7.0318575E0,2.631067E1,1.8732716E1,3.256356E1,1.8214466E1,1.4315166E0,2.8089775E1,1.7212116E1,9.813158E0,1.3000796E1,1.5279388E-1,0E0,4.546959E0,2.5070583E1,1.8269142E1,1.3830643E0,1.5815849E1,4.591872E1,2.1372337E0,6.8733E0,7.919506E0,2.0556802E-1,7.649822E-1,2.0007385E1,3.811783E1,1.7446657E1,9.119423E0,0E0,0E0,1.0682457E1,2.930915E0,0E0,0E0,4.6073213E0,1.6895249E0,3.3207592E1,5.195037E1,5.341984E0,1.4486113E1,2.0986702E0,0E0,4.0964607E1,1.1375843E1,4.7431267E1,4.040274E1,0E0,4.2461395E-2,8.167711E0,2.5176363E0,2.0648193E0,0E0,0E0,0E0,0E0,0E0,0E0,0E0,0E0,0E0,0E0,0E0,0E0,0E0,0E0,0E0,0E0,0E0,0E0,0E0,0E0,0E0,0E0,0E0,0E0,0E0,0E0,0E0,0E0,0E0,0E0,0E0,0E0,0E0,0E0,0E0,0E0,0E0,0E0,0E0,0E0,0E0,0E0,0E0,0E0,0E0,0E0,0E0],"parents":[2147483647,0,0,1,1,2,2,3,3,4,4,5,5,6,6,7,7,8,8,9,9,10,10,11,11,12,12,13,13,14,14,15,15,16,16,17,17,18,18,19,19,20,20,22,22,23,23,24,24,25,25,26,26,27,27,28,28,29,29,30,30,31,31,32,32,33,33,34,34,35,35,36,36,39,39,40,40,43,43,44,44,45,45,46,46,47,47,48,48,49,49,51,51,52,52,53,53,54,54,56,56,57,57,58,58,59,59],"right_children":[2,4,6,8,10,12,14,16,18,20,22,24,26,28,30,32,34,36,38,40,42,-1,44,46,48,50,52,54,56,58,60,62,64,66,68,70,72,-1,-1,74,76,-1,-1,78,80,82,84,86,88,90,-1,92,94,96,98,-1,100,102,104,106,-1,-1,-1,-1,-1,-1,-1,-1,-1,-1,-1,-1,-1,-1,-1,-1,-1,-1,-1,-1,-1,-1,-1,-1,-1,-1,-1,-1,-1,-1,-1,-1,-1,-1,-1,-1,-1,-1,-1,-1,-1,-1,-1,-1,-1,-1,-1],"split_conditions":[-1.3106544E-1,1.5503235E0,8.1684715E-1,1.0513105E0,6.7282736E-1,6.1025035E-1,1.0642511E0,-2.0571206E0,-1.7410815E-1,1.5623544E0,1.5658425E0,7.635221E-1,6.648482E-1,1.6531212E0,8.474338E-1,-7.33128E-1,-1.318124E-1,-7.9260737E-1,1.3170043E0,1.0830098E-1,-7.3385775E-1,-6.0838062E-2,1.6001945E0,1.0857724E0,5.503094E-1,-3.7013497E-2,8.285364E-1,1.5035261E0,-1.6109868E0,8.3949375E-1,1.178335E0,-6.635172E-1,4.3070868E-1,-1.6768532E0,-4.5688808E-1,1.512805E0,8.6192185E-1,3.378007E-2,-7.606651E-2,-9.002368E-1,1.5778505E0,-3.0703664E-2,-7.382559E-2,1.5535432E0,1.6076763E0,2.0060935E0,5.224644E-1,-2.872112E-1,6.131251E-1,1.0328281E-2,8.2554735E-2,8.017282E-1,8.32816E-1,1.3671851E0,1.56304E0,-6.6282013E-3,1.2644373E0,8.074041E-1,8.28305E-1,1.944992E0,2.9638669E-2,-1.45665E-3,2.2975873E-2,6.778508E-2,3.0614123E-2,1.4372993E-3,-1.4570286E-2,2.3243193E-2,-4.189213E-3,5.372519E-2,-8.823914E-3,3.958928E-2,-1.5163809E-2,4.1749563E-2,-7.1763955E-2,-5.211575E-3,6.2125113E-2,-2.0512989E-2,6.538091E-2,1.1754254E-2,-4.8903894E-2,7.0300037E-3,4.5357276E-2,-1.5101128E-3,-8.121332E-2,-2.327083E-2,-8.3474405E-2,5.5405688E-2,-3.449357E-2,5.55632E-2,-1.4958712E-2,2.7626082E-2,-3.536455E-2,5.876441E-2,4.534721E-3,-1.724099E-2,1.8554017E-2,4.7759403E-2,-9.3222316E-4,-6.755072E-2,-2.0641228E-2,4.6565462E-2,-5.0121333E-2,-4.47852E-3,5.990227E-2,-8.5298695E-2,-2.1980943E-2],"split_indices":[11,1,5,5,10,13,10,4,11,4,6,0,0,6,1,9,10,11,0,10,9,0,4,10,10,11,6,2,7,6,5,8,7,0,5,13,9,0,0,7,6,0,0,5,6,11,1,10,10,8,0,1,2,11,1,0,9,0,2,9,0,0,0,0,0,0,0,0,0,0,0,0,0,0,0,0,0,0,0,0,0,0,0,0,0,0,0,0,0,0,0,0,0,0,0,0,0,0,0,0,0,0,0,0,0,0,0],"split_type":[0,0,0,0,0,0,0,0,0,0,0,0,0,0,0,0,0,0,0,0,0,0,0,0,0,0,0,0,0,0,0,0,0,0,0,0,0,0,0,0,0,0,0,0,0,0,0,0,0,0,0,0,0,0,0,0,0,0,0,0,0,0,0,0,0,0,0,0,0,0,0,0,0,0,0,0,0,0,0,0,0,0,0,0,0,0,0,0,0,0,0,0,0,0,0,0,0,0,0,0,0,0,0,0,0,0,0],"sum_hessian":[6.1471733E3,2.753837E3,3.3933364E3,2.6859827E3,6.785437E1,2.642809E3,7.505273E2,2.4994678E3,1.8651486E2,5.568976E1,1.2164609E1,2.4242136E3,2.185954E2,7.084336E2,4.209369E1,2.2070963E1,2.4773967E3,1.7855992E2,7.954937E0,2.0865446E1,3.482431E1,1.7457244E0,1.0418884E1,2.3877214E3,3.6492268E1,1.7101538E1,2.0149387E2,6.8609735E2,2.2336235E1,1.5674351E1,2.641934E1,2.5366023E0,1.9534359E1,1.277003E3,1.2003938E3,6.788132E1,1.1067861E2,2.234051E0,5.7208858E0,1.5685316E1,5.1801295E0,2.1980991E0,3.2626213E1,7.449923E0,2.9689615E0,2.1072156E3,2.8050583E2,2.0079153E1,1.6413115E1,2.7326849E0,1.4368853E1,1.4896625E2,5.252762E1,5.1497437E2,1.7112302E2,1.8859187E0,2.0450315E1,1.0440249E1,5.234101E0,2.5175312E1,1.2440283E0,1.1790936E0,1.3575087E0,1.5237036E1,4.297324E0,2.4021156E2,1.0367915E3,1.4283932E2,1.0575544E3,1.2927599E1,5.4953716E1,1.0298163E2,7.6969833E0,1.73807E0,1.3947247E1,2.9602857E0,2.2198436E0,1.497333E0,5.95259E0,1.7457117E0,1.2232498E0,2.0500525E3,5.716315E1,2.593075E2,2.119834E1,6.223365E0,1.3855787E1,6.7144394E0,9.698675E0,1.4898126E0,1.2428722E0,1.1683741E2,3.2128834E1,3.960182E1,1.2925798E1,3.9510855E2,1.1986578E2,7.631576E1,9.480725E1,1.9305233E1,1.1450837E0,1.9846783E0,8.455571E0,2.2394683E0,2.9946325E0,2.2936167E1,2.239144E0],"tree_param":{"num_deleted":"0","num_feature":"14","num_nodes":"107","size_leaf_vector":"1"}},{"base_weights":[1.4985363E-3,1.0160629E-2,-7.531435E-1,1.1233691E0,5.7689534E-3,-4.728436E-1,-1.2778049E0,2.2658274E-1,1.2096896E0,8.3325446E-2,-5.606122E-2,-1.6190398E-1,-1.2965134E0,1.2007716E-2,-6.857812E-2,-5.8605275E-3,2.2916717E-2,1.2777389E0,1.8903854E-3,2.390804E-1,4.0510245E-2,-5.9895482E-2,9.392865E-1,2.4445437E-1,-1.0126145E0,-1.3039812E-2,-1.4611887E0,1.3571188E0,3.84493E-4,3.69591E-1,6.695345E-2,-8.636581E-1,4.6534665E-2,-2.1947723E-2,-1.8190509E-1,1.1596695E0,7.872454E-2,7.982415E-1,-6.859299E-1,-1.1643775E0,-2.9287636E-1,-7.736916E-2,-1.9901646E-2,6.999202E-2,1.8408751E-2,1.3389947E-2,4.658873E-2,-6.5586674E-3,1.6108464E-2,4.8461533E-3,-6.4061776E-2,3.7847813E-2,1.9135528E-3,-2.5167454E-3,2.4762262E-2,-5.5643406E-2,-6.9339275E-3,6.7422844E-2,1.6544377E-3,3.0700913E-2,-2.1600578E-2,6.255952E-2,3.5709206E-3,-6.253804E-2,7.1334736E-3,-6.697782E-2,8.91475E-4,1.4571437E-3,-2.402028E-2],"categories":[],"categories_nodes":[],"categories_segments":[],"categories_sizes":[],"default_left":[0,0,0,0,0,0,0,0,0,0,0,0,0,0,0,0,0,0,0,0,0,0,0,0,0,0,0,0,0,0,0,0,0,0,0,0,0,0,0,0,0,0,0,0,0,0,0,0,0,0,0,0,0,0,0,0,0,0,0,0,0,0,0,0,0,0,0,0,0],"id":12,"left_children":[1,3,5,7,9,11,13,15,17,19,21,23,25,-1,-1,-1,-1,27,-1,29,31,33,35,37,39,-1,41,43,-1,45,47,49,51,53,55,57,59,61,63,65,67,-1,-1,-1,-1,-1,-1,-1,-1,-1,-1,-1,-1,-1,-1,-1,-1,-1,-1,-1,-1,-1,-1,-1,-1,-1,-1,-1,-1],"loss_changes":[4.0149086E1,2.967939E1,9.64616E0,1.5725994E0,2.9013079E1,1.1831758E1,3.700016E0,3.1864774E-1,1.6686726E0,1.7887697E1,1.2904273E1,1.2441831E1,1.7922287E0,0E0,0E0,0E0,0E0,2.038002E0,0E0,1.2970222E1,1.1513543E1,1.5527435E1,2.3701344E0,1.326225E1,9.257593E-1,0E0,3.7168312E-1,2.9231644E-1,0E0,1.8565563E1,1.2718052E1,5.7368374E0,1.2260258E1,3.760771E1,3.1865648E1,2.137453E0,1.2819877E0,5.1556053E0,4.739627E0,1.937829E0,2.1663988E-1,0E0,0E0,0E0,0E0,0E0,0E0,0E0,0E0,0E0,0E0,0E0,0E0,0E0,0E0,0E0,0E0,0E0,0E0,0E0,0E0,0E0,0E0,0E0,0E0,0E0,0E0,0E0,0E0],"parents":[2147483647,0,0,1,1,2,2,3,3,4,4,5,5,6,6,7,7,8,8,9,9,10,10,11,11,12,12,17,17,19,19,20,20,21,21,22,22,23,23,24,24,26,26,27,27,29,29,30,30,31,31,32,32,33,33,34,34,35,35,36,36,37,37,38,38,39,39,40,40],"right_children":[2,4,6,8,10,12,14,16,18,20,22,24,26,-1,-1,-1,-1,28,-1,30,32,34,36,38,40,-1,42,44,-1,46,48,50,52,54,56,58,60,62,64,66,68,-1,-1,-1,-1,-1,-1,-1,-1,-1,-1,-1,-1,-1,-1,-1,-1,-1,-1,-1,-1,-1,-1,-1,-1,-1,-1,-1,-1],"split_conditions":[1.6076763E0,-2.0581248E0,1.6531212E0,-7.33128E-1,-1.4577645E-1,2.5478852E-1,-1.9561338E0,2.3803174E-1,1.4290631E0,-6.910472E-1,1.5990313E0,1.596909E0,-5.0755376E-1,1.2007716E-2,-6.857812E-2,-5.8605275E-3,2.2916717E-2,5.9985286E-1,1.8903854E-3,3.7504053E-1,-1.5644456E0,7.617761E-1,1.5837154E0,5.106471E-1,6.31459E-2,-1.3039812E-2,6.324044E-1,2.2480254E-1,3.84493E-4,3.845532E-1,8.354957E-1,-1.2748836E0,-1.3989348E0,7.163844E-1,6.5079266E-1,1.6664094E0,4.2805126E-1,-4.8674914E-1,6.7282736E-1,1.6264139E-2,5.999375E-1,-7.736916E-2,-1.9901646E-2,6.999202E-2,1.8408751E-2,1.3389947E-2,4.658873E-2,-6.5586674E-3,1.6108464E-2,4.8461533E-3,-6.4061776E-2,3.7847813E-2,1.9135528E-3,-2.5167454E-3,2.4762262E-2,-5.5643406E-2,-6.9339275E-3,6.7422844E-2,1.6544377E-3,3.0700913E-2,-2.1600578E-2,6.255952E-2,3.5709206E-3,-6.253804E-2,7.1334736E-3,-6.697782E-2,8.91475E-4,1.4571437E-3,-2.402028E-2],"split_indices":[6,1,6,9,3,3,3,7,3,7,1,13,7,0,0,0,0,7,0,0,10,5,12,10,9,0,10,8,0,13,12,12,10,13,13,1,3,3,10,3,9,0,0,0,0,0,0,0,0,0,0,0,0,0,0,0,0,0,0,0,0,0,0,0,0,0,0,0,0],"split_type":[0,0,0,0,0,0,0,0,0,0,0,0,0,0,0,0,0,0,0,0,0,0,0,0,0,0,0,0,0,0,0,0,0,0,0,0,0,0,0,0,0,0,0,0,0,0,0,0,0,0,0,0,0,0,0,0,0,0,0,0,0,0,0,0,0,0,0,0,0],"sum_hessian":[6.1398584E3,6.0711577E3,6.870072E1,2.2855738E1,6.0483022E3,4.601727E1,2.268345E1,2.3250992E0,2.053064E1,2.6827966E3,3.3655056E3,3.4274887E1,1.1742382E1,1.2287174E0,2.1454733E1,1.1352487E0,1.1898507E0,1.9318512E1,1.2121271E0,5.7746954E2,2.1053271E3,3.3535269E3,1.1978577E1,2.3677511E1,1.0597375E1,1.9653162E0,9.777066E0,1.811758E1,1.2009319E0,3.2778683E2,2.496827E2,1.2992568E1,2.0923345E3,2.5588472E3,7.9467975E2,9.259675E0,2.7189012E0,1.4931785E1,8.745728E0,8.241751E0,2.3556242E0,8.622538E0,1.1545286E0,1.6969044E1,1.1485364E0,2.7878488E2,4.9001972E1,1.4083612E2,1.0884657E2,4.169373E0,8.823195E0,2.3016392E1,2.069318E3,2.426563E3,1.3228416E2,3.4163383E1,7.6051636E2,7.7620063E0,1.4976691E0,1.2287974E0,1.4901038E0,8.754571E0,6.1772137E0,4.8976564E0,3.848071E0,7.0621824E0,1.1795688E0,1.1777775E0,1.1778466E0],"tree_param":{"num_deleted":"0","num_feature":"14","num_nodes":"69","size_leaf_vector":"1"}},{"base_weights":[-1.0898447E-2,-1.7565961E-3,-8.271581E-1,5.069665E-2,-9.478071E-2,2.4351181E-1,-9.309419E-1,1.2814953E0,4.673166E-2,-4.646412E-2,-2.4769591E-1,5.801652E-2,-7.676586E-1,-7.468341E-1,-1.2288648E0,2.1199495E-2,6.8695165E-2,2.5571626E-2,2.79164E-1,-7.6281086E-2,5.4495376E-1,-1.2378242E0,-2.0852445E-1,-1.038095E-2,-4.7841467E-2,5.2190483E-2,-8.395093E-1,-1.1977396E-2,-1.2854015E0,5.0549205E-2,-5.330919E-1,4.4398633E-1,-5.5104975E-2,-7.0589855E-2,-7.292319E-2,-6.2548295E-2,6.0658264E-1,-2.1965481E-1,-7.286936E-2,-3.2367206E-1,1.5698673E-2,-1.0925956E0,-5.4750204E-1,-6.6038325E-2,-1.7931772E-2,1.9538437E-3,3.621624E-2,-1.7995821E-2,-5.638315E-2,1.2952534E-2,4.7183692E-2,-1.3091743E-2,2.4523389E-2,-4.3291887E-3,1.6743574E-2,5.4871853E-2,2.1289095E-2,-4.8866257E-2,5.2239954E-2,-1.1511537E-2,-6.1333057E-2,5.688679E-2,-3.4263995E-3,-1.1779083E-2,-5.7723034E-2,-6.2652364E-2,-1.4747175E-2],"categories":[],"categories_nodes":[],"categories_segments":[],"categories_sizes":[],"default_left":[0,0,0,0,0,0,0,0,0,0,0,0,0,0,0,0,0,0,0,0,0,0,0,0,0,0,0,0,0,0,0,0,0,0,0,0,0,0,0,0,0,0,0,0,0,0,0,0,0,0,0,0,0,0,0,0,0,0,0,0,0,0,0,0,0,0,0],"id":13,"left_children":[1,3,5,7,9,11,13,15,17,19,21,-1,23,25,27,-1,-1,29,31,33,35,37,39,-1,-1,-1,41,-1,43,45,47,49,51,53,-1,-1,55,57,-1,59,61,63,65,-1,-1,-1,-1,-1,-1,-1,-1,-1,-1,-1,-1,-1,-1,-1,-1,-1,-1,-1,-1,-1,-1,-1,-1],"loss_changes":[4.5972893E1,2.9738953E1,7.808857E0,1.8959183E1,1.6224539E1,7.2155523E0,2.505577E0,4.061451E-1,1.9104258E1,2.951057E1,2.0197113E1,0E0,2.0881367E-1,7.7007465E0,9.387512E-1,0E0,0E0,4.97405E1,1.7882626E1,1.2418576E1,9.649822E0,4.121525E0,1.3134825E1,0E0,0E0,0E0,2.3324013E0,0E0,2.098465E-1,2.633877E1,1.5301937E1,1.9827076E1,1.2301792E1,1.0316095E1,0E0,0E0,6.485029E0,5.5257754E0,0E0,2.8071182E1,1.6474504E1,8.0106544E-1,3.268381E0,0E0,0E0,0E0,0E0,0E0,0E0,0E0,0E0,0E0,0E0,0E0,0E0,0E0,0E0,0E0,0E0,0E0,0E0,0E0,0E0,0E0,0E0,0E0,0E0],"parents":[2147483647,0,0,1,1,2,2,3,3,4,4,5,5,6,6,7,7,8,8,9,9,10,10,12,12,13,13,14,14,17,17,18,18,19,19,20,20,21,21,22,22,26,26,28,28,29,29,30,30,31,31,32,32,33,33,36,36,37,37,39,39,40,40,41,41,42,42],"right_children":[2,4,6,8,10,12,14,16,18,20,22,-1,24,26,28,-1,-1,30,32,34,36,38,40,-1,-1,-1,42,-1,44,46,48,50,52,54,-1,-1,56,58,-1,60,62,64,66,-1,-1,-1,-1,-1,-1,-1,-1,-1,-1,-1,-1,-1,-1,-1,-1,-1,-1,-1,-1,-1,-1,-1,-1],"split_conditions":[1.596886E0,3.8701826E-1,1.5561002E0,-2.0678363E0,7.750245E-1,1.6664094E0,1.6531212E0,-7.33128E-1,1.1217427E0,7.163844E-1,7.22413E-1,5.801652E-2,1.6566131E0,1.432938E0,-1.7820147E0,2.1199495E-2,6.8695165E-2,9.8494834E-1,1.528416E0,7.036053E-1,4.4910783E-1,7.845772E-1,1.0894629E0,-1.038095E-2,-4.7841467E-2,5.2190483E-2,-1.6214186E-1,-1.1977396E-2,1.6888225E0,9.991881E-1,1.0710742E0,1.549143E0,1.5709915E0,5.6626755E-1,-7.292319E-2,-6.2548295E-2,6.108142E-1,7.797059E-1,-7.286936E-2,1.0566099E0,1.299052E0,1.5709915E0,1.496172E0,-6.6038325E-2,-1.7931772E-2,1.9538437E-3,3.621624E-2,-1.7995821E-2,-5.638315E-2,1.2952534E-2,4.7183692E-2,-1.3091743E-2,2.4523389E-2,-4.3291887E-3,1.6743574E-2,5.4871853E-2,2.1289095E-2,-4.8866257E-2,5.2239954E-2,-1.1511537E-2,-6.1333057E-2,5.688679E-2,-3.4263995E-3,-1.1779083E-2,-5.7723034E-2,-6.2652364E-2,-1.4747175E-2],"split_indices":[2,3,12,5,0,1,6,9,2,13,12,0,2,13,3,0,0,0,5,13,6,5,12,0,0,0,9,0,8,12,1,12,5,12,0,0,6,6,0,6,1,5,13,0,0,0,0,0,0,0,0,0,0,0,0,0,0,0,0,0,0,0,0,0,0,0,0],"split_type":[0,0,0,0,0,0,0,0,0,0,0,0,0,0,0,0,0,0,0,0,0,0,0,0,0,0,0,0,0,0,0,0,0,0,0,0,0,0,0,0,0,0,0,0,0,0,0,0,0,0,0,0,0,0,0,0,0,0,0,0,0,0,0,0,0,0,0],"sum_hessian":[6.160027E3,6.0927915E3,6.723518E1,3.8962686E3,2.196523E3,5.822445E0,6.1412743E1,1.1476794E1,3.8847917E3,1.6701193E3,5.2640356E2,2.976326E0,2.846119E0,4.0124046E1,2.1288694E1,1.6600939E0,9.816701E0,3.5616577E3,3.23134E2,1.590789E3,7.933032E1,1.8868498E1,5.0753503E2,1.2482371E0,1.5978817E0,1.4694104E0,3.8654636E1,1.4339259E0,1.9854769E1,3.4101033E3,1.5155458E2,2.1620084E2,1.06933174E2,1.5853124E3,5.476563E0,1.9917138E0,7.733861E1,3.7019656E0,1.51665325E1,3.3503668E2,1.7249835E2,1.9238619E1,1.9416016E1,1.8715462E1,1.1393075E0,3.354052E3,5.6051243E1,1.18612656E2,3.2941925E1,1.5890727E2,5.7293564E1,7.792551E1,2.9007668E1,1.5259076E3,5.940483E1,1.94538E1,5.7884808E1,2.4568686E0,1.245097E0,3.0475555E2,3.0281147E1,1.1171233E1,1.6132713E2,1.6189792E0,1.761964E1,4.0738716E0,1.5342145E1],"tree_param":{"num_deleted":"0","num_feature":"14","num_nodes":"67","size_leaf_vector":"1"}},{"base_weights":[5.7492615E-4,-1.09658845E-1,9.094464E-2,-8.947153E-2,-9.282203E-1,1.2792678E-1,-2.187803E-1,-1.2232006E-1,3.3205602E-1,-1.2156223E0,1.5474615E-1,1.4291017E-1,-6.5537214E-1,1.5291784E0,-2.9493558E-1,-8.4943056E-2,-4.3256503E-1,4.0891555E-1,-1.1039495E0,-7.7270424E-1,-1.4286997E0,-3.9893952E-1,6.902298E-1,1.2509498E-1,7.3904544E-1,-4.018151E-1,-1.2749605E0,4.555637E-3,8.855149E-2,-1.970919E-1,-1.264912E0,-1.2163634E-1,3.2530484E-1,-4.6445657E-2,-7.547506E-1,1.0285147E0,2.055747E-1,1.3753209E-1,-8.166816E-2,-1.097277E0,6.576316E-1,-8.312028E-2,-1.0975155E0,1.2198365E-1,-6.955019E-1,9.827735E-1,-1.794735E-2,1.0126874E-1,6.1361593E-1,8.932751E-1,-1.0627621E0,4.6572346E-2,-1.0485923E0,-1.8293647E-2,-1.3548309E0,-8.318424E-3,-6.559571E-1,4.1753095E-2,-1.4154187E0,-5.1519484E-3,-6.630518E-2,4.1886177E-2,4.8890696E-3,-1.8341396E-2,3.171119E-2,-8.434704E-2,-2.7047757E-2,5.446903E-2,-2.3458092E-2,-2.5291136E-2,1.8650588E-2,5.4376304E-2,-4.3141197E-2,3.8206533E-2,-6.702114E-2,-1.3574463E-2,5.7156336E-2,3.7190586E-3,-6.3523725E-2,2.0124486E-2,-1.2279856E-2,8.290462E-3,-5.0343584E-2,-1.0998678E-2,6.555631E-2,7.3461705E-3,-1.604112E-2,3.649974E-2,-3.4097053E-2,4.9831714E-2,-3.5317287E-2,-7.324053E-2,6.962154E-3,5.3368546E-2,-2.516417E-2,3.1235216E-2,-6.0927164E-2,-7.0410736E-2,-1.9841608E-2,-5.619352E-3,5.6441445E-2,-2.1396464E-4,-5.5108197E-2,-3.3072036E-2,-8.3519354E-2],"categories":[],"categories_nodes":[],"categories_segments":[],"categories_sizes":[],"default_left":[0,0,0,0,0,0,0,0,0,0,0,0,0,0,0,0,0,0,0,0,0,0,0,0,0,0,0,0,0,0,0,0,0,0,0,0,0,0,0,0,0,0,0,0,0,0,0,0,0,0,0,0,0,0,0,0,0,0,0,0,0,0,0,0,0,0,0,0,0,0,0,0,0,0,0,0,0,0,0,0,0,0,0,0,0,0,0,0,0,0,0,0,0,0,0,0,0,0,0,0,0,0,0,0,0],"id":14,"left_children":[1,3,5,7,9,11,13,15,17,19,21,23,25,27,29,31,33,35,37,39,41,43,45,47,49,51,53,-1,-1,55,57,59,61,63,65,67,69,71,-1,73,75,-1,77,79,81,83,-1,85,87,89,91,93,95,-1,97,99,101,-1,103,-1,-1,-1,-1,-1,-1,-1,-1,-1,-1,-1,-1,-1,-1,-1,-1,-1,-1,-1,-1,-1,-1,-1,-1,-1,-1,-1,-1,-1,-1,-1,-1,-1,-1,-1,-1,-1,-1,-1,-1,-1,-1,-1,-1,-1,-1],"loss_changes":[6.121663E1,4.5662262E1,3.870704E1,3.7465103E1,2.0892971E1,3.550553E1,4.844787E1,2.904766E1,2.2047068E1,3.8681183E0,4.674835E0,3.135883E1,8.412832E0,5.130356E0,3.262126E1,3.375453E1,3.3483265E1,2.3279842E1,6.9357834E0,9.677141E0,8.375244E-1,1.3097618E0,2.7804399E0,3.342171E1,2.4772827E1,1.216354E1,6.6877556E-1,0E0,0E0,2.7349403E1,1.1154011E1,4.5929955E1,2.1387466E1,2.719171E1,2.834681E1,4.6880417E0,1.7059147E1,4.7158103E0,0E0,8.30982E0,2.2017632E0,0E0,3.5751095E0,4.8315865E-1,1.5619969E0,2.8366704E0,0E0,5.2927727E1,2.0638584E1,1.3850315E1,3.6913252E0,1.4922029E1,5.6371174E0,0E0,1.7620087E-1,2.6725464E1,2.675769E1,0E0,4.626236E0,0E0,0E0,0E0,0E0,0E0,0E0,0E0,0E0,0E0,0E0,0E0,0E0,0E0,0E0,0E0,0E0,0E0,0E0,0E0,0E0,0E0,0E0,0E0,0E0,0E0,0E0,0E0,0E0,0E0,0E0,0E0,0E0,0E0,0E0,0E0,0E0,0E0,0E0,0E0,0E0,0E0,0E0,0E0,0E0,0E0,0E0],"parents":[2147483647,0,0,1,1,2,2,3,3,4,4,5,5,6,6,7,7,8,8,9,9,10,10,11,11,12,12,13,13,14,14,15,15,16,16,17,17,18,18,19,19,20,20,21,21,22,22,23,23,24,24,25,25,26,26,29,29,30,30,31,31,32,32,33,33,34,34,35,35,36,36,37,37,39,39,40,40,42,42,43,43,44,44,45,45,47,47,48,48,49,49,50,50,51,51,52,52,54,54,55,55,56,56,58,58],"right_children":[2,4,6,8,10,12,14,16,18,20,22,24,26,28,30,32,34,36,38,40,42,44,46,48,50,52,54,-1,-1,56,58,60,62,64,66,68,70,72,-1,74,76,-1,78,80,82,84,-1,86,88,90,92,94,96,-1,98,100,102,-1,104,-1,-1,-1,-1,-1,-1,-1,-1,-1,-1,-1,-1,-1,-1,-1,-1,-1,-1,-1,-1,-1,-1,-1,-1,-1,-1,-1,-1,-1,-1,-1,-1,-1,-1,-1,-1,-1,-1,-1,-1,-1,-1,-1,-1,-1,-1],"split_conditions":[-1.3106544E-1,1.5496436E0,1.0642511E0,1.0403959E0,6.7282736E-1,1.6076763E0,-5.107633E-1,8.074041E-1,-1.7410815E-1,1.5351205E0,-2.5671548E-1,2.0060935E0,2.5478852E-1,2.7658936E-2,8.3598554E-1,7.7017456E-1,-4.0765032E-1,-3.3111688E-1,1.3170043E0,1.0830098E-1,-4.7564676E-1,1.5706052E0,1.6076763E0,1.5035261E0,2.0164545E0,1.6531212E0,-8.372768E-1,4.555637E-3,8.855149E-2,7.891588E-1,-1.665275E0,7.6067936E-1,7.1026516E-1,-7.4673265E-1,9.2584914E-1,1.5535432E0,-1.5198649E0,1.8353955E-1,-8.166816E-2,-6.3691753E-1,1.5778505E0,-8.312028E-2,-1.4858257E0,2.6726002E-1,-1.4206058E0,1.5706052E0,-1.794735E-2,9.834107E-1,1.7344261E0,1.5010625E0,1.381928E0,1.537222E0,-2.0421443E0,-1.8293647E-2,1.4251318E0,6.710917E-1,-1.6871949E-1,4.1753095E-2,1.1212755E0,-5.1519484E-3,-6.630518E-2,4.1886177E-2,4.8890696E-3,-1.8341396E-2,3.171119E-2,-8.434704E-2,-2.7047757E-2,5.446903E-2,-2.3458092E-2,-2.5291136E-2,1.8650588E-2,5.4376304E-2,-4.3141197E-2,3.8206533E-2,-6.702114E-2,-1.3574463E-2,5.7156336E-2,3.7190586E-3,-6.3523725E-2,2.0124486E-2,-1.2279856E-2,8.290462E-3,-5.0343584E-2,-1.0998678E-2,6.555631E-2,7.3461705E-3,-1.604112E-2,3.649974E-2,-3.4097053E-2,4.9831714E-2,-3.5317287E-2,-7.324053E-2,6.962154E-3,5.3368546E-2,-2.516417E-2,3.1235216E-2,-6.0927164E-2,-7.0410736E-2,-1.9841608E-2,-5.619352E-3,5.6441445E-2,-2.1396464E-4,-5.5108197E-2,-3.3072036E-2,-8.3519354E-2],"split_indices":[11,0,10,5,10,6,0,0,11,5,8,11,3,11,1,13,10,10,0,10,11,2,6,2,3,6,7,0,0,11,3,6,5,10,13,5,11,8,0,7,6,0,3,7,7,2,0,6,11,1,0,13,3,0,7,11,6,0,10,0,0,0,0,0,0,0,0,0,0,0,0,0,0,0,0,0,0,0,0,0,0,0,0,0,0,0,0,0,0,0,0,0,0,0,0,0,0,0,0,0,0,0,0,0,0],"split_type":[0,0,0,0,0,0,0,0,0,0,0,0,0,0,0,0,0,0,0,0,0,0,0,0,0,0,0,0,0,0,0,0,0,0,0,0,0,0,0,0,0,0,0,0,0,0,0,0,0,0,0,0,0,0,0,0,0,0,0,0,0,0,0,0,0,0,0,0,0,0,0,0,0,0,0,0,0,0,0,0,0,0,0,0,0,0,0,0,0,0,0,0,0,0,0,0,0,0,0,0,0,0,0,0,0],"sum_hessian":[6.143139E3,2.767322E3,3.3758171E3,2.7017996E3,6.552234E1,3.0162537E3,3.5956332E2,2.507135E3,1.9466466E2,5.1683792E1,1.3838549E1,2.9604424E3,5.5811417E1,1.4214917E1,3.4534842E2,2.2386997E3,2.6843533E2,1.8545383E2,9.21083E0,1.8290417E1,3.3393375E1,6.9290056E0,6.909543E0,2.875713E3,8.472927E1,4.077386E1,1.5037557E1,2.2446723E0,1.1970245E1,3.147973E2,3.0551113E1,2.055551E3,1.8314856E2,1.2262321E2,1.4581212E2,4.4821205E1,1.4063263E2,2.9748912E0,6.2359385E0,1.5097366E1,3.1930509E0,1.7221298E1,1.6172077E1,2.727218E0,4.201788E0,5.452503E0,1.4570397E0,2.7431316E3,1.325813E2,7.8513016E1,6.2162585E0,2.4628086E1,1.6145775E1,1.6651843E0,1.3372372E1,2.2376166E2,9.1035645E1,1.739003E0,2.881211E1,2.0253644E3,3.0186754E1,5.5491352E1,1.276572E2,8.3691696E1,3.893151E1,2.591728E1,1.19894844E2,4.333277E1,1.4884329E0,2.6408527E1,1.142241E2,1.4811599E0,1.4937311E0,1.4966956E0,1.3600671E1,1.2471346E0,1.9459164E0,2.153156E0,1.401892E1,1.4929543E0,1.2342637E0,1.2397833E0,2.9620047E0,1.2401046E0,4.2123985E0,2.4759746E3,2.6715704E2,1.2205385E2,1.0527456E1,7.410188E1,4.4111257E0,4.494344E0,1.7219143E0,8.292328E0,1.6335758E1,1.2419584E0,1.4903816E1,1.2221389E1,1.1509837E0,2.0582617E2,1.7935482E1,3.7409405E1,5.3626236E1,8.1893215E0,2.062279E1],"tree_param":{"num_deleted":"0","num_feature":"14","num_nodes":"105","size_leaf_vector":"1"}},{"base_weights":[-1.0079793E-3,-2.2787613E-1,4.0955927E-2,-3.5900548E-1,-7.7148885E-2,5.062395E-2,-7.2914404E-1,9.0754265E-1,-3.867928E-1,6.3346297E-1,-1.7906503E-1,1.1674623E-1,-5.4960713E-2,-9.3665123E-1,-2.064117E-1,6.2112123E-2,1.6326216E-1,-1.3290163E0,-3.370953E-1,8.0246174E-1,-3.8258192E-1,-1.2610247E0,-1.1532836E-1,3.9047543E-2,2.5278038E-1,-1.1104073E-1,1.3697243E-1,1.1227877E-1,-1.0718805E0,3.180236E-1,-6.135551E-2,-2.5828784E-2,3.506745E-2,1.5641041E-2,-1.4288878E0,1.0231369E0,-3.794136E-1,-5.1120317E-1,9.6725094E-1,6.722582E-2,-6.9725305E-2,-3.181973E-1,-8.669649E-2,1.386598E0,-1.498969E-1,-1.3681424E0,4.9589753E-2,4.5546365E-1,1.5399243E-1,-7.542489E-2,-4.084711E-1,1.10944E0,9.381562E-2,-3.55463E-2,7.312084E-1,8.306553E-2,-1.1485443E0,8.763715E-1,-6.5671034E-2,-1.3946113E-2,-7.467885E-2,6.8804644E-2,-8.55968E-3,-1.1236572E-2,-3.196241E-2,2.787639E-2,-4.6991628E-2,3.5118934E-2,7.551272E-2,5.846105E-2,-4.377038E-2,5.553204E-3,7.95028E-2,5.1161952E-2,-9.643451E-3,-7.7672064E-2,-3.624166E-2,-1.1150968E-2,4.4075027E-3,4.415087E-2,1.2306823E-2,1.0164788E-2,-3.1178579E-2,3.3185843E-3,-9.508851E-3,-8.689465E-2,-1.654889E-2,7.2774515E-2,1.3487135E-2,-2.5272682E-2,9.783966E-3,4.851699E-2,2.890041E-3,5.3784966E-2,-4.804044E-2,-7.8033367E-3,-6.0594063E-2,6.1136823E-2,1.7239217E-3,4.15315E-2,-6.680343E-2],"categories":[],"categories_nodes":[],"categories_segments":[],"categories_sizes":[],"default_left":[0,0,0,0,0,0,0,0,0,0,0,0,0,0,0,0,0,0,0,0,0,0,0,0,0,0,0,0,0,0,0,0,0,0,0,0,0,0,0,0,0,0,0,0,0,0,0,0,0,0,0,0,0,0,0,0,0,0,0,0,0,0,0,0,0,0,0,0,0,0,0,0,0,0,0,0,0,0,0,0,0,0,0,0,0,0,0,0,0,0,0,0,0,0,0,0,0,0,0,0,0],"id":15,"left_children":[1,3,5,7,9,11,13,15,17,19,21,23,25,27,29,-1,31,33,35,37,39,41,43,45,47,49,51,53,55,57,-1,-1,-1,-1,59,61,63,65,67,-1,-1,69,-1,71,73,75,77,79,81,83,85,87,89,-1,91,93,95,97,99,-1,-1,-1,-1,-1,-1,-1,-1,-1,-1,-1,-1,-1,-1,-1,-1,-1,-1,-1,-1,-1,-1,-1,-1,-1,-1,-1,-1,-1,-1,-1,-1,-1,-1,-1,-1,-1,-1,-1,-1,-1,-1],"loss_changes":[5.8392E1,1.8895306E1,3.8574345E1,1.8360374E1,3.2464283E1,3.5701454E1,6.774887E0,2.6082954E0,2.303215E1,9.965652E0,2.6848783E1,3.3223766E1,2.1214787E1,6.6031494E0,1.0848469E1,0E0,2.063979E0,4.5107346E0,2.7882996E1,1.1004625E1,1.7077951E1,9.112873E0,1.9457935E1,2.9773146E1,2.2812775E1,1.6121338E1,1.8605469E1,3.6402574E0,3.6883469E0,2.992662E0,0E0,0E0,0E0,0E0,1.3346825E0,6.4248676E0,1.8503998E1,3.3026252E0,5.193527E0,0E0,0E0,8.03962E0,0E0,2.0135307E0,1.8513561E1,6.531086E-1,2.0922237E1,3.3253845E1,2.9640692E1,2.2189478E1,1.6199844E1,5.085039E0,2.6222466E1,0E0,5.86262E-1,4.6171355E0,2.2071228E0,1.6053662E0,1.1415227E1,0E0,0E0,0E0,0E0,0E0,0E0,0E0,0E0,0E0,0E0,0E0,0E0,0E0,0E0,0E0,0E0,0E0,0E0,0E0,0E0,0E0,0E0,0E0,0E0,0E0,0E0,0E0,0E0,0E0,0E0,0E0,0E0,0E0,0E0,0E0,0E0,0E0,0E0,0E0,0E0,0E0,0E0],"parents":[2147483647,0,0,1,1,2,2,3,3,4,4,5,5,6,6,7,7,8,8,9,9,10,10,11,11,12,12,13,13,14,14,16,16,17,17,18,18,19,19,20,20,21,21,22,22,23,23,24,24,25,25,26,26,27,27,28,28,29,29,34,34,35,35,36,36,37,37,38,38,41,41,43,43,44,44,45,45,46,46,47,47,48,48,49,49,50,50,51,51,52,52,54,54,55,55,56,56,57,57,58,58],"right_children":[2,4,6,8,10,12,14,16,18,20,22,24,26,28,30,-1,32,34,36,38,40,42,44,46,48,50,52,54,56,58,-1,-1,-1,-1,60,62,64,66,68,-1,-1,70,-1,72,74,76,78,80,82,84,86,88,90,-1,92,94,96,98,100,-1,-1,-1,-1,-1,-1,-1,-1,-1,-1,-1,-1,-1,-1,-1,-1,-1,-1,-1,-1,-1,-1,-1,-1,-1,-1,-1,-1,-1,-1,-1,-1,-1,-1,-1,-1,-1,-1,-1,-1,-1,-1],"split_conditions":[-1.0754442E0,-1.080532E-1,1.596886E0,-2.0581248E0,-5.100847E-1,3.8701826E-1,1.1599891E0,7.193998E-1,-1.846404E0,-1.2233397E0,-1.7522065E-1,4.6245995E-1,1.1136558E0,1.432938E0,1.6566131E0,6.2112123E-2,-1.9933326E0,-2.0591662E0,-1.8317438E0,-1.7929643E0,-7.8820956E-1,-4.0587407E-1,-3.1371784E-1,-1.5644456E0,7.891588E-1,7.657553E-1,-1.7365716E0,-7.199394E-2,-7.561557E-1,1.5706992E0,-6.135551E-2,-2.5828784E-2,3.506745E-2,1.5641041E-2,-2.0576854E0,-1.2821549E0,-1.3522407E-1,-5.596525E-1,1.2813715E0,6.722582E-2,-6.9725305E-2,-1.1969706E0,-8.669649E-2,-3.9570257E-1,-1.0193982E-1,-3.7013497E-2,-1.5670818E0,-3.4194747E-1,1.1335549E0,2.0042534E-1,-1.8247769E0,1.210376E0,-1.2876077E0,-3.55463E-2,-8.264023E-2,1.5912011E0,-1.8944037E0,1.6437683E0,4.8587134E-1,-1.3946113E-2,-7.467885E-2,6.8804644E-2,-8.55968E-3,-1.1236572E-2,-3.196241E-2,2.787639E-2,-4.6991628E-2,3.5118934E-2,7.551272E-2,5.846105E-2,-4.377038E-2,5.553204E-3,7.95028E-2,5.1161952E-2,-9.643451E-3,-7.7672064E-2,-3.624166E-2,-1.1150968E-2,4.4075027E-3,4.415087E-2,1.2306823E-2,1.0164788E-2,-3.1178579E-2,3.3185843E-3,-9.508851E-3,-8.689465E-2,-1.654889E-2,7.2774515E-2,1.3487135E-2,-2.5272682E-2,9.783966E-3,4.851699E-2,2.890041E-3,5.3784966E-2,-4.804044E-2,-7.8033367E-3,-6.0594063E-2,6.1136823E-2,1.7239217E-3,4.15315E-2,-6.680343E-2],"split_indices":[11,10,2,1,4,3,11,3,12,11,12,11,11,13,2,0,11,0,6,4,6,5,4,10,11,11,2,10,11,12,0,0,0,0,2,11,3,7,10,0,0,3,0,6,10,11,13,2,10,6,12,11,0,0,7,0,3,11,3,0,0,0,0,0,0,0,0,0,0,0,0,0,0,0,0,0,0,0,0,0,0,0,0,0,0,0,0,0,0,0,0,0,0,0,0,0,0,0,0,0,0],"split_type":[0,0,0,0,0,0,0,0,0,0,0,0,0,0,0,0,0,0,0,0,0,0,0,0,0,0,0,0,0,0,0,0,0,0,0,0,0,0,0,0,0,0,0,0,0,0,0,0,0,0,0,0,0,0,0,0,0,0,0,0,0,0,0,0,0,0,0,0,0,0,0,0,0,0,0,0,0,0,0,0,0,0,0,0,0,0,0,0,0,0,0,0,0,0,0,0,0,0,0,0,0],"sum_hessian":[6.131456E3,9.56411E2,5.175045E3,5.1071686E2,4.4569415E2,5.1118047E3,6.324057E1,1.02845745E1,5.0043228E2,5.5249653E1,3.9044452E2,3.143245E3,1.9685596E3,4.47031E1,1.8537472E1,6.6327868E0,3.6517885E0,2.3783068E1,4.766492E2,4.7550747E1,7.6989064E0,2.0675941E1,3.697686E2,2.0013947E3,1.1418505E3,1.5237607E3,4.4479883E2,5.1244097E0,3.957869E1,1.2700417E1,5.8370543E0,1.6310453E0,2.020743E0,1.2414832E0,2.2541584E1,1.368235E1,4.6296686E2,5.0657206E0,4.2485023E1,2.722912E0,4.9759946E0,7.4652944E0,1.3210647E1,7.439227E0,3.6232935E2,1.3924714E1,1.9874698E3,3.7298544E2,7.68865E2,1.3619298E3,1.6183089E2,1.7850904E1,4.2694794E2,2.1354823E0,2.9889276E0,2.4584506E0,3.712024E1,4.6499014E0,8.050515E0,1.483392E0,2.1058191E1,1.0443757E1,3.2385929E0,2.913739E2,1.7159296E2,1.3640122E0,3.7017086E0,3.0097324E1,1.23877E1,1.7351453E0,5.730149E0,1.2360394E0,6.203188E0,1.1997118E1,3.503322E2,9.712389E0,4.2123256E0,2.456957E2,1.7417742E3,1.21533394E2,2.5145206E2,7.2371466E2,4.5150326E1,6.093686E2,7.525612E2,7.733526E0,1.5409737E2,1.2121942E1,5.728962E0,6.145325E1,3.654947E2,1.880286E0,1.1086416E0,1.2445265E0,1.213924E0,2.4346018E0,3.468564E1,2.9739974E0,1.6759042E0,4.923215E0,3.1273003E0],"tree_param":{"num_deleted":"0","num_feature":"14","num_nodes":"101","size_leaf_vector":"1"}},{"base_weights":[3.5492992E-3,-1.8868114E-1,3.9373446E-2,-2.8020686E-1,2.2256305E-2,5.6028232E-2,-5.026986E-1,1.5451051E-1,-3.7771016E-1,-6.2897545E-1,1.605697E-1,4.0804595E-2,5.538098E-1,-1.0384687E0,-2.2769761E-1,-3.1373498E-1,6.335223E-1,-9.8055243E-1,-3.1764328E-1,8.5928804E-1,-8.541633E-1,-6.150451E-2,1.9785154E-1,8.213078E-2,-1.4704059E-1,3.375773E-1,1.2966756E0,-1.295117E0,-2.0329502E-1,2.4170364E-1,-6.831603E-1,9.6518964E-1,-6.317795E-1,-3.9763483E-1,7.947113E-1,8.409209E-1,-1.1380411E0,-2.637662E-1,-1.0117068E0,-4.0273875E-2,7.171171E-2,-1.00555E0,8.6488503E-1,1.0042831E0,8.37636E-2,5.9002187E-2,6.105761E-1,-7.6923454E-1,-6.076347E-2,6.0867345E-1,-7.722046E-1,1.4527831E0,-3.8159993E-2,-3.540629E-1,-1.3915974E0,2.5857115E-1,-5.903539E-2,6.565387E-1,-4.5039797E-1,-4.082221E-1,-1.2841463E0,5.6201685E-2,-3.3733018E-3,1.2565908E-2,-6.1191123E-2,1.3716238E-2,-7.06995E-2,2.2160126E-2,7.11633E-2,-2.4939824E-3,6.5171234E-2,-1.1460252E-2,-6.067887E-2,4.2372914E-3,-1.831671E-2,5.546247E-2,-5.6836706E-2,5.318595E-2,-5.5372234E-2,5.5190425E-2,1.2667954E-2,2.447621E-2,7.402183E-2,-8.2372926E-2,8.737516E-3,1.4474942E-2,1.2013259E-3,4.0902812E-2,1.1376141E-3,-1.1457353E-2,-5.679351E-2,4.083624E-2,-5.0626737E-3,3.9335106E-2,-6.9238693E-3,-5.753642E-2,3.0419199E-2,-1.9846682E-2,7.707803E-2,-5.186804E-2,1.7921967E-2,-4.5470484E-2,-7.5549446E-2,-3.3870686E-2,4.6400383E-2,4.8048254E-2,-5.5906586E-3,-7.49705E-2,3.0167548E-2,9.612026E-4,-5.5143613E-2,-2.2719968E-2,-6.9289885E-2],"categories":[],"categories_nodes":[],"categories_segments":[],"categories_sizes":[],"default_left":[0,0,0,0,0,0,0,0,0,0,0,0,0,0,0,0,0,0,0,0,0,0,0,0,0,0,0,0,0,0,0,0,0,0,0,0,0,0,0,0,0,0,0,0,0,0,0,0,0,0,0,0,0,0,0,0,0,0,0,0,0,0,0,0,0,0,0,0,0,0,0,0,0,0,0,0,0,0,0,0,0,0,0,0,0,0,0,0,0,0,0,0,0,0,0,0,0,0,0,0,0,0,0,0,0,0,0,0,0,0,0,0,0],"id":16,"left_children":[1,3,5,7,9,11,13,15,17,19,21,23,25,27,29,31,33,35,37,39,41,-1,43,45,47,49,51,53,55,57,59,61,63,65,67,69,71,73,75,-1,-1,77,79,81,83,85,87,89,91,93,95,97,-1,99,101,103,-1,105,107,109,111,-1,-1,-1,-1,-1,-1,-1,-1,-1,-1,-1,-1,-1,-1,-1,-1,-1,-1,-1,-1,-1,-1,-1,-1,-1,-1,-1,-1,-1,-1,-1,-1,-1,-1,-1,-1,-1,-1,-1,-1,-1,-1,-1,-1,-1,-1,-1,-1,-1,-1,-1,-1],"loss_changes":[4.2142498E1,1.8565365E1,4.6596928E1,2.8477833E1,2.6386244E1,3.7908157E1,2.2432629E1,2.7908915E1,1.9529999E1,1.7934769E1,1.2763952E1,3.772352E1,2.3409042E1,1.0862457E1,2.2175909E1,2.6293327E1,1.05215E1,1.5062111E1,1.8421684E1,8.088591E0,1.2601528E1,0E0,2.1633461E1,4.8639057E1,4.699807E1,3.5471233E1,1.1758274E1,3.0952682E0,6.348795E0,1.5064339E1,8.152813E0,2.2034464E0,2.7061796E1,6.5119443E0,1.1174984E1,1.9141164E0,2.8579445E0,1.6657455E1,1.0713932E1,0E0,0E0,1.0011333E1,3.3198905E-1,6.423689E0,3.3033623E1,3.0761833E1,2.0335316E1,2.0855816E1,2.7466606E1,1.2619946E1,1.2866123E1,5.723755E0,0E0,2.813904E0,6.697235E-1,6.839126E0,0E0,7.7255106E0,2.2869406E1,1.1154861E1,7.2125626E-1,0E0,0E0,0E0,0E0,0E0,0E0,0E0,0E0,0E0,0E0,0E0,0E0,0E0,0E0,0E0,0E0,0E0,0E0,0E0,0E0,0E0,0E0,0E0,0E0,0E0,0E0,0E0,0E0,0E0,0E0,0E0,0E0,0E0,0E0,0E0,0E0,0E0,0E0,0E0,0E0,0E0,0E0,0E0,0E0,0E0,0E0,0E0,0E0,0E0,0E0,0E0,0E0],"parents":[2147483647,0,0,1,1,2,2,3,3,4,4,5,5,6,6,7,7,8,8,9,9,10,10,11,11,12,12,13,13,14,14,15,15,16,16,17,17,18,18,19,19,20,20,22,22,23,23,24,24,25,25,26,26,27,27,28,28,29,29,30,30,31,31,32,32,33,33,34,34,35,35,36,36,37,37,38,38,41,41,42,42,43,43,44,44,45,45,46,46,47,47,48,48,49,49,50,50,51,51,53,53,54,54,55,55,57,57,58,58,59,59,60,60],"right_children":[2,4,6,8,10,12,14,16,18,20,22,24,26,28,30,32,34,36,38,40,42,-1,44,46,48,50,52,54,56,58,60,62,64,66,68,70,72,74,76,-1,-1,78,80,82,84,86,88,90,92,94,96,98,-1,100,102,104,-1,106,108,110,112,-1,-1,-1,-1,-1,-1,-1,-1,-1,-1,-1,-1,-1,-1,-1,-1,-1,-1,-1,-1,-1,-1,-1,-1,-1,-1,-1,-1,-1,-1,-1,-1,-1,-1,-1,-1,-1,-1,-1,-1,-1,-1,-1,-1,-1,-1,-1,-1,-1,-1,-1,-1],"split_conditions":[-1.0754442E0,2.2880787E-1,1.5623544E0,-1.6583371E0,-1.9933326E0,1.4806073E0,-2.3687098E-2,-1.7929643E0,-1.4711307E0,2.54112E-1,-5.83789E-1,8.074041E-1,1.16761895E-2,6.7282736E-1,1.6076763E0,-2.0581248E0,-1.0408776E0,-1.3989348E0,1.5217762E-1,4.550789E-1,2.3452158E0,-6.150451E-2,-5.100847E-1,7.653291E-1,7.791968E-1,1.5496436E0,1.5942962E0,-7.8101176E-1,1.6076763E0,6.9493824E-1,2.4475095E-1,4.8068812E-1,-1.0710392E0,-3.7231314E-1,-1.3335688E0,-4.8459214E-1,-1.1366236E0,-1.2515438E0,-7.8820956E-1,-4.0273875E-2,7.171171E-2,-4.5347548E-1,-2.4020332E-1,1.2813715E0,-1.7522065E-1,-7.665462E-1,7.313902E-1,5.2549905E-1,8.1026375E-1,6.7689717E-1,1.3345712E-1,-1.0408776E0,-3.8159993E-2,1.5703815E0,-1.3141134E0,-4.313255E-1,-5.903539E-2,4.9940833E-1,1.5893155E0,1.6531212E0,2.2199187E-1,5.6201685E-2,-3.3733018E-3,1.2565908E-2,-6.1191123E-2,1.3716238E-2,-7.06995E-2,2.2160126E-2,7.11633E-2,-2.4939824E-3,6.5171234E-2,-1.1460252E-2,-6.067887E-2,4.2372914E-3,-1.831671E-2,5.546247E-2,-5.6836706E-2,5.318595E-2,-5.5372234E-2,5.5190425E-2,1.2667954E-2,2.447621E-2,7.402183E-2,-8.2372926E-2,8.737516E-3,1.4474942E-2,1.2013259E-3,4.0902812E-2,1.1376141E-3,-1.1457353E-2,-5.679351E-2,4.083624E-2,-5.0626737E-3,3.9335106E-2,-6.9238693E-3,-5.753642E-2,3.0419199E-2,-1.9846682E-2,7.707803E-2,-5.186804E-2,1.7921967E-2,-4.5470484E-2,-7.5549446E-2,-3.3870686E-2,4.6400383E-2,4.8048254E-2,-5.5906586E-3,-7.49705E-2,3.0167548E-2,9.612026E-4,-5.5143613E-2,-2.2719968E-2,-6.9289885E-2],"split_indices":[11,10,4,0,11,13,11,4,12,10,12,0,11,10,6,1,10,10,10,6,10,0,4,13,13,0,12,8,6,3,3,7,10,9,11,9,7,3,6,0,0,1,3,10,12,7,3,10,12,7,10,10,0,13,3,8,0,7,1,6,11,0,0,0,0,0,0,0,0,0,0,0,0,0,0,0,0,0,0,0,0,0,0,0,0,0,0,0,0,0,0,0,0,0,0,0,0,0,0,0,0,0,0,0,0,0,0,0,0,0,0,0,0],"split_type":[0,0,0,0,0,0,0,0,0,0,0,0,0,0,0,0,0,0,0,0,0,0,0,0,0,0,0,0,0,0,0,0,0,0,0,0,0,0,0,0,0,0,0,0,0,0,0,0,0,0,0,0,0,0,0,0,0,0,0,0,0,0,0,0,0,0,0,0,0,0,0,0,0,0,0,0,0,0,0,0,0,0,0,0,0,0,0,0,0,0,0,0,0,0,0,0,0,0,0,0,0,0,0,0,0,0,0,0,0,0,0,0,0],"sum_hessian":[6.1175103E3,9.60304E2,5.157206E3,6.6948584E2,2.9081818E2,5.0043477E3,1.5285843E2,1.2254331E2,5.469425E2,5.0324394E1,2.4049377E2,4.8568916E3,1.4745618E2,5.0905556E1,1.0195288E2,6.2142532E1,6.0400784E1,4.817047E1,4.9877206E2,6.2437377E0,4.4080658E1,5.443671E0,2.350501E2,3.9815156E3,8.7537585E2,1.1533812E2,3.2118057E1,3.8518215E1,1.2387338E1,5.0439304E1,5.1513577E1,1.1970767E1,5.0171764E1,7.9670634E0,5.243372E1,3.4881263E0,