{"learner":{"attributes":{},"feature_names":["ema_9","ema_21","ema_50","rsi","bb_mid","bb_high","bb_low","body","upper_shadow","lower_shadow","atr_h4","rsi_h4","ema_h4_21","ema_h4_50"],"feature_types":[],"gradient_booster":{"model":{"gbtree_model_param":{"num_parallel_tree":"1","num_trees":"600"},"iteration_indptr":[0,1,2,3,4,5,6,7,8,9,10,11,12,13,14,15,16,17,18,19,20,21,22,23,24,25,26,27,28,29,30,31,32,33,34,35,36,37,38,39,40,41,42,43,44,45,46,47,48,49,50,51,52,53,54,55,56,57,58,59,60,61,62,63,64,65,66,67,68,69,70,71,72,73,74,75,76,77,78,79,80,81,82,83,84,85,86,87,88,89,90,91,92,93,94,95,96,97,98,99,100,101,102,103,104,105,106,107,108,109,110,111,112,113,114,115,116,117,118,119,120,121,122,123,124,125,126,127,128,129,130,131,132,133,134,135,136,137,138,139,140,141,142,143,144,145,146,147,148,149,150,151,152,153,154,155,156,157,158,159,160,161,162,163,164,165,166,167,168,169,170,171,172,173,174,175,176,177,178,179,180,181,182,183,184,185,186,187,188,189,190,191,192,193,194,195,196,197,198,199,200,201,202,203,204,205,206,207,208,209,210,211,212,213,214,215,216,217,218,219,220,221,222,223,224,225,226,227,228,229,230,231,232,233,234,235,236,237,238,239,240,241,242,243,244,245,246,247,248,249,250,251,252,253,254,255,256,257,258,259,260,261,262,263,264,265,266,267,268,269,270,271,272,273,274,275,276,277,278,279,280,281,282,283,284,285,286,287,288,289,290,291,292,293,294,295,296,297,298,299,300,301,302,303,304,305,306,307,308,309,310,311,312,313,314,315,316,317,318,319,320,321,322,323,324,325,326,327,328,329,330,331,332,333,334,335,336,337,338,339,340,341,342,343,344,345,346,347,348,349,350,351,352,353,354,355,356,357,358,359,360,361,362,363,364,365,366,367,368,369,370,371,372,373,374,375,376,377,378,379,380,381,382,383,384,385,386,387,388,389,390,391,392,393,394,395,396,397,398,399,400,401,402,403,404,405,406,407,408,409,410,411,412,413,414,415,416,417,418,419,420,421,422,423,424,425,426,427,428,429,430,431,432,433,434,435,436,437,438,439,440,441,442,443,444,445,446,447,448,449,450,451,452,453,454,455,456,457,458,459,460,461,462,463,464,465,466,467,468,469,470,471,472,473,474,475,476,477,478,479,480,481,482,483,484,485,486,487,488,489,490,491,492,493,494,495,496,497,498,499,500,501,502,503,504,505,506,507,508,509,510,511,512,513,514,515,516,517,518,519,520,521,522,523,524,525,526,527,528,529,530,531,532,533,534,535,536,537,538,539,540,541,542,543,544,545,546,547,548,549,550,551,552,553,554,555,556,557,558,559,560,561,562,563,564,565,566,567,568,569,570,571,572,573,574,575,576,577,578,579,580,581,582,583,584,585,586,587,588,589,590,591,592,593,594,595,596,597,598,599,600],"tree_info":[0,0,0,0,0,0,0,0,0,0,0,0,0,0,0,0,0,0,0,0,0,0,0,0,0,0,0,0,0,0,0,0,0,0,0,0,0,0,0,0,0,0,0,0,0,0,0,0,0,0,0,0,0,0,0,0,0,0,0,0,0,0,0,0,0,0,0,0,0,0,0,0,0,0,0,0,0,0,0,0,0,0,0,0,0,0,0,0,0,0,0,0,0,0,0,0,0,0,0,0,0,0,0,0,0,0,0,0,0,0,0,0,0,0,0,0,0,0,0,0,0,0,0,0,0,0,0,0,0,0,0,0,0,0,0,0,0,0,0,0,0,0,0,0,0,0,0,0,0,0,0,0,0,0,0,0,0,0,0,0,0,0,0,0,0,0,0,0,0,0,0,0,0,0,0,0,0,0,0,0,0,0,0,0,0,0,0,0,0,0,0,0,0,0,0,0,0,0,0,0,0,0,0,0,0,0,0,0,0,0,0,0,0,0,0,0,0,0,0,0,0,0,0,0,0,0,0,0,0,0,0,0,0,0,0,0,0,0,0,0,0,0,0,0,0,0,0,0,0,0,0,0,0,0,0,0,0,0,0,0,0,0,0,0,0,0,0,0,0,0,0,0,0,0,0,0,0,0,0,0,0,0,0,0,0,0,0,0,0,0,0,0,0,0,0,0,0,0,0,0,0,0,0,0,0,0,0,0,0,0,0,0,0,0,0,0,0,0,0,0,0,0,0,0,0,0,0,0,0,0,0,0,0,0,0,0,0,0,0,0,0,0,0,0,0,0,0,0,0,0,0,0,0,0,0,0,0,0,0,0,0,0,0,0,0,0,0,0,0,0,0,0,0,0,0,0,0,0,0,0,0,0,0,0,0,0,0,0,0,0,0,0,0,0,0,0,0,0,0,0,0,0,0,0,0,0,0,0,0,0,0,0,0,0,0,0,0,0,0,0,0,0,0,0,0,0,0,0,0,0,0,0,0,0,0,0,0,0,0,0,0,0,0,0,0,0,0,0,0,0,0,0,0,0,0,0,0,0,0,0,0,0,0,0,0,0,0,0,0,0,0,0,0,0,0,0,0,0,0,0,0,0,0,0,0,0,0,0,0,0,0,0,0,0,0,0,0,0,0,0,0,0,0,0,0,0,0,0,0,0,0,0,0,0,0,0,0,0,0,0,0,0,0,0,0,0,0,0,0,0,0,0,0,0,0,0,0,0,0,0,0,0,0,0,0,0,0,0,0,0,0,0,0,0,0,0,0,0,0,0,0,0,0,0,0,0,0,0,0,0,0,0,0,0,0,0,0,0,0,0,0,0,0,0,0,0,0,0,0,0,0,0,0,0,0,0,0,0,0,0],"trees":[{"base_weights":[-1.4712828E-3,-2.4532229E-2,6.963895E-1,-1.63601E-3,-7.152189E-1,-6.44754E-2,7.3355895E-1,7.755788E-1,-1.8191218E-2,-1.6063086E0,-5.8008134E-1,1.2836894E0,5.9222513E-1,9.404226E-1,-1.3802118E0,-1.11855656E-1,1.223495E-1,-1.8401964E-2,-1.6989763E0,-1.0611616E0,-1.358253E-1,1.3790697E0,-9.490208E-3,-2.947849E-1,7.505743E-1,1.0716114E0,-8.445999E-2,-8.1590824E-2,-1.0744059E-2,1.3184112E-2,-2.2447717E-1,-3.585977E-2,2.1643977E-1,-8.840758E-2,-2.1563042E-2,-6.694624E-1,-1.3281777E0,1.0637982E0,-3.4644386E-1,1.4946289E-2,1.4326273E0,4.0672413E-1,-5.844744E-1,7.8243506E-1,-6.1579157E-2,4.2808708E-2,8.693721E-2,4.5711372E-2,-3.5657357E-2,-5.3288653E-3,1.2027839E-2,-3.0304134E-2,-3.3577722E-3,1.3960282E-3,-5.0651044E-2,3.2770846E-2,5.360111E-3,-5.420608E-2,8.0513276E-2,7.4455277E-3,-6.942975E-2,7.843468E-2,1.6321046E-2,5.561023E-2,-2.7293656E-2,3.4815345E-2,7.4961014E-2,4.9852006E-2,-6.1579157E-2,-3.7839625E-2,3.846113E-2,3.0213106E-2,5.472001E-2],"categories":[],"categories_nodes":[],"categories_segments":[],"categories_sizes":[],"default_left":[0,0,0,0,0,0,0,0,0,0,0,0,0,0,0,0,0,0,0,0,0,0,0,0,0,0,0,0,0,0,0,0,0,0,0,0,0,0,0,0,0,0,0,0,0,0,0,0,0,0,0,0,0,0,0,0,0,0,0,0,0,0,0,0,0,0,0,0,0,0,0,0,0],"id":0,"left_children":[1,3,5,7,9,-1,11,13,15,17,19,21,23,25,27,29,31,-1,33,35,37,39,-1,41,43,45,47,-1,-1,49,51,53,55,-1,-1,57,59,61,63,-1,65,67,69,71,-1,-1,-1,-1,-1,-1,-1,-1,-1,-1,-1,-1,-1,-1,-1,-1,-1,-1,-1,-1,-1,-1,-1,-1,-1,-1,-1,-1,-1],"loss_changes":[9.9547844E1,9.468946E1,1.5551491E1,7.459878E1,2.220343E1,0E0,1.4391296E1,4.426899E1,7.4739716E1,2.2128754E0,3.584415E1,5.739311E0,2.2258339E1,1.5273605E1,2.286602E0,4.7980392E1,3.380967E1,0E0,1.2312393E0,7.550873E0,2.2777504E1,1.6963501E0,0E0,5.2133994E0,9.388962E0,1.2910225E1,9.279709E0,0E0,0E0,4.4014168E1,1.0757454E2,5.285889E1,6.821662E1,0E0,0E0,3.4573837E1,4.398369E0,4.510852E0,2.2773336E1,0E0,6.588974E-1,8.718727E0,4.72E0,6.6708603E0,0E0,0E0,0E0,0E0,0E0,0E0,0E0,0E0,0E0,0E0,0E0,0E0,0E0,0E0,0E0,0E0,0E0,0E0,0E0,0E0,0E0,0E0,0E0,0E0,0E0,0E0,0E0,0E0,0E0],"parents":[2147483647,0,0,1,1,2,2,3,3,4,4,6,6,7,7,8,8,9,9,10,10,11,11,12,12,13,13,14,14,15,15,16,16,18,18,19,19,20,20,21,21,23,23,24,24,25,25,26,26,29,29,30,30,31,31,32,32,35,35,36,36,37,37,38,38,40,40,41,41,42,42,43,43],"right_children":[2,4,6,8,10,-1,12,14,16,18,20,22,24,26,28,30,32,-1,34,36,38,40,-1,42,44,46,48,-1,-1,50,52,54,56,-1,-1,58,60,62,64,-1,66,68,70,72,-1,-1,-1,-1,-1,-1,-1,-1,-1,-1,-1,-1,-1,-1,-1,-1,-1,-1,-1,-1,-1,-1,-1,-1,-1,-1,-1,-1,-1],"split_conditions":[1.8376706E0,1.8625501E0,-1.685846E0,-1.8088044E0,1.7333535E0,-6.44754E-2,-4.3193966E-1,8.2075435E-1,1.9899659E-1,1.8587273E0,5.131498E-1,3.2710354E0,-1.9906428E-1,3.8240737E-1,1.0136696E0,-3.1293967E-1,-3.5758016E-1,-1.8401964E-2,2.0426888E0,1.7284699E-1,1.8977337E0,-8.4047854E-1,-9.490208E-3,-5.0919145E-1,2.407051E0,-8.396039E-2,-1.8600249E0,-8.1590824E-2,-1.0744059E-2,-4.1170436E-1,-2.7607452E-2,-1.9497152E-1,-1.426335E-1,-8.840758E-2,-2.1563042E-2,3.968504E-2,-5.9862196E-1,6.8526244E-1,1.8156028E0,1.4946289E-2,1.8761615E0,-2.7940115E-1,3.6605352E-1,1.1913866E0,-6.1579157E-2,4.2808708E-2,8.693721E-2,4.5711372E-2,-3.5657357E-2,-5.3288653E-3,1.2027839E-2,-3.0304134E-2,-3.3577722E-3,1.3960282E-3,-5.0651044E-2,3.2770846E-2,5.360111E-3,-5.420608E-2,8.0513276E-2,7.4455277E-3,-6.942975E-2,7.843468E-2,1.6321046E-2,5.561023E-2,-2.7293656E-2,3.4815345E-2,7.4961014E-2,4.9852006E-2,-6.1579157E-2,-3.7839625E-2,3.846113E-2,3.0213106E-2,5.472001E-2],"split_indices":[11,6,0,5,13,0,6,10,11,1,11,8,12,11,10,0,13,0,2,10,0,8,0,13,2,11,2,0,0,12,13,6,5,0,0,10,11,10,13,0,11,5,9,0,0,0,0,0,0,0,0,0,0,0,0,0,0,0,0,0,0,0,0,0,0,0,0,0,0,0,0,0,0],"split_type":[0,0,0,0,0,0,0,0,0,0,0,0,0,0,0,0,0,0,0,0,0,0,0,0,0,0,0,0,0,0,0,0,0,0,0,0,0,0,0,0,0,0,0,0,0,0,0,0,0,0,0,0,0,0,0,0,0,0,0,0,0,0,0,0,0,0,0,0,0,0,0,0,0],"sum_hessian":[6.183597E3,5.9867295E3,1.9686778E2,5.795608E3,1.9112164E2,2.9979866E0,1.938698E2,1.19919464E2,5.675688E3,2.373406E1,1.6738759E2,3.7974495E1,1.558953E2,1.11924835E2,7.994631E0,3.4059626E3,2.2697256E3,1.9986577E0,2.1735403E1,7.969647E1,8.769111E1,3.5726006E1,2.2484899E0,2.3484228E1,1.3241107E2,9.918339E1,1.2741443E1,6.2458053E0,1.7488256E0,1.6144158E3,1.7915468E3,8.466814E2,1.4230443E3,2.023641E1,1.4989933E0,3.372735E1,4.5969128E1,1.2491611E1,7.519949E1,1.9986577E0,3.372735E1,6.7454696E0,1.6738758E1,1.3091208E2,1.4989933E0,7.669849E1,2.24849E1,4.746812E0,7.994631E0,1.0577896E3,5.5662616E2,5.2214935E2,1.2693975E3,7.957156E2,5.096577E1,2.8256024E2,1.140484E3,2.8980537E1,4.746812E0,1.7488256E0,4.4220303E1,6.7454696E0,5.746141E0,8.494295E0,6.67052E1,3.7474833E0,2.9979866E1,5.2464767E0,1.4989933E0,1.5239765E1,1.4989933E0,8.519279E1,4.5719296E1],"tree_param":{"num_deleted":"0","num_feature":"14","num_nodes":"73","size_leaf_vector":"1"}},{"base_weights":[-1.359484E-3,-6.325199E-2,2.1505126E-1,7.6052433E-1,-8.470837E-2,1.8380411E-1,9.894585E-1,9.0281796E-1,-1.1880851E0,-6.258977E-2,-8.046479E-1,-1.1628346E0,1.9778322E-1,1.3950418E0,-2.777792E-1,8.273407E-2,7.363487E-1,-4.4895458E-1,-7.976191E-2,-8.550903E-2,2.4290162E-1,-4.162207E-1,-1.0555178E0,2.5591305E-2,-1.4496735E0,2.1431263E-1,-8.8013554E-1,8.477654E-2,2.7304876E-1,5.8177274E-2,-7.879205E-1,8.0560476E-1,-6.814403E-1,3.9484587E-2,-6.657314E-2,-7.8425296E-2,-1.5937229E0,-8.0142105E-1,3.5247204E-1,-1.2949789E-1,-1.103049E0,-3.8174245E-1,-1.1928895E0,-7.060515E-1,-7.97162E-2,1.465284E-1,5.0081635E-1,4.0853983E-1,-8.863644E-2,6.91586E-2,-3.6010188E-1,-1.2828478E0,-8.180571E-2,4.6229854E-2,6.142482E-3,4.0886775E-3,-6.674009E-2,3.5562034E-4,-8.003221E-3,3.1997755E-2,-8.896332E-2,6.2117774E-2,-4.845296E-2,9.9893315E-3,4.6991643E-2,-6.690766E-2,6.862572E-3,-8.913728E-2,-1.486283E-2,-7.243373E-2,2.3689559E-2,-3.3252392E-2,-7.97266E-2,-1.2594032E-2,-4.161388E-2,5.030449E-2,6.204002E-3,3.1740535E-2,1.2120263E-3,-9.7356355E-3,7.0560135E-2,1.0656136E-2,-6.612819E-2,-2.3319876E-2,-7.209679E-2,6.0207136E-2,-5.0136793E-2],"categories":[],"categories_nodes":[],"categories_segments":[],"categories_sizes":[],"default_left":[0,0,0,0,0,0,0,0,0,0,0,0,0,0,0,0,0,0,0,0,0,0,0,0,0,0,0,0,0,0,0,0,0,0,0,0,0,0,0,0,0,0,0,0,0,0,0,0,0,0,0,0,0,0,0,0,0,0,0,0,0,0,0,0,0,0,0,0,0,0,0,0,0,0,0,0,0,0,0,0,0,0,0,0,0,0,0],"id":1,"left_children":[1,3,5,7,9,11,13,15,17,19,21,23,25,27,29,-1,31,33,-1,35,37,39,41,-1,43,45,47,-1,49,-1,51,53,55,-1,-1,57,59,61,63,65,67,69,71,73,-1,75,77,79,-1,-1,81,83,85,-1,-1,-1,-1,-1,-1,-1,-1,-1,-1,-1,-1,-1,-1,-1,-1,-1,-1,-1,-1,-1,-1,-1,-1,-1,-1,-1,-1,-1,-1,-1,-1,-1,-1],"loss_changes":[8.284994E1,8.508031E1,3.310519E1,3.495556E1,7.461243E1,2.5144367E1,2.7692028E1,1.3106636E1,1.9164057E0,3.1878277E1,1.3170929E1,7.3435287E0,2.3542595E1,1.31612625E1,1.1000601E1,0E0,9.926819E0,5.9692354E0,0E0,4.5101765E1,3.6647137E1,1.0975852E1,7.33902E0,0E0,1.6448402E-1,2.5012978E1,2.3720179E1,0E0,7.3359013E0,0E0,3.643324E0,7.321495E0,2.597326E0,0E0,0E0,2.943174E1,9.318836E0,1.1647734E1,2.5668793E1,1.339113E1,8.504417E0,1.5046671E1,1.3669373E1,5.234599E-3,0E0,2.005889E1,1.57404785E1,5.714613E0,0E0,0E0,4.1374626E0,1.3766289E-1,7.706532E0,0E0,0E0,0E0,0E0,0E0,0E0,0E0,0E0,0E0,0E0,0E0,0E0,0E0,0E0,0E0,0E0,0E0,0E0,0E0,0E0,0E0,0E0,0E0,0E0,0E0,0E0,0E0,0E0,0E0,0E0,0E0,0E0,0E0,0E0],"parents":[2147483647,0,0,1,1,2,2,3,3,4,4,5,5,6,6,7,7,8,8,9,9,10,10,11,11,12,12,13,13,14,14,16,16,17,17,19,19,20,20,21,21,22,22,24,24,25,25,26,26,28,28,30,30,31,31,32,32,35,35,36,36,37,37,38,38,39,39,40,40,41,41,42,42,43,43,45,45,46,46,47,47,50,50,51,51,52,52],"right_children":[2,4,6,8,10,12,14,16,18,20,22,24,26,28,30,-1,32,34,-1,36,38,40,42,-1,44,46,48,-1,50,-1,52,54,56,-1,-1,58,60,62,64,66,68,70,72,74,-1,76,78,80,-1,-1,82,84,86,-1,-1,-1,-1,-1,-1,-1,-1,-1,-1,-1,-1,-1,-1,-1,-1,-1,-1,-1,-1,-1,-1,-1,-1,-1,-1,-1,-1,-1,-1,-1,-1,-1,-1],"split_conditions":[8.042373E-1,-1.8088044E0,2.1623464E0,8.2075435E-1,1.8040023E0,-1.81901E0,3.480368E-1,-6.0811293E-1,-5.8583593E-1,1.4605448E0,-5.40509E-1,-1.1211388E0,2.3759482E0,1.122572E0,-5.9089446E-1,8.273407E-2,-1.8014487E0,-1.8450458E0,-7.976191E-2,1.5835326E0,-1.927974E0,1.0487666E0,1.8156028E0,2.5591305E-2,-1.7473544E0,7.748039E-1,1.0625694E0,8.477654E-2,-1.0207964E0,5.8177274E-2,4.0838367E-1,3.8240737E-1,-1.2369591E0,3.9484587E-2,-6.657314E-2,-2.901647E-1,1.5182076E0,9.5431244E-1,1.7752712E0,-1.649685E-1,1.9607583E0,1.9015895E0,1.9166312E0,-4.285152E-1,-7.97162E-2,-1.5286239E0,1.5796448E0,1.0487666E0,-8.863644E-2,6.91586E-2,2.0158272E0,4.2881337E-1,1.00308E0,4.6229854E-2,6.142482E-3,4.0886775E-3,-6.674009E-2,3.5562034E-4,-8.003221E-3,3.1997755E-2,-8.896332E-2,6.2117774E-2,-4.845296E-2,9.9893315E-3,4.6991643E-2,-6.690766E-2,6.862572E-3,-8.913728E-2,-1.486283E-2,-7.243373E-2,2.3689559E-2,-3.3252392E-2,-7.97266E-2,-1.2594032E-2,-4.161388E-2,5.030449E-2,6.204002E-3,3.1740535E-2,1.2120263E-3,-9.7356355E-3,7.0560135E-2,1.0656136E-2,-6.612819E-2,-2.3319876E-2,-7.209679E-2,6.0207136E-2,-5.0136793E-2],"split_indices":[11,5,11,10,5,12,10,3,3,13,3,3,5,3,5,0,2,5,0,5,11,10,13,0,6,10,10,0,6,0,8,11,10,0,0,6,2,0,13,10,5,12,0,3,0,0,10,10,0,0,3,0,8,0,0,0,0,0,0,0,0,0,0,0,0,0,0,0,0,0,0,0,0,0,0,0,0,0,0,0,0,0,0,0,0,0,0],"split_type":[0,0,0,0,0,0,0,0,0,0,0,0,0,0,0,0,0,0,0,0,0,0,0,0,0,0,0,0,0,0,0,0,0,0,0,0,0,0,0,0,0,0,0,0,0,0,0,0,0,0,0,0,0,0,0,0,0,0,0,0,0,0,0,0,0,0,0,0,0,0,0,0,0,0,0,0,0,0,0,0,0,0,0,0,0,0,0],"sum_hessian":[6.183491E3,4.8088804E3,1.3746105E3,1.2119989E2,4.6876807E3,1.3224858E3,5.212467E1,1.1345196E2,7.747933E0,4.549009E3,1.386716E2,1.2742979E1,1.3097429E3,3.9410397E1,1.2714273E1,1.8945255E1,9.45067E1,3.4988742E0,4.2490587E0,4.232211E3,3.1679825E2,5.5460316E1,8.321128E1,1.7487614E0,1.0994218E1,1.290751E3,1.8991905E1,3.0682041E1,8.7283535E0,2.9888666E0,9.725407E0,9.051692E1,3.9897766E0,1.4994675E0,1.9994068E0,4.213473E3,1.8737728E1,2.9482683E1,2.8731558E2,3.9965073E1,1.5495244E1,1.4732208E1,6.847907E1,2.7480538E0,8.246164E0,1.0450199E3,2.4573102E2,7.9935594E0,1.0998345E1,2.7398684E0,5.988485E0,5.237551E0,4.487855E0,7.67811E1,1.3735825E1,2.2436888E0,1.7460879E0,2.058053E3,2.1554202E3,1.2492663E0,1.7488462E1,1.7489728E0,2.7733711E1,2.2910063E2,5.8214943E1,6.499405E0,3.3465668E1,7.7476163E0,7.747628E0,6.24758E0,8.484629E0,3.0738329E1,3.774074E1,1.2491153E0,1.4989383E0,2.5481953E1,1.019538E3,1.9154427E2,5.418675E1,5.493935E0,2.499624E0,4.241118E0,1.7473671E0,1.4952936E0,3.7422578E0,1.7444496E0,2.7434056E0],"tree_param":{"num_deleted":"0","num_feature":"14","num_nodes":"87","size_leaf_vector":"1"}},{"base_weights":[3.1976646E-3,-9.609569E-2,1.3662161E-1,5.1247247E-2,-2.3365909E-1,1.00552775E-1,5.8709323E-1,7.5482684E-1,1.8311234E-2,-5.759154E-1,-9.982706E-2,1.3428792E-1,-4.4932213E-1,-7.005834E-2,6.227968E-1,9.569024E-1,-1.1614927E0,-2.7837075E-2,5.45757E-1,-4.0012807E-1,-1.10118E0,-6.4018644E-2,-1.2715397E0,7.9333454E-2,3.59627E-1,-1.4947213E0,-3.3159098E-1,8.2480244E-2,5.637589E-1,6.178585E-1,1.482309E0,-3.237102E-5,-7.828274E-2,-1.7758928E-1,4.0201426E-2,7.1774024E-1,-1.2266608E0,-6.089641E-1,1.8637897E-1,-5.5408156E-1,-1.5345217E0,6.400354E-1,-1.0688874E-1,-9.248601E-1,-8.075743E-2,1.9837256E-1,-8.136775E-2,2.8101638E-1,1.2781426E0,-8.315463E-2,-2.6691346E-3,-6.740848E-2,-9.3420494E-1,7.111835E-1,3.5048777E-3,4.4799935E-2,-2.8514503E-2,7.898282E-2,-4.67444E-3,1.8985875E-2,-1.9337159E-2,-2.9510131E-2,3.9036546E-3,-4.4121468E-4,4.650741E-2,-8.2965225E-2,3.121527E-2,-4.2255703E-4,-4.209843E-2,-5.7843328E-2,3.8674913E-2,1.1731404E-2,-5.8233667E-2,-8.0214635E-2,-2.5564147E-2,8.484632E-2,2.2095995E-2,-1.283821E-2,3.4752984E-3,-5.47538E-2,5.2043058E-2,-7.1864068E-3,1.595765E-2,-2.870351E-2,2.6053505E-3,1.9424858E-2,-1.6097486E-2,7.497791E-2,2.0218736E-2,6.0289364E-2,-1.2966186E-2,3.579018E-2,-5.6506395E-2,3.0568982E-2,7.4774146E-2,-1.8796228E-2,3.0492324E-2],"categories":[],"categories_nodes":[],"categories_segments":[],"categories_sizes":[],"default_left":[0,0,0,0,0,0,0,0,0,0,0,0,0,0,0,0,0,0,0,0,0,0,0,0,0,0,0,0,0,0,0,0,0,0,0,0,0,0,0,0,0,0,0,0,0,0,0,0,0,0,0,0,0,0,0,0,0,0,0,0,0,0,0,0,0,0,0,0,0,0,0,0,0,0,0,0,0,0,0,0,0,0,0,0,0,0,0,0,0,0,0,0,0,0,0,0,0],"id":2,"left_children":[1,3,5,7,9,11,13,15,17,19,21,23,25,-1,27,29,31,33,35,37,39,41,43,45,47,49,51,-1,53,55,57,-1,-1,59,61,63,65,67,69,71,73,75,77,79,-1,81,83,85,87,-1,-1,89,91,93,95,-1,-1,-1,-1,-1,-1,-1,-1,-1,-1,-1,-1,-1,-1,-1,-1,-1,-1,-1,-1,-1,-1,-1,-1,-1,-1,-1,-1,-1,-1,-1,-1,-1,-1,-1,-1,-1,-1,-1,-1,-1,-1],"loss_changes":[8.167894E1,7.165861E1,4.268206E1,3.9555378E1,8.3684845E1,4.5262188E1,1.4701408E1,3.0671291E1,3.9744473E1,4.6993927E1,5.511404E1,2.8411892E1,1.6868446E1,0E0,1.0712822E1,1.1482609E1,3.6272259E0,1.5309323E1,4.092474E1,4.7450867E1,2.9553955E1,3.8628853E1,3.1469727E0,3.536132E1,3.213317E1,3.3076096E0,2.032878E1,0E0,1.5123756E1,1.5057625E1,4.2255554E0,0E0,0E0,5.485751E1,2.4719852E1,1.8586079E1,1.0636541E1,3.990342E1,8.152965E1,2.832402E1,4.2483826E0,1.4633587E1,3.187713E1,8.411339E0,0E0,4.39146E1,5.178243E1,2.7072311E1,6.202648E0,0E0,0E0,2.2334993E1,1.3404114E1,1.0434212E1,9.23771E0,0E0,0E0,0E0,0E0,0E0,0E0,0E0,0E0,0E0,0E0,0E0,0E0,0E0,0E0,0E0,0E0,0E0,0E0,0E0,0E0,0E0,0E0,0E0,0E0,0E0,0E0,0E0,0E0,0E0,0E0,0E0,0E0,0E0,0E0,0E0,0E0,0E0,0E0,0E0,0E0,0E0,0E0],"parents":[2147483647,0,0,1,1,2,2,3,3,4,4,5,5,6,6,7,7,8,8,9,9,10,10,11,11,12,12,14,14,15,15,16,16,17,17,18,18,19,19,20,20,21,21,22,22,23,23,24,24,25,25,26,26,28,28,29,29,30,30,33,33,34,34,35,35,36,36,37,37,38,38,39,39,40,40,41,41,42,42,43,43,45,45,46,46,47,47,48,48,51,51,52,52,53,53,54,54],"right_children":[2,4,6,8,10,12,14,16,18,20,22,24,26,-1,28,30,32,34,36,38,40,42,44,46,48,50,52,-1,54,56,58,-1,-1,60,62,64,66,68,70,72,74,76,78,80,-1,82,84,86,88,-1,-1,90,92,94,96,-1,-1,-1,-1,-1,-1,-1,-1,-1,-1,-1,-1,-1,-1,-1,-1,-1,-1,-1,-1,-1,-1,-1,-1,-1,-1,-1,-1,-1,-1,-1,-1,-1,-1,-1,-1,-1,-1,-1,-1,-1,-1],"split_conditions":[1.9899659E-1,-3.1293967E-1,1.8376706E0,-1.8223711E0,-2.7607452E-2,1.8769103E0,-1.685846E0,8.2075435E-1,-2.487994E-1,-1.4577492E-1,1.8465458E0,6.629066E-1,1.7661146E0,-7.005834E-2,-8.0277026E-1,-4.8253518E-1,-5.8583593E-1,-8.794126E-1,1.122572E0,-1.4749211E-1,-1.4548053E-1,-1.17035784E-1,1.9166312E0,-5.0089645E-1,1.5538825E0,1.0495129E0,4.497239E-1,8.2480244E-2,1.3529623E0,-5.898643E-1,1.1567664E0,-3.237102E-5,-7.828274E-2,-1.4595115E0,-1.685846E0,-3.6576328E-1,-1.2951131E0,-7.675448E-1,-1.454784E0,-8.934219E-1,3.032071E-1,1.7025765E-2,1.1105372E0,-6.342194E-2,-8.075743E-2,-1.1290728E0,-3.738396E-1,1.6311104E0,1.8543967E0,-8.315463E-2,-2.6691346E-3,1.8856554E0,1.7172792E0,1.4432386E0,1.1708935E0,4.4799935E-2,-2.8514503E-2,7.898282E-2,-4.67444E-3,1.8985875E-2,-1.9337159E-2,-2.9510131E-2,3.9036546E-3,-4.4121468E-4,4.650741E-2,-8.2965225E-2,3.121527E-2,-4.2255703E-4,-4.209843E-2,-5.7843328E-2,3.8674913E-2,1.1731404E-2,-5.8233667E-2,-8.0214635E-2,-2.5564147E-2,8.484632E-2,2.2095995E-2,-1.283821E-2,3.4752984E-3,-5.47538E-2,5.2043058E-2,-7.1864068E-3,1.595765E-2,-2.870351E-2,2.6053505E-3,1.9424858E-2,-1.6097486E-2,7.497791E-2,2.0218736E-2,6.0289364E-2,-1.2966186E-2,3.579018E-2,-5.6506395E-2,3.0568982E-2,7.4774146E-2,-1.8796228E-2,3.0492324E-2],"split_indices":[11,0,11,5,13,0,0,10,12,0,5,10,12,0,5,11,3,10,3,13,13,0,0,10,13,3,3,0,3,11,3,0,0,0,0,5,11,10,11,10,10,13,13,11,0,10,10,10,0,0,0,5,13,10,0,0,0,0,0,0,0,0,0,0,0,0,0,0,0,0,0,0,0,0,0,0,0,0,0,0,0,0,0,0,0,0,0,0,0,0,0,0,0,0,0,0,0],"split_type":[0,0,0,0,0,0,0,0,0,0,0,0,0,0,0,0,0,0,0,0,0,0,0,0,0,0,0,0,0,0,0,0,0,0,0,0,0,0,0,0,0,0,0,0,0,0,0,0,0,0,0,0,0,0,0,0,0,0,0,0,0,0,0,0,0,0,0,0,0,0,0,0,0,0,0,0,0,0,0,0,0,0,0,0,0,0,0,0,0,0,0,0,0,0,0,0,0],"sum_hessian":[6.1633364E3,3.5337898E3,2.6295466E3,1.7065483E3,1.8272413E3,2.4357424E3,1.9380438E2,7.5334465E1,1.6312139E3,5.127228E2,1.3145186E3,2.2956582E3,1.4008421E2,2.7441425E0,1.9106024E2,6.860114E1,6.733321E0,1.5008462E3,1.3036772E2,3.8547858E2,1.2724419E2,1.2765605E3,3.795801E1,1.8466573E3,4.4900073E2,1.2995349E1,1.2708886E2,8.923208E0,1.8213704E2,4.30178E1,2.5583342E1,1.9975388E0,4.7357826E0,4.6836606E2,1.0324801E3,1.1937906E2,1.0988671E1,2.842339E2,1.0124471E2,5.7247387E1,6.99968E1,7.246935E1,1.2040912E3,2.0732176E1,1.7225836E1,1.0607067E3,7.8595074E2,4.1480576E2,3.4194977E1,1.149831E1,1.4970386E0,8.912766E1,3.7961197E1,1.4398071E2,3.815632E1,3.5057E1,7.9607983E0,2.4092539E1,1.4908024E0,1.2758647E2,3.4077957E2,5.7684883E1,9.747952E2,2.7221935E1,9.215712E1,8.990731E0,1.9979402E0,7.974544E1,2.0448845E2,3.0498367E1,7.0746346E1,2.5248848E1,3.1998539E1,6.499703E1,4.9997716E0,1.0245759E1,6.2223595E1,6.507335E2,5.5335767E2,1.9487617E1,1.2445589E0,2.7672256E2,7.839841E2,1.6682816E2,6.191226E2,3.5235327E2,6.2452488E1,2.6710302E1,7.484674E0,1.0982843E1,7.814482E1,3.747479E0,3.421372E1,1.2930579E2,1.467493E1,2.3703457E1,1.4452864E1],"tree_param":{"num_deleted":"0","num_feature":"14","num_nodes":"97","size_leaf_vector":"1"}},{"base_weights":[-4.583002E-3,-5.9609257E-2,2.0051488E-1,6.860795E-1,-7.85922E-2,-1.5808918E-1,2.6611266E-1,8.054961E-1,-1.0495727E0,-6.566169E-2,-8.165914E-1,3.2441178E-1,-5.7075435E-1,1.967416E-1,5.928906E-1,7.960599E-2,6.5249604E-1,-1.3029282E0,1.0059043E-2,-1.6697714E-1,3.049755E-3,2.1691683E-1,-1.0337015E0,-6.28458E-2,8.8458055E-1,-3.8697562E-1,-8.625156E-2,2.4780941E-1,-4.784422E-1,7.750786E-2,5.2597517E-1,2.8694752E-1,9.481051E-1,-2.4808733E-2,-7.389718E-2,-2.504625E-2,-3.3715555E-1,5.1060908E-2,-1.6586712E-1,-5.5886418E-2,6.0692936E-1,-7.4592274E-1,-1.5984291E0,1.0049498E0,-3.3570376E-1,-4.257771E-1,1.0705861E0,-1.401645E0,-1.1763294E-1,1.7066208E-1,5.806857E-1,-1.484404E0,-2.1445514E-1,6.608333E-1,-4.4319164E-2,2.9184122E-2,-3.542321E-2,6.0568023E-2,9.045562E-3,-2.318885E-2,4.575552E-3,-4.4607844E-2,-8.226638E-3,-2.4387248E-2,3.5149218E-3,-3.3951577E-2,-4.8704096E-3,-2.8470648E-2,5.4745592E-2,-4.48589E-2,4.3490108E-2,-8.360842E-2,-1.0489566E-2,-3.616152E-3,6.909778E-2,-4.079112E-2,3.394373E-2,-7.41947E-2,4.753346E-2,3.1254098E-2,7.965653E-2,3.185337E-2,-7.858369E-2,-6.584125E-2,3.8258315E-3,5.9748936E-2,6.781E-3,4.2498834E-2,-1.700072E-2,-2.588936E-3,-8.31488E-2,-2.9682223E-2,4.5894776E-2,2.4252541E-2,5.701812E-2,2.4367532E-2,-4.163552E-2],"categories":[],"categories_nodes":[],"categories_segments":[],"categories_sizes":[],"default_left":[0,0,0,0,0,0,0,0,0,0,0,0,0,0,0,0,0,0,0,0,0,0,0,0,0,0,0,0,0,0,0,0,0,0,0,0,0,0,0,0,0,0,0,0,0,0,0,0,0,0,0,0,0,0,0,0,0,0,0,0,0,0,0,0,0,0,0,0,0,0,0,0,0,0,0,0,0,0,0,0,0,0,0,0,0,0,0,0,0,0,0,0,0,0,0,0,0],"id":3,"left_children":[1,3,5,7,9,11,13,15,17,19,21,23,25,27,29,-1,31,33,-1,35,37,39,41,43,45,47,-1,49,51,-1,53,55,57,-1,-1,59,61,63,65,-1,67,69,71,73,75,77,79,81,83,85,87,89,91,93,95,-1,-1,-1,-1,-1,-1,-1,-1,-1,-1,-1,-1,-1,-1,-1,-1,-1,-1,-1,-1,-1,-1,-1,-1,-1,-1,-1,-1,-1,-1,-1,-1,-1,-1,-1,-1,-1,-1,-1,-1,-1,-1],"loss_changes":[6.9564476E1,6.884821E1,3.0714745E1,2.5872898E1,4.518065E1,4.0457703E1,2.4879211E1,1.2626488E1,2.8629007E0,3.2438847E1,1.85196E1,2.042065E1,2.2535988E1,3.153191E1,1.1521309E1,0E0,1.0182629E1,2.4919891E-1,0E0,4.5474743E1,2.2534292E1,8.476578E0,9.786385E0,1.6781445E1,9.824694E0,2.5975258E1,0E0,2.166904E1,1.678482E1,0E0,1.3989967E1,1.3614188E1,1.0496845E1,0E0,0E0,5.2603184E1,8.1886696E1,2.2460602E1,2.1538391E1,0E0,7.6505213E0,1.2174917E1,1.8946838E0,4.8669357E0,2.2816286E1,9.411816E0,6.9064903E0,7.924431E0,1.7952728E1,2.4589838E1,3.9728806E1,3.2956448E0,2.2951847E1,1.1826927E1,1.5350157E1,0E0,0E0,0E0,0E0,0E0,0E0,0E0,0E0,0E0,0E0,0E0,0E0,0E0,0E0,0E0,0E0,0E0,0E0,0E0,0E0,0E0,0E0,0E0,0E0,0E0,0E0,0E0,0E0,0E0,0E0,0E0,0E0,0E0,0E0,0E0,0E0,0E0,0E0,0E0,0E0,0E0,0E0],"parents":[2147483647,0,0,1,1,2,2,3,3,4,4,5,5,6,6,7,7,8,8,9,9,10,10,11,11,12,12,13,13,14,14,16,16,17,17,19,19,20,20,21,21,22,22,23,23,24,24,25,25,27,27,28,28,30,30,31,31,32,32,35,35,36,36,37,37,38,38,40,40,41,41,42,42,43,43,44,44,45,45,46,46,47,47,48,48,49,49,50,50,51,51,52,52,53,53,54,54],"right_children":[2,4,6,8,10,12,14,16,18,20,22,24,26,28,30,-1,32,34,-1,36,38,40,42,44,46,48,-1,50,52,-1,54,56,58,-1,-1,60,62,64,66,-1,68,70,72,74,76,78,80,82,84,86,88,90,92,94,96,-1,-1,-1,-1,-1,-1,-1,-1,-1,-1,-1,-1,-1,-1,-1,-1,-1,-1,-1,-1,-1,-1,-1,-1,-1,-1,-1,-1,-1,-1,-1,-1,-1,-1,-1,-1,-1,-1,-1,-1,-1,-1],"split_conditions":[8.416307E-1,-1.8088044E0,-8.934219E-1,8.2075435E-1,1.9166312E0,1.0326545E0,1.8376706E0,-6.0811293E-1,1.0136696E0,-4.7143006E-1,-9.8992544E-1,-1.1290728E0,-4.917989E-2,1.8769103E0,-7.198955E-1,7.960599E-2,-4.434823E-1,-5.8583593E-1,1.0059043E-2,-3.0499047E-1,8.230892E-1,-1.00746386E-1,4.3796742E-1,-1.3438131E0,8.649992E-1,-1.2612746E0,-8.625156E-2,7.748039E-1,1.7661146E0,7.750786E-2,1.3529623E0,-5.898643E-1,3.8240737E-1,-2.4808733E-2,-7.389718E-2,-9.097022E-1,-1.5432145E-1,-1.7667465E0,-3.1181955E-1,-5.5886418E-2,1.9376827E0,7.372629E-1,1.8246326E0,-1.7290477E0,-3.3489117E-1,-4.053883E-1,-1.041655E0,-1.7669044E0,1.078224E0,-1.5286239E0,1.5796448E0,1.8422377E0,1.164144E0,2.1623464E0,2.021086E0,2.9184122E-2,-3.542321E-2,6.0568023E-2,9.045562E-3,-2.318885E-2,4.575552E-3,-4.4607844E-2,-8.226638E-3,-2.4387248E-2,3.5149218E-3,-3.3951577E-2,-4.8704096E-3,-2.8470648E-2,5.4745592E-2,-4.48589E-2,4.3490108E-2,-8.360842E-2,-1.0489566E-2,-3.616152E-3,6.909778E-2,-4.079112E-2,3.394373E-2,-7.41947E-2,4.753346E-2,3.1254098E-2,7.965653E-2,3.185337E-2,-7.858369E-2,-6.584125E-2,3.8258315E-3,5.9748936E-2,6.781E-3,4.2498834E-2,-1.700072E-2,-2.588936E-3,-8.31488E-2,-2.9682223E-2,4.5894776E-2,2.4252541E-2,5.701812E-2,2.4367532E-2,-4.163552E-2],"split_indices":[11,5,10,10,0,11,11,3,10,11,3,10,2,0,0,0,11,3,0,0,3,11,3,10,11,4,0,10,12,0,3,11,11,0,0,10,10,12,11,0,12,11,9,5,2,4,10,0,11,0,10,2,10,11,11,0,0,0,0,0,0,0,0,0,0,0,0,0,0,0,0,0,0,0,0,0,0,0,0,0,0,0,0,0,0,0,0,0,0,0,0,0,0,0,0,0,0],"split_type":[0,0,0,0,0,0,0,0,0,0,0,0,0,0,0,0,0,0,0,0,0,0,0,0,0,0,0,0,0,0,0,0,0,0,0,0,0,0,0,0,0,0,0,0,0,0,0,0,0,0,0,0,0,0,0,0,0,0,0,0,0,0,0,0,0,0,0,0,0,0,0,0,0,0,0,0,0,0,0,0,0,0,0,0,0,0,0,0,0,0,0,0,0,0,0,0,0],"sum_hessian":[6.161852E3,4.858943E3,1.3029092E3,1.1975068E2,4.739192E3,2.0126141E2,1.1016478E3,1.12543365E2,7.2073126E0,4.6586562E3,8.0535545E1,9.2878654E1,1.0838275E2,9.1005585E2,1.9159196E2,1.6793976E1,9.574939E1,5.9586086E0,1.2487038E0,1.8820833E3,2.7765732E3,1.3981308E1,6.655424E1,5.5439713E1,3.7438942E1,9.46485E1,1.3734254E1,8.466519E2,6.34039E1,1.1069535E1,1.8052243E2,4.3691463E1,5.205793E1,1.7458673E0,4.2127414E0,1.0268364E3,8.552469E2,2.1625972E3,6.1397614E2,2.7397723E0,1.1241536E1,4.5625065E1,2.0929169E1,1.0737357E1,4.470236E1,4.4936132E0,3.294533E1,1.8972235E1,7.567626E1,6.885796E2,1.5807236E2,1.221891E1,5.118499E1,1.458697E2,3.465273E1,3.3976578E1,9.714883E0,3.832732E1,1.3730609E1,2.1491196E2,8.1192444E2,2.0191138E2,6.533355E2,7.371202E1,2.088885E3,7.121717E1,5.427589E2,3.247108E0,7.994428E0,4.2126167E1,3.4988964E0,1.9679947E1,1.2492218E0,2.99305E0,7.7443066E0,3.0476276E1,1.422608E1,2.4964519E0,1.9971615E0,1.8969116E1,1.3976213E1,1.2490321E0,1.7723204E1,9.739059E0,6.59372E1,2.168229E1,6.668973E2,1.2236055E2,3.571181E1,1.4972135E0,1.0721697E1,3.870097E1,1.248402E1,1.0821317E2,3.765653E1,2.0923994E1,1.3728737E1],"tree_param":{"num_deleted":"0","num_feature":"14","num_nodes":"97","size_leaf_vector":"1"}},{"base_weights":[-6.8601253E-3,6.699369E-1,-1.9807477E-2,7.966189E-1,-1.2168919E0,-6.679899E-3,-4.8514086E-1,7.461386E-2,6.441615E-1,-6.819664E-2,-1.8214544E-2,-6.100135E-1,1.1308893E-3,-1.1496224E0,-3.432119E-1,7.2164696E-1,-8.38115E-1,-3.0754367E-2,-1.2843715E0,3.8497862E-1,-1.4034257E-2,3.12293E-2,-1.2869788E0,7.78518E-2,-4.2216656E-1,9.8129064E-1,5.005531E-1,-2.3361042E-3,-6.746166E-2,2.2624676E-1,-1.1348684E0,-6.5753967E-1,-1.4188153E0,-5.3425606E-2,1.0094105E0,-9.36899E-2,5.2980457E-2,-7.711488E-2,-8.496167E-1,3.0392002E-2,-6.5491045E-1,6.5650105E-2,1.6807303E-2,3.8613737E-2,-7.955589E-2,-4.8860563E-3,5.6044247E-2,-7.7409975E-2,1.969347E-2,-6.652672E-2,3.6789235E-2,-3.6813762E-2,-8.232554E-2,2.135614E-2,-2.061349E-2,-7.5461134E-2,6.1023016E-2,-4.038456E-3,-6.396082E-2,3.705728E-2,1.7664979E-3,-5.531409E-2,1.5348047E-2,-4.9171727E-2,1.4120439E-2,-4.7130346E-2,-1.30724525E-2],"categories":[],"categories_nodes":[],"categories_segments":[],"categories_sizes":[],"default_left":[0,0,0,0,0,0,0,0,0,0,0,0,0,0,0,0,0,0,0,0,0,0,0,0,0,0,0,0,0,0,0,0,0,0,0,0,0,0,0,0,0,0,0,0,0,0,0,0,0,0,0,0,0,0,0,0,0,0,0,0,0,0,0,0,0,0,0],"id":4,"left_children":[1,3,5,7,9,11,13,-1,15,-1,-1,17,19,21,23,25,27,29,31,33,35,-1,37,-1,39,41,43,-1,-1,45,47,49,51,53,55,57,59,-1,61,63,65,-1,-1,-1,-1,-1,-1,-1,-1,-1,-1,-1,-1,-1,-1,-1,-1,-1,-1,-1,-1,-1,-1,-1,-1,-1,-1],"loss_changes":[5.4032356E1,2.8635998E1,3.6953754E1,1.0606361E1,4.6569347E-1,2.7733427E1,1.5258648E1,0E0,1.1082115E1,0E0,0E0,2.9341427E1,3.3830128E1,7.819084E0,2.1390594E1,4.5161705E0,1.9571602E0,1.20284E1,1.9938889E0,6.0520775E1,2.9849333E1,0E0,1.7096558E0,0E0,1.4077795E1,7.9208183E0,2.9164644E1,0E0,0E0,1.0104601E1,5.6642942E0,8.477906E0,3.0976982E0,2.271776E1,5.0298798E1,3.9031666E1,3.6862312E1,0E0,3.9597578E0,1.2103173E1,9.7354965E0,0E0,0E0,0E0,0E0,0E0,0E0,0E0,0E0,0E0,0E0,0E0,0E0,0E0,0E0,0E0,0E0,0E0,0E0,0E0,0E0,0E0,0E0,0E0,0E0,0E0,0E0],"parents":[2147483647,0,0,1,1,2,2,3,3,4,4,5,5,6,6,8,8,11,11,12,12,13,13,14,14,15,15,16,16,17,17,18,18,19,19,20,20,22,22,24,24,25,25,26,26,29,29,30,30,31,31,32,32,33,33,34,34,35,35,36,36,38,38,39,39,40,40],"right_children":[2,4,6,8,10,12,14,-1,16,-1,-1,18,20,22,24,26,28,30,32,34,36,-1,38,-1,40,42,44,-1,-1,46,48,50,52,54,56,58,60,-1,62,64,66,-1,-1,-1,-1,-1,-1,-1,-1,-1,-1,-1,-1,-1,-1,-1,-1,-1,-1,-1,-1,-1,-1,-1,-1,-1,-1],"split_conditions":[-1.8088044E0,8.2075435E-1,1.8856554E0,-6.0811293E-1,5.759799E-1,-1.7656336E0,9.796367E-2,7.461386E-2,-1.8014487E0,-6.819664E-2,-1.8214544E-2,-1.7877065E0,-1.4697756E0,1.8769103E0,1.7284699E-1,-1.8329822E0,-1.2369591E0,-2.3598821E-1,-1.7979771E0,-1.6902429E0,-2.9164195E-1,3.12293E-2,-4.6523683E-2,7.78518E-2,1.8156028E0,6.782195E-1,-5.2487445E-1,-2.3361042E-3,-6.746166E-2,-8.934219E-1,4.4062614E-1,-1.7841961E0,-2.1817282E-1,-1.8194757E0,-1.5286239E0,1.4446728E0,-2.465763E-1,-7.711488E-2,2.0209794E0,1.717813E0,2.1010904E0,6.5650105E-2,1.6807303E-2,3.8613737E-2,-7.955589E-2,-4.8860563E-3,5.6044247E-2,-7.7409975E-2,1.969347E-2,-6.652672E-2,3.6789235E-2,-3.6813762E-2,-8.232554E-2,2.135614E-2,-2.061349E-2,-7.5461134E-2,6.1023016E-2,-4.038456E-3,-6.396082E-2,3.705728E-2,1.7664979E-3,-5.531409E-2,1.5348047E-2,-4.9171727E-2,1.4120439E-2,-4.7130346E-2,-1.30724525E-2],"split_indices":[5,10,5,3,8,5,10,0,2,0,0,2,0,0,10,6,10,10,6,13,10,0,10,0,13,3,10,0,0,10,7,5,7,13,0,5,10,0,2,12,4,0,0,0,0,0,0,0,0,0,0,0,0,0,0,0,0,0,0,0,0,0,0,0,0,0,0],"split_type":[0,0,0,0,0,0,0,0,0,0,0,0,0,0,0,0,0,0,0,0,0,0,0,0,0,0,0,0,0,0,0,0,0,0,0,0,0,0,0,0,0,0,0,0,0,0,0,0,0,0,0,0,0,0,0,0,0,0,0,0,0,0,0,0,0,0,0],"sum_hessian":[6.163641E3,1.1474663E2,6.0488945E3,1.0806868E2,6.6779475E0,5.883917E3,1.6497757E2,1.7846676E1,9.022201E1,5.1841497E0,1.4937979E0,7.421459E1,5.8097026E3,2.7786592E1,1.3719098E2,8.622764E1,3.9943678E0,4.0484707E1,3.372989E1,2.1988055E2,5.589822E3,1.7417321E0,2.604486E1,4.7260375E0,1.3246494E2,3.807526E1,4.8152378E1,1.9957105E0,1.9986575E0,3.348548E1,6.9992228E0,6.997142E0,2.6732746E1,1.2972032E2,9.016024E1,2.553847E3,3.035975E3,1.4849691E1,1.11951685E1,4.52833E1,8.718164E1,2.4462345E1,1.3612916E1,4.3174515E1,4.9778647E0,2.5237284E1,8.2481985E0,5.499555E0,1.4996678E0,4.748578E0,2.2485635E0,7.746234E0,1.8986511E1,5.5374687E1,7.434563E1,6.495305E0,8.366494E1,2.5273696E3,2.6477116E1,7.48963E1,2.9610789E3,9.197556E0,1.9976131E0,8.437642E0,3.6845654E1,4.9553066E1,3.762857E1],"tree_param":{"num_deleted":"0","num_feature":"14","num_nodes":"67","size_leaf_vector":"1"}},{"base_weights":[5.8226864E-4,-3.6469396E-2,3.253044E-1,3.6006176E-1,-6.4284414E-2,-7.8655265E-2,3.4506974E-1,1.00344375E-1,1.0559549E0,-4.985647E-2,-7.6116043E-1,3.6573943E-1,-1.4718376E0,6.087693E-1,-3.0216968E-1,2.5882706E-1,1.2012836E0,-1.4399901E-1,5.3739764E-2,-1.3242561E0,-5.251158E-1,3.0986008E-1,9.415002E-1,-1.1864046E-2,-8.447381E-2,7.457037E-1,-1.1567227E0,3.6946226E-2,-1.0012395E0,1.1315194E0,-3.837045E-1,7.6437384E-1,8.4011674E-2,-4.3844283E-1,-9.361804E-2,-1.2974986E-1,1.345285E-1,1.6591348E-1,-1.5087585E0,7.0680186E-2,-6.309458E-1,6.9450945E-1,2.3092498E-1,1.2594771E0,-2.391986E-1,7.221761E-2,2.9713247E-2,-6.851768E-2,-9.134649E-3,-1.8573588E-2,2.571926E-2,5.4395437E-2,-5.9343975E-2,6.4668916E-2,9.847208E-3,4.6120645E-3,-6.1655235E-2,5.502937E-2,-8.746329E-2,-5.3723972E-2,-1.6123187E-2,5.192232E-3,-1.1564243E-2,2.2895762E-3,-3.5665255E-2,5.1253375E-2,4.5141717E-3,5.1265985E-2,-5.277125E-2,-2.7240483E-2,-7.968837E-2,1.5698684E-2,-3.807171E-2,5.6479145E-2,1.590786E-2,1.3275591E-2,-5.9091564E-2,7.654982E-2,1.3020083E-2,-3.788323E-2,5.3290654E-2],"categories":[],"categories_nodes":[],"categories_segments":[],"categories_sizes":[],"default_left":[0,0,0,0,0,0,0,0,0,0,0,0,0,0,0,0,0,0,0,0,0,0,0,0,0,0,0,0,0,0,0,0,0,0,0,0,0,0,0,0,0,0,0,0,0,0,0,0,0,0,0,0,0,0,0,0,0,0,0,0,0,0,0,0,0,0,0,0,0,0,0,0,0,0,0,0,0,0,0,0,0],"id":5,"left_children":[1,3,5,7,9,-1,11,13,15,17,19,21,23,25,27,29,31,33,35,37,39,41,43,-1,-1,45,47,49,51,53,55,57,-1,59,61,63,65,67,69,-1,71,73,75,77,79,-1,-1,-1,-1,-1,-1,-1,-1,-1,-1,-1,-1,-1,-1,-1,-1,-1,-1,-1,-1,-1,-1,-1,-1,-1,-1,-1,-1,-1,-1,-1,-1,-1,-1,-1,-1],"loss_changes":[7.4296486E1,6.1156918E1,2.4273697E1,6.55854E1,5.2047043E1,0E0,2.40756E1,5.4577007E1,1.1120529E1,4.951563E1,1.3261494E1,1.9671509E1,1.5467939E0,2.93354E1,3.5362953E1,9.681236E0,1.6123306E1,3.941468E1,3.5854477E1,8.597153E0,1.6412716E1,1.7057842E1,2.072596E1,0E0,0E0,1.0769943E1,1.5951881E0,1.9944746E1,2.018229E1,8.4141636E-1,4.255384E0,4.0240913E1,0E0,2.8299751E1,6.1797535E1,7.578904E1,6.60627E1,5.5384583E0,1.3534622E0,0E0,9.168852E0,1.5369766E1,2.33785E1,1.1271187E1,9.186007E0,0E0,0E0,0E0,0E0,0E0,0E0,0E0,0E0,0E0,0E0,0E0,0E0,0E0,0E0,0E0,0E0,0E0,0E0,0E0,0E0,0E0,0E0,0E0,0E0,0E0,0E0,0E0,0E0,0E0,0E0,0E0,0E0,0E0,0E0,0E0,0E0],"parents":[2147483647,0,0,1,1,2,2,3,3,4,4,6,6,7,7,8,8,9,9,10,10,11,11,12,12,13,13,14,14,15,15,16,16,17,17,18,18,19,19,20,20,21,21,22,22,25,25,26,26,27,27,28,28,29,29,30,30,31,31,33,33,34,34,35,35,36,36,37,37,38,38,40,40,41,41,42,42,43,43,44,44],"right_children":[2,4,6,8,10,-1,12,14,16,18,20,22,24,26,28,30,32,34,36,38,40,42,44,-1,-1,46,48,50,52,54,56,58,-1,60,62,64,66,68,70,-1,72,74,76,78,80,-1,-1,-1,-1,-1,-1,-1,-1,-1,-1,-1,-1,-1,-1,-1,-1,-1,-1,-1,-1,-1,-1,-1,-1,-1,-1,-1,-1,-1,-1,-1,-1,-1,-1,-1,-1],"split_conditions":[1.3058163E0,-1.4697756E0,-1.685846E0,-1.5286239E0,1.9166312E0,-7.8655265E-2,1.7755388E0,-1.8088044E0,-1.6902429E0,-7.057942E-2,3.6201322E-1,2.1623464E0,-1.7990946E0,8.2075435E-1,-1.8194757E0,-1.7412236E-1,-1.0246078E0,-8.794126E-1,-3.9397207E-1,1.8156028E0,3.6954E-1,1.3878096E0,3.480368E-1,-1.1864046E-2,-8.447381E-2,-6.0811293E-1,1.0136696E0,-8.934219E-1,-1.8550103E0,-1.4751495E0,-1.4920295E0,-1.4957438E0,8.4011674E-2,-1.5199949E0,-3.1293967E-1,-4.092781E-1,-3.2796255E-1,2.4654363E-1,-1.0393952E0,7.0680186E-2,-1.3160348E0,-4.1971013E-2,2.3759482E0,1.2087005E0,8.2851106E-1,7.221761E-2,2.9713247E-2,-6.851768E-2,-9.134649E-3,-1.8573588E-2,2.571926E-2,5.4395437E-2,-5.9343975E-2,6.4668916E-2,9.847208E-3,4.6120645E-3,-6.1655235E-2,5.502937E-2,-8.746329E-2,-5.3723972E-2,-1.6123187E-2,5.192232E-3,-1.1564243E-2,2.2895762E-3,-3.5665255E-2,5.1253375E-2,4.5141717E-3,5.1265985E-2,-5.277125E-2,-2.7240483E-2,-7.968837E-2,1.5698684E-2,-3.807171E-2,5.6479145E-2,1.590786E-2,1.3275591E-2,-5.9091564E-2,7.654982E-2,1.3020083E-2,-3.788323E-2,5.3290654E-2],"split_indices":[11,0,0,0,0,0,10,5,13,11,11,11,7,10,13,7,10,10,13,13,11,11,10,0,0,3,10,10,1,0,5,13,0,11,0,4,0,3,3,0,3,7,5,3,10,0,0,0,0,0,0,0,0,0,0,0,0,0,0,0,0,0,0,0,0,0,0,0,0,0,0,0,0,0,0,0,0,0,0,0,0],"split_type":[0,0,0,0,0,0,0,0,0,0,0,0,0,0,0,0,0,0,0,0,0,0,0,0,0,0,0,0,0,0,0,0,0,0,0,0,0,0,0,0,0,0,0,0,0,0,0,0,0,0,0,0,0,0,0,0,0,0,0,0,0,0,0,0,0,0,0,0,0,0,0,0,0,0,0,0,0,0,0,0,0],"sum_hessian":[6.17318E3,5.54174E3,6.3143976E2,3.6246667E2,5.1792734E3,5.6967106E0,6.2574304E2,2.6478812E2,9.767855E1,5.075268E3,1.04005516E2,6.194942E2,6.2488556E0,1.16774765E2,1.4801335E2,1.5491053E1,8.21875E1,2.6587515E3,2.4165166E3,2.9358717E1,7.46468E1,5.660915E2,5.3402744E1,1.2497711E0,4.9990845E0,1.089055E2,7.8692636E0,1.0030363E2,4.770973E1,6.2462735E0,9.24478E0,4.4337597E1,3.7849903E1,3.8733414E2,2.2714172E3,7.385333E2,1.6779833E3,3.2456179E0,2.6113098E1,3.2242296E0,7.142257E1,9.506122E1,4.7103024E2,4.2019615E1,1.138313E1,1.7880049E1,9.102545E1,6.1200757E0,1.749188E0,5.417898E1,4.612464E1,3.4968386E0,4.421289E1,4.9969344E0,1.2493389E0,6.4961724E0,2.748607E0,3.9602673E1,4.734927E0,5.8461765E1,3.2887238E2,9.3316943E2,1.3382479E3,5.684556E2,1.7007771E2,7.837284E1,1.5996105E3,1.9992924E0,1.2463255E0,2.716662E0,2.3396437E1,8.49569E0,6.2926876E1,4.316264E1,5.1898582E1,4.605668E2,1.046345E1,3.262161E1,9.398004E0,8.446753E0,2.9363773E0],"tree_param":{"num_deleted":"0","num_feature":"14","num_nodes":"81","size_leaf_vector":"1"}},{"base_weights":[1.6508934E-3,-5.289382E-2,1.8982524E-1,6.362061E-1,-7.0485026E-2,1.6136785E-1,8.869351E-1,7.540875E-1,-9.7816664E-1,-5.1312786E-2,-5.6598294E-1,1.7569664E-1,-7.373673E-1,1.2233223E0,-2.5996292E-1,1.4416721E0,6.1633706E-1,-2.6127565E-1,-6.813269E-2,-7.3848754E-2,2.9157236E-1,-1.2476168E0,-4.6571243E-1,1.0500666E-1,4.7986528E-1,3.990788E-1,-8.046305E-2,7.366177E-2,2.3040402E-1,-1.0945346E0,5.906957E-1,2.1934364E-2,1.4869207E0,7.825411E-1,2.6411163E-2,4.079018E-2,-5.7599295E-2,-6.760135E-2,-1.4532076E0,-7.9441684E-1,4.3E-1,3.8379416E-2,-1.4350296E0,-1.6628237E-1,-7.366815E-1,2.7397335E-1,1.4299884E-2,6.1740696E-1,1.2171869E-2,-1.1186312E-1,6.894388E-2,6.2441744E-2,-3.383742E-1,-7.826274E-2,-3.475915E-1,6.4224906E-2,-6.0721345E-2,7.6914884E-2,2.2324832E-2,2.2980073E-2,5.5170257E-2,-2.4238298E-2,3.4973025E-2,-4.70937E-3,1.0000626E-2,2.4549935E-2,-8.393114E-2,5.720019E-2,-4.640704E-2,9.136976E-3,3.514179E-2,-2.388223E-3,-7.717446E-2,-1.4499636E-2,6.8176776E-2,-8.485254E-3,-5.015512E-2,-7.353961E-3,1.8939769E-2,6.0919723E-3,-8.861714E-3,3.9609637E-2,1.1366036E-2,7.3117144E-2,-6.497728E-3,-5.408786E-2,1.2786823E-2,1.4738249E-2,-4.8252244E-2,3.4358997E-2,-6.1899643E-2],"categories":[],"categories_nodes":[],"categories_segments":[],"categories_sizes":[],"default_left":[0,0,0,0,0,0,0,0,0,0,0,0,0,0,0,0,0,0,0,0,0,0,0,0,0,0,0,0,0,0,0,0,0,0,0,0,0,0,0,0,0,0,0,0,0,0,0,0,0,0,0,0,0,0,0,0,0,0,0,0,0,0,0,0,0,0,0,0,0,0,0,0,0,0,0,0,0,0,0,0,0,0,0,0,0,0,0,0,0,0,0],"id":6,"left_children":[1,3,5,7,9,11,13,15,17,19,21,23,25,27,29,31,33,35,-1,37,39,41,43,45,47,49,-1,-1,51,53,55,-1,57,59,61,-1,-1,63,65,67,69,-1,71,73,75,77,79,81,83,85,-1,-1,87,-1,89,-1,-1,-1,-1,-1,-1,-1,-1,-1,-1,-1,-1,-1,-1,-1,-1,-1,-1,-1,-1,-1,-1,-1,-1,-1,-1,-1,-1,-1,-1,-1,-1,-1,-1,-1,-1],"loss_changes":[6.342359E1,5.8117844E1,2.7404377E1,2.345063E1,4.43571E1,1.7326393E1,2.1244217E1,9.6999855E0,2.0026531E0,3.4789284E1,1.1308155E1,2.8229439E1,2.1597702E1,1.0111126E1,9.964977E0,1.606102E-1,9.282303E0,4.9926643E0,0E0,3.6290394E1,4.2086067E1,9.301487E0,1.2310791E1,1.6372272E1,1.592923E1,5.151812E0,0E0,0E0,6.0147815E0,1.9087143E0,1.051422E1,0E0,2.06913E-1,7.1597977E0,7.870541E0,0E0,0E0,2.993438E1,9.146816E0,9.290518E0,1.6530426E1,0E0,2.9675407E0,1.4416939E1,1.1936981E1,1.652629E1,1.4363887E1,1.2871475E1,1.200431E1,2.9457147E0,0E0,0E0,3.0544345E0,0E0,4.5197997E0,0E0,0E0,0E0,0E0,0E0,0E0,0E0,0E0,0E0,0E0,0E0,0E0,0E0,0E0,0E0,0E0,0E0,0E0,0E0,0E0,0E0,0E0,0E0,0E0,0E0,0E0,0E0,0E0,0E0,0E0,0E0,0E0,0E0,0E0,0E0,0E0],"parents":[2147483647,0,0,1,1,2,2,3,3,4,4,5,5,6,6,7,7,8,8,9,9,10,10,11,11,12,12,13,13,14,14,15,15,16,16,17,17,19,19,20,20,21,21,22,22,23,23,24,24,25,25,28,28,29,29,30,30,32,32,33,33,34,34,37,37,38,38,39,39,40,40,42,42,43,43,44,44,45,45,46,46,47,47,48,48,49,49,52,52,54,54],"right_children":[2,4,6,8,10,12,14,16,18,20,22,24,26,28,30,32,34,36,-1,38,40,42,44,46,48,50,-1,-1,52,54,56,-1,58,60,62,-1,-1,64,66,68,70,-1,72,74,76,78,80,82,84,86,-1,-1,88,-1,90,-1,-1,-1,-1,-1,-1,-1,-1,-1,-1,-1,-1,-1,-1,-1,-1,-1,-1,-1,-1,-1,-1,-1,-1,-1,-1,-1,-1,-1,-1,-1,-1,-1,-1,-1,-1],"split_conditions":[8.042373E-1,-1.8088044E0,2.1623464E0,8.2075435E-1,1.7368082E0,2.3759482E0,3.480368E-1,-6.0811293E-1,-5.8583593E-1,1.4605448E0,1.7333535E0,7.748039E-1,1.0625694E0,1.2087005E0,8.2075435E-1,-7.017982E-1,-1.7979771E0,-1.8450458E0,-6.813269E-2,1.5835326E0,-1.927974E0,1.6852905E0,1.8856554E0,-1.7033319E-1,1.5796448E0,1.0487666E0,-8.046305E-2,7.366177E-2,-1.0207964E0,-7.27797E-2,1.9584937E0,2.1934364E-2,-1.8014487E0,-4.8253518E-1,-1.7868428E0,4.079018E-2,-5.7599295E-2,1.164144E0,1.5182076E0,9.956673E-1,-3.2237542E-1,3.8379416E-2,1.713646E0,5.196851E-1,1.856897E0,-8.934219E-1,6.507351E-2,1.6580166E0,-3.8151324E-1,8.380257E-1,6.894388E-2,6.2441744E-2,5.29709E-1,-7.826274E-2,1.00308E0,6.4224906E-2,-6.0721345E-2,7.6914884E-2,2.2324832E-2,2.2980073E-2,5.5170257E-2,-2.4238298E-2,3.4973025E-2,-4.70937E-3,1.0000626E-2,2.4549935E-2,-8.393114E-2,5.720019E-2,-4.640704E-2,9.136976E-3,3.514179E-2,-2.388223E-3,-7.717446E-2,-1.4499636E-2,6.8176776E-2,-8.485254E-3,-5.015512E-2,-7.353961E-3,1.8939769E-2,6.0919723E-3,-8.861714E-3,3.9609637E-2,1.1366036E-2,7.3117144E-2,-6.497728E-3,-5.408786E-2,1.2786823E-2,1.4738249E-2,-4.8252244E-2,3.4358997E-2,-6.1899643E-2],"split_indices":[11,5,11,10,2,5,10,3,3,13,13,10,10,3,10,9,6,5,0,5,11,6,5,3,10,10,0,0,6,8,2,0,2,11,6,0,0,10,2,1,11,0,1,11,13,10,5,2,1,3,0,0,9,0,8,0,0,0,0,0,0,0,0,0,0,0,0,0,0,0,0,0,0,0,0,0,0,0,0,0,0,0,0,0,0,0,0,0,0,0,0],"split_type":[0,0,0,0,0,0,0,0,0,0,0,0,0,0,0,0,0,0,0,0,0,0,0,0,0,0,0,0,0,0,0,0,0,0,0,0,0,0,0,0,0,0,0,0,0,0,0,0,0,0,0,0,0,0,0,0,0,0,0,0,0,0,0,0,0,0,0,0,0,0,0,0,0,0,0,0,0,0,0,0,0,0,0,0,0,0,0,0,0,0,0],"sum_hessian":[6.1773E3,4.7896714E3,1.3876279E3,1.1835085E2,4.671321E3,1.3343872E3,5.3240814E1,1.107936E2,7.55725E0,4.4983696E3,1.7295131E2,1.3142384E3,2.0148777E1,4.1115063E1,1.2125754E1,1.6911856E1,9.3881744E1,3.2245312E0,4.332719E0,4.2216855E3,2.7668375E2,2.0711704E1,1.5223961E2,1.0674939E3,2.4674452E2,8.982747E0,1.1166031E1,3.246103E1,8.654034E0,5.9760385E0,6.149716E0,1.1916943E0,1.5720161E1,7.299097E1,2.089078E1,1.4976345E0,1.7268965E0,4.2036953E3,1.799041E1,3.0745E1,2.4593875E2,1.4988816E0,1.9212822E1,7.308826E1,7.915136E1,3.7218152E2,6.953123E2,1.9042365E2,5.632089E1,6.4861856E0,2.4965615E0,2.6727226E0,5.9813113E0,2.9938073E0,2.982231E0,4.6506457E0,1.4990698E0,1.4524405E1,1.1957569E0,3.7590088E1,3.5400875E1,1.2032166E1,8.858615E0,3.8244082E3,3.7928702E2,1.7467233E0,1.6243687E1,1.4965469E0,2.9248453E1,1.2989223E2,1.1604653E2,1.497628E0,1.7715195E1,6.836989E1,4.7183647E0,2.5826456E1,5.33249E1,7.4106186E1,2.9807535E2,4.4552817E2,2.4978418E2,1.3078989E2,5.963376E1,4.198004E0,5.2122883E1,1.2487248E0,5.2374606E0,3.2387571E0,2.7425542E0,1.4848559E0,1.497375E0],"tree_param":{"num_deleted":"0","num_feature":"14","num_nodes":"91","size_leaf_vector":"1"}},{"base_weights":[1.0356272E-2,-6.939648E-2,1.17561854E-1,6.477246E-2,-1.835199E-1,1.0231624E-1,8.587177E-1,8.16298E-3,5.0229543E-1,-4.4793183E-1,-6.443968E-2,2.490752E-1,4.1368596E-2,1.1731006E0,-2.1608227E-1,6.739606E-1,-2.9032085E-2,5.9770787E-1,-1.1156272E0,-2.9141933E-1,-9.911531E-1,6.3747394E-1,-1.16222434E-1,8.064854E-1,2.0829625E-1,1.240472E0,3.2620702E-2,1.3977413E0,1.6738285E-1,6.0121395E-2,-6.997082E-1,8.2765025E-1,-8.465107E-1,-1.6085553E-1,6.476463E-2,3.520626E-1,1.1141663E0,-1.373223E0,6.6920966E-3,-1.0554796E0,-1.5952086E-1,-1.5704973E0,-6.7189175E-1,2.1887286E-1,1.333074E0,-8.848142E-2,-9.3002394E-2,-7.40362E-2,9.3517387E-1,2.560836E-1,-2.4174273E-1,5.596369E-1,7.72747E-2,-6.778767E-2,1.2931201E-1,7.097223E-2,2.2015981E-2,5.84665E-1,-4.708888E-2,-1.2760617E0,-7.5992234E-2,2.6918283E-2,6.46036E-2,9.333343E-3,-6.606287E-2,-4.6124286E-3,-7.95647E-2,4.219633E-2,4.7660197E-4,5.21149E-2,1.5647967E-3,6.657542E-2,2.9139256E-2,-1.2640906E-2,-7.606277E-2,-3.5871405E-2,-7.298795E-2,-4.338602E-2,-8.735678E-4,-8.33103E-2,-1.6869182E-3,-2.2566428E-2,-8.7380126E-2,-6.1606783E-3,6.271258E-2,-2.1573147E-2,7.511318E-2,-3.016224E-3,-5.396104E-2,-2.5792068E-2,3.335084E-2,2.213315E-2,5.865028E-2,4.4756453E-3,1.8761389E-2,6.0947206E-2,-2.2691144E-2,-4.0998183E-2,5.6392755E-2,-2.1187672E-3,-6.608462E-2,2.3679489E-3,1.929366E-2,5.4624464E-2,-6.768711E-3,-7.452646E-2,-2.2099009E-2,6.2104817E-2,-5.9444617E-2],"categories":[],"categories_nodes":[],"categories_segments":[],"categories_sizes":[],"default_left":[0,0,0,0,0,0,0,0,0,0,0,0,0,0,0,0,0,0,0,0,0,0,0,0,0,0,0,0,0,0,0,0,0,0,0,0,0,0,0,0,0,0,0,0,0,0,0,0,0,0,0,0,0,0,0,0,0,0,0,0,0,0,0,0,0,0,0,0,0,0,0,0,0,0,0,0,0,0,0,0,0,0,0,0,0,0,0,0,0,0,0,0,0,0,0,0,0,0,0,0,0,0,0,0,0,0,0,0,0],"id":7,"left_children":[1,3,5,7,9,11,13,15,17,19,21,23,25,27,29,31,33,35,37,39,41,43,45,47,49,51,53,55,57,-1,59,61,63,65,67,69,71,73,-1,75,77,79,81,83,85,-1,87,89,91,93,95,97,-1,99,101,-1,-1,103,-1,105,107,-1,-1,-1,-1,-1,-1,-1,-1,-1,-1,-1,-1,-1,-1,-1,-1,-1,-1,-1,-1,-1,-1,-1,-1,-1,-1,-1,-1,-1,-1,-1,-1,-1,-1,-1,-1,-1,-1,-1,-1,-1,-1,-1,-1,-1,-1,-1,-1],"loss_changes":[5.2822098E1,5.4257156E1,2.9690578E1,4.0344975E1,6.025535E1,2.3097422E1,1.8156212E1,3.576616E1,2.9474857E1,5.0243484E1,4.8098324E1,1.705859E1,1.911952E1,9.062347E0,9.646393E0,1.8557228E1,1.6925856E1,2.204718E1,3.640934E0,4.6474556E1,2.3456848E1,2.6185745E1,4.7109127E1,5.883953E0,1.527845E1,1.8767262E0,1.762372E1,7.106781E-2,4.5535994E0,0E0,3.5710478E0,8.696178E0,3.9299302E0,5.5696255E1,3.4421246E1,2.6829536E1,5.755005E0,1.1071224E0,0E0,8.240219E0,3.9809097E1,6.759018E0,1.9897755E1,2.0685366E1,1.0788551E1,0E0,3.9102356E1,2.789789E0,4.7337074E0,1.2669987E1,2.1752506E1,5.35573E0,0E0,2.8326754E1,1.9423042E1,0E0,0E0,2.671453E0,0E0,2.7853775E-1,1.0225022E1,0E0,0E0,0E0,0E0,0E0,0E0,0E0,0E0,0E0,0E0,0E0,0E0,0E0,0E0,0E0,0E0,0E0,0E0,0E0,0E0,0E0,0E0,0E0,0E0,0E0,0E0,0E0,0E0,0E0,0E0,0E0,0E0,0E0,0E0,0E0,0E0,0E0,0E0,0E0,0E0,0E0,0E0,0E0,0E0,0E0,0E0,0E0,0E0],"parents":[2147483647,0,0,1,1,2,2,3,3,4,4,5,5,6,6,7,7,8,8,9,9,10,10,11,11,12,12,13,13,14,14,15,15,16,16,17,17,18,18,19,19,20,20,21,21,22,22,23,23,24,24,25,25,26,26,27,27,28,28,30,30,31,31,32,32,33,33,34,34,35,35,36,36,37,37,39,39,40,40,41,41,42,42,43,43,44,44,46,46,47,47,48,48,49,49,50,50,51,51,53,53,54,54,57,57,59,59,60,60],"right_children":[2,4,6,8,10,12,14,16,18,20,22,24,26,28,30,32,34,36,38,40,42,44,46,48,50,52,54,56,58,-1,60,62,64,66,68,70,72,74,-1,76,78,80,82,84,86,-1,88,90,92,94,96,98,-1,100,102,-1,-1,104,-1,106,108,-1,-1,-1,-1,-1,-1,-1,-1,-1,-1,-1,-1,-1,-1,-1,-1,-1,-1,-1,-1,-1,-1,-1,-1,-1,-1,-1,-1,-1,-1,-1,-1,-1,-1,-1,-1,-1,-1,-1,-1,-1,-1,-1,-1,-1,-1,-1,-1],"split_conditions":[1.9899659E-1,-3.2472697E-1,2.1623464E0,-3.6576328E-1,-2.7607452E-2,-3.9711288E-1,3.480368E-1,-1.8223711E0,1.2849926E0,-1.4577492E-1,-9.233456E-2,-1.3889359E0,-1.8530372E0,1.2432652E0,-5.9089446E-1,8.2075435E-1,-7.821269E-1,-2.0801622E-1,-1.6551097E-1,-2.8602615E-1,-2.5872427E-1,-4.8253518E-1,-4.077658E-2,-2.989855E-1,1.0835686E0,2.8161803E-1,8.416307E-1,2.5465872E0,5.913647E-1,6.0121395E-2,5.6913257E-1,-4.434823E-1,-5.8583593E-1,-1.0200686E0,-8.628632E-1,-2.8602925E-1,-1.6387486E-1,-3.5337007E-1,6.6920966E-3,4.6837118E-2,-1.5199949E0,6.6815536E-3,1.4300339E-1,4.7497568E-1,-2.9892677E-1,-8.848142E-2,1.8465458E0,-9.440502E-2,5.84352E-1,-3.1928536E-1,-3.037473E-1,-5.1768583E-1,7.72747E-2,2.0482986E0,7.161713E-1,7.097223E-2,2.2015981E-2,1.3931319E-1,-4.708888E-2,6.4521605E-1,8.5282576E-1,2.6918283E-2,6.46036E-2,9.333343E-3,-6.606287E-2,-4.6124286E-3,-7.95647E-2,4.219633E-2,4.7660197E-4,5.21149E-2,1.5647967E-3,6.657542E-2,2.9139256E-2,-1.2640906E-2,-7.606277E-2,-3.5871405E-2,-7.298795E-2,-4.338602E-2,-8.735678E-4,-8.33103E-2,-1.6869182E-3,-2.2566428E-2,-8.7380126E-2,-6.1606783E-3,6.271258E-2,-2.1573147E-2,7.511318E-2,-3.016224E-3,-5.396104E-2,-2.5792068E-2,3.335084E-2,2.213315E-2,5.865028E-2,4.4756453E-3,1.8761389E-2,6.0947206E-2,-2.2691144E-2,-4.0998183E-2,5.6392755E-2,-2.1187672E-3,-6.608462E-2,2.3679489E-3,1.929366E-2,5.4624464E-2,-6.768711E-3,-7.452646E-2,-2.2099009E-2,6.2104817E-2,-5.9444617E-2],"split_indices":[11,0,11,5,13,3,10,5,3,0,4,7,4,3,5,10,13,13,11,12,11,11,12,5,10,10,11,8,0,0,3,11,3,5,1,13,12,13,0,3,11,12,11,10,10,0,5,8,11,13,5,9,0,1,10,0,0,10,0,7,3,0,0,0,0,0,0,0,0,0,0,0,0,0,0,0,0,0,0,0,0,0,0,0,0,0,0,0,0,0,0,0,0,0,0,0,0,0,0,0,0,0,0,0,0,0,0,0,0],"split_type":[0,0,0,0,0,0,0,0,0,0,0,0,0,0,0,0,0,0,0,0,0,0,0,0,0,0,0,0,0,0,0,0,0,0,0,0,0,0,0,0,0,0,0,0,0,0,0,0,0,0,0,0,0,0,0,0,0,0,0,0,0,0,0,0,0,0,0,0,0,0,0,0,0,0,0,0,0,0,0,0,0,0,0,0,0,0,0,0,0,0,0,0,0,0,0,0,0,0,0,0,0,0,0,0,0,0,0,0,0],"sum_hessian":[6.1761123E3,3.5417063E3,2.6344058E3,1.6280846E3,1.9136216E3,2.5824233E3,5.198253E1,1.4424678E3,1.856169E2,5.9335144E2,1.3202701E3,7.568584E2,1.825565E3,4.0147717E1,1.1834812E1,7.5414604E1,1.3670531E3,1.7587569E2,9.741202E0,4.6182672E2,1.315247E2,8.993215E1,1.230338E3,5.0315506E1,7.065429E2,1.2201936E1,1.8133629E3,3.249886E1,7.6488576E0,2.6311579E0,9.203654E0,6.8905304E1,6.509304E0,5.6802563E2,7.990275E2,1.2032615E2,5.5549538E1,7.9940667E0,1.7471354E0,6.695694E1,3.9486978E2,4.5336388E1,8.6188324E1,5.696573E1,3.2966423E1,1.5997655E1,1.2143403E3,6.470087E0,4.3845417E1,6.3911E2,6.7432884E1,4.652315E0,7.5496206E0,8.8972925E2,9.236337E2,3.1306622E1,1.1922374E0,5.901503E0,1.7473543E0,4.2398553E0,4.963799E0,4.3788815E1,2.5116486E1,2.2403977E0,4.268906E0,5.430445E2,2.4981113E1,5.1946243E1,7.4708124E2,3.746292E1,8.286323E1,3.835576E1,1.7193777E1,1.2489632E0,6.745104E0,3.797635E1,2.8980593E1,6.511668E1,3.297531E2,4.2599094E1,2.7372901E0,7.2701256E1,1.3487067E1,4.348079E1,1.34849415E1,2.748735E0,3.0217686E1,1.1764213E3,3.7919044E1,4.2438636E0,2.2262232E0,1.52097435E1,2.8635674E1,2.6724155E2,3.7186847E2,7.9474993E0,5.9485386E1,1.22793E0,3.424385E0,8.730689E2,1.6660297E1,7.009233E2,2.2271048E2,3.157406E0,2.7440972E0,2.7465928E0,1.4932628E0,2.2192683E0,2.7445304E0],"tree_param":{"num_deleted":"0","num_feature":"14","num_nodes":"109","size_leaf_vector":"1"}},{"base_weights":[-4.0125E-3,6.5702677E-1,-1.4286025E-2,7.54535E-1,-7.2703934E-1,-2.6024606E-3,-4.2051044E-1,9.7236085E-1,5.073894E-1,1.7737953E-2,-6.282963E-2,-3.0679742E-2,1.2944148E-1,-1.168639E0,-3.141727E-1,1.2246203E0,2.6746848E-1,8.685333E-1,-1.0186293E0,-1.1006931E-2,-5.3926754E-1,8.3134913E-1,4.990803E-2,2.1292327E-2,-6.795459E-2,-7.569383E-2,-6.3444674E-1,1.7278562E-1,1.3363429E0,4.4526395E-1,-4.139379E-2,1.2597281E0,5.8700526E-1,-2.2060847E-1,-8.3025545E-2,-2.2007877E-2,4.8756278E-1,-1.0629647E0,-1.7181121E-1,1.4115444E0,2.3534605E-1,1.2017838E0,3.1063993E-2,-2.9432222E-1,1.104172E0,-2.6992512E-1,-1.0248376E0,3.8501676E-2,-3.044009E-2,6.9377296E-2,1.4345798E-2,3.4363087E-2,-2.7313868E-2,2.6977835E-2,6.789948E-2,7.206906E-2,3.2660384E-3,3.3582892E-2,-4.273369E-2,-1.303973E-3,6.339167E-2,6.392209E-2,-2.6087563E-3,-3.488495E-2,-8.6016044E-2,4.4111335E-3,-6.777765E-2,7.3527455E-2,-1.0356724E-2,-7.390776E-3,6.112802E-2,7.9717726E-2,2.8105542E-2,-1.2452318E-2,6.2589194E-3,4.775506E-2,-2.0862993E-2,7.443631E-2,2.1439498E-2,-2.4565544E-2,7.131512E-2,-7.917798E-2,-3.270329E-2],"categories":[],"categories_nodes":[],"categories_segments":[],"categories_sizes":[],"default_left":[0,0,0,0,0,0,0,0,0,0,0,0,0,0,0,0,0,0,0,0,0,0,0,0,0,0,0,0,0,0,0,0,0,0,0,0,0,0,0,0,0,0,0,0,0,0,0,0,0,0,0,0,0,0,0,0,0,0,0,0,0,0,0,0,0,0,0,0,0,0,0,0,0,0,0,0,0,0,0,0,0,0,0],"id":8,"left_children":[1,3,5,7,9,11,13,15,17,-1,-1,19,21,23,25,27,29,31,33,35,37,39,41,-1,-1,43,45,47,49,51,-1,53,55,57,-1,59,61,63,65,67,69,71,73,75,77,79,81,-1,-1,-1,-1,-1,-1,-1,-1,-1,-1,-1,-1,-1,-1,-1,-1,-1,-1,-1,-1,-1,-1,-1,-1,-1,-1,-1,-1,-1,-1,-1,-1,-1,-1,-1,-1],"loss_changes":[4.193971E1,1.3303322E1,2.8858822E1,4.286068E0,4.3007975E0,2.1921244E1,1.3156567E1,7.8693657E0,2.4958431E1,0E0,0E0,4.8779133E1,5.7838604E1,6.8915157E0,1.1424473E1,3.725689E0,2.9838092E0,3.210146E0,4.151388E0,2.5763426E1,3.4756245E1,3.6135864E1,2.0200247E1,0E0,0E0,2.28268E1,8.827129E0,2.5140178E0,1.2293663E0,3.303689E0,0E0,2.6758957E-1,1.0035574E1,3.4508162E0,0E0,2.4164206E1,4.3354977E1,1.6729141E1,3.3329346E1,5.389412E0,2.0312487E1,2.865696E0,2.4241606E1,1.1824127E1,2.95817E0,1.363378E1,5.2893944E0,0E0,0E0,0E0,0E0,0E0,0E0,0E0,0E0,0E0,0E0,0E0,0E0,0E0,0E0,0E0,0E0,0E0,0E0,0E0,0E0,0E0,0E0,0E0,0E0,0E0,0E0,0E0,0E0,0E0,0E0,0E0,0E0,0E0,0E0,0E0,0E0],"parents":[2147483647,0,0,1,1,2,2,3,3,4,4,5,5,6,6,7,7,8,8,11,11,12,12,13,13,14,14,15,15,16,16,17,17,18,18,19,19,20,20,21,21,22,22,25,25,26,26,27,27,28,28,29,29,31,31,32,32,33,33,35,35,36,36,37,37,38,38,39,39,40,40,41,41,42,42,43,43,44,44,45,45,46,46],"right_children":[2,4,6,8,10,12,14,16,18,-1,-1,20,22,24,26,28,30,32,34,36,38,40,42,-1,-1,44,46,48,50,52,-1,54,56,58,-1,60,62,64,66,68,70,72,74,76,78,80,82,-1,-1,-1,-1,-1,-1,-1,-1,-1,-1,-1,-1,-1,-1,-1,-1,-1,-1,-1,-1,-1,-1,-1,-1,-1,-1,-1,-1,-1,-1,-1,-1,-1,-1,-1,-1],"split_conditions":[-1.8223711E0,8.2075435E-1,1.8856554E0,-1.8329822E0,-5.8583593E-1,1.0581156E0,-2.797244E-2,6.782195E-1,-8.720393E-1,1.7737953E-2,-6.282963E-2,9.752553E-1,1.0241767E0,1.8769103E0,1.8927734E0,-7.756026E-1,4.3356138E-1,-1.8165205E0,-4.7258294E-1,2.030154E0,6.629066E-1,1.1030171E0,-7.5542307E-1,2.1292327E-2,-6.795459E-2,2.0638878E0,1.0625694E0,-1.7488735E0,8.5497415E-1,8.9777195E-1,-4.139379E-2,-1.6404265E0,-1.318154E0,-4.6473864E-1,-8.3025545E-2,9.9065197E-1,6.689385E-2,1.0129412E0,1.7083237E0,1.5295986E0,1.2364372E0,1.1119874E0,1.23309E0,1.8392162E0,1.0625694E0,1.0487666E0,2.1452758E0,3.8501676E-2,-3.044009E-2,6.9377296E-2,1.4345798E-2,3.4363087E-2,-2.7313868E-2,2.6977835E-2,6.789948E-2,7.206906E-2,3.2660384E-3,3.3582892E-2,-4.273369E-2,-1.303973E-3,6.339167E-2,6.392209E-2,-2.6087563E-3,-3.488495E-2,-8.6016044E-2,4.4111335E-3,-6.777765E-2,7.3527455E-2,-1.0356724E-2,-7.390776E-3,6.112802E-2,7.9717726E-2,2.8105542E-2,-1.2452318E-2,6.2589194E-3,4.775506E-2,-2.0862993E-2,7.443631E-2,2.1439498E-2,-2.4565544E-2,7.131512E-2,-7.917798E-2,-3.270329E-2],"split_indices":[5,10,5,6,3,12,10,3,10,0,0,0,2,0,13,8,9,2,10,10,10,12,10,0,0,2,10,13,9,7,0,10,10,8,0,2,0,13,10,3,12,0,6,6,10,10,12,0,0,0,0,0,0,0,0,0,0,0,0,0,0,0,0,0,0,0,0,0,0,0,0,0,0,0,0,0,0,0,0,0,0,0,0],"split_type":[0,0,0,0,0,0,0,0,0,0,0,0,0,0,0,0,0,0,0,0,0,0,0,0,0,0,0,0,0,0,0,0,0,0,0,0,0,0,0,0,0,0,0,0,0,0,0,0,0,0,0,0,0,0,0,0,0,0,0,0,0,0,0,0,0,0,0,0,0,0,0,0,0,0,0,0,0,0,0,0,0,0,0],"sum_hessian":[6.1732104E3,9.350913E1,6.079701E3,8.777984E1,5.7292957E0,5.9107075E3,1.6899356E2,4.509779E1,4.268205E1,1.9913471E0,3.7379484E0,4.874897E3,1.0358104E3,1.9787899E1,1.4920566E2,3.2669174E1,1.2428617E1,3.486244E1,7.819609E0,4.694336E3,1.8056114E2,1.0446054E2,9.313499E2,1.9794906E0,1.7808409E1,8.623251E1,6.2973145E1,3.3813493E0,2.9287825E1,1.1203558E1,1.2250589E0,1.3135508E1,2.172693E1,4.0848274E0,3.7347817E0,4.593927E3,1.00409195E2,7.367174E1,1.06889404E2,5.223886E1,5.2221684E1,1.3980676E1,9.173692E2,7.338489E1,1.2847629E1,3.3440243E1,2.9532902E1,1.925084E0,1.4562652E0,2.7618109E1,1.6697172E0,9.252296E0,1.9512612E0,2.356373E0,1.0779135E1,7.5686398E0,1.4158291E1,1.6722808E0,2.4125469E0,4.5804478E3,1.3479102E1,4.017381E1,6.023539E1,4.8682343E1,2.4989399E1,8.8396675E1,1.8492727E1,5.0489902E1,1.7489601E0,3.823286E1,1.398882E1,7.7388506E0,6.241825E0,2.3029666E2,6.870726E2,5.9675245E0,6.741736E1,7.4190435E0,5.428585E0,3.0207954E1,3.2322874E0,1.0475788E1,1.9057114E1],"tree_param":{"num_deleted":"0","num_feature":"14","num_nodes":"83","size_leaf_vector":"1"}},{"base_weights":[-5.959573E-4,4.8935318E-1,-9.899502E-3,6.0292625E-1,-1.0285488E0,-3.9733526E-1,-1.21255136E-4,1.2982762E0,4.717092E-1,-6.1047263E-2,-9.523015E-3,-7.527143E-2,-1.1205857E0,7.1019685E-1,-1.4720901E-2,2.0252861E-2,1.3402272E0,8.212953E-1,2.1961877E-1,-4.7835752E-1,4.6190393E-1,6.017115E-1,-1.3947496E0,5.013096E-1,1.642601E0,-1.7779067E-3,-3.1047267E-1,6.9264166E-2,2.192021E-2,1.1187547E0,3.0526322E-1,5.5696714E-1,-1.3548324E0,2.526465E-1,-1.0745555E0,7.1256965E-1,-8.4965825E-2,-2.3366995E-1,5.5884283E-2,-1.545163E0,6.0110923E-2,7.385009E-1,-8.368966E-2,8.637487E-2,2.7071238E-2,-1.9409318E-2,2.3509334E-1,-1.6847083E-1,-6.2031287E-1,6.819343E-2,-1.3977461E-2,2.7404055E-2,-3.0341431E-2,-5.484566E-2,3.3762407E-2,-8.3254464E-2,3.752635E-3,-1.3292608E-2,6.1874826E-2,3.3100054E-2,-6.506955E-2,5.3172674E-2,-5.3735323E-2,1.3618288E-2,-3.17711E-2,-5.7951164E-2,-8.845837E-2,5.24969E-2,-2.3719547E-2,-3.17203E-4,-2.6277388E-2,2.5546981E-2,-9.95055E-4,-1.1813103E-2,7.53743E-2,-5.4063737E-2,-1.2999627E-2],"categories":[],"categories_nodes":[],"categories_segments":[],"categories_sizes":[],"default_left":[0,0,0,0,0,0,0,0,0,0,0,0,0,0,0,0,0,0,0,0,0,0,0,0,0,0,0,0,0,0,0,0,0,0,0,0,0,0,0,0,0,0,0,0,0,0,0,0,0,0,0,0,0,0,0,0,0,0,0,0,0,0,0,0,0,0,0,0,0,0,0,0,0,0,0,0,0],"id":9,"left_children":[1,3,5,7,9,11,13,15,17,-1,-1,19,21,23,25,-1,27,29,31,33,35,37,39,41,43,45,47,-1,-1,49,51,53,55,57,59,61,-1,63,-1,65,-1,67,-1,-1,-1,69,71,73,75,-1,-1,-1,-1,-1,-1,-1,-1,-1,-1,-1,-1,-1,-1,-1,-1,-1,-1,-1,-1,-1,-1,-1,-1,-1,-1,-1,-1],"loss_changes":[2.8080513E1,2.0410458E1,2.2902952E1,9.190315E0,1.1156387E0,3.4581184E1,6.117161E1,7.484245E-2,7.9231052E0,0E0,0E0,2.274887E1,2.2456371E1,2.2314484E1,2.2124302E1,0E0,1.4860153E-2,5.5161476E0,2.9856173E1,2.6390654E1,2.564946E1,3.272125E0,1.740232E1,5.2050583E1,1.0563049E0,2.3135574E1,1.05576515E1,0E0,0E0,8.549498E0,3.7275653E0,9.706349E0,4.5433254E0,1.4489821E1,1.3939148E1,2.6934816E1,0E0,8.834512E-1,0E0,1.2410431E0,0E0,3.430696E1,0E0,0E0,0E0,3.4090855E1,2.7004591E1,1.9392092E1,1.2306484E1,0E0,0E0,0E0,0E0,0E0,0E0,0E0,0E0,0E0,0E0,0E0,0E0,0E0,0E0,0E0,0E0,0E0,0E0,0E0,0E0,0E0,0E0,0E0,0E0,0E0,0E0,0E0,0E0],"parents":[2147483647,0,0,1,1,2,2,3,3,4,4,5,5,6,6,7,7,8,8,11,11,12,12,13,13,14,14,16,16,17,17,18,18,19,19,20,20,21,21,22,22,23,23,24,24,25,25,26,26,29,29,30,30,31,31,32,32,33,33,34,34,35,35,37,37,39,39,41,41,45,45,46,46,47,47,48,48],"right_children":[2,4,6,8,10,12,14,16,18,-1,-1,20,22,24,26,-1,28,30,32,34,36,38,40,42,44,46,48,-1,-1,50,52,54,56,58,60,62,-1,64,-1,66,-1,68,-1,-1,-1,70,72,74,76,-1,-1,-1,-1,-1,-1,-1,-1,-1,-1,-1,-1,-1,-1,-1,-1,-1,-1,-1,-1,-1,-1,-1,-1,-1,-1,-1,-1],"split_conditions":[-1.8088044E0,8.2075435E-1,-1.6614E0,-6.0811293E-1,1.0136696E0,-1.8194757E0,-1.4751495E0,-7.017982E-1,-1.8329822E0,-6.1047263E-2,-9.523015E-3,-8.934219E-1,-1.2945642E0,-1.4498706E0,1.8392162E0,2.0252861E-2,-1.8014487E0,6.782195E-1,-8.191874E-1,-1.853194E0,1.6177748E0,2.3717487E-1,6.781546E-1,-1.5112823E0,-1.4620887E0,1.4605448E0,1.0625694E0,6.9264166E-2,2.192021E-2,6.409636E-1,9.193077E-1,-1.8328233E0,4.718561E-1,1.0162488E0,-1.6269739E0,-5.0089645E-1,-8.4965825E-2,-4.3230066E-1,5.5884283E-2,-5.9114575E-1,6.0110923E-2,-4.902199E-1,-8.368966E-2,8.637487E-2,2.7071238E-2,1.4817755E0,1.6227398E0,1.0487666E0,1.1835212E0,6.819343E-2,-1.3977461E-2,2.7404055E-2,-3.0341431E-2,-5.484566E-2,3.3762407E-2,-8.3254464E-2,3.752635E-3,-1.3292608E-2,6.1874826E-2,3.3100054E-2,-6.506955E-2,5.3172674E-2,-5.3735323E-2,1.3618288E-2,-3.17711E-2,-5.7951164E-2,-8.845837E-2,5.24969E-2,-2.3719547E-2,-3.17203E-4,-2.6277388E-2,2.5546981E-2,-9.95055E-4,-1.1813103E-2,7.53743E-2,-5.4063737E-2,-1.2999627E-2],"split_indices":[5,10,5,3,10,13,0,9,6,0,0,10,3,13,6,0,2,3,10,13,3,9,10,13,2,13,10,0,0,10,7,12,3,3,3,10,0,8,0,10,0,10,0,0,0,0,13,10,10,0,0,0,0,0,0,0,0,0,0,0,0,0,0,0,0,0,0,0,0,0,0,0,0,0,0,0,0],"split_type":[0,0,0,0,0,0,0,0,0,0,0,0,0,0,0,0,0,0,0,0,0,0,0,0,0,0,0,0,0,0,0,0,0,0,0,0,0,0,0,0,0,0,0,0,0,0,0,0,0,0,0,0,0,0,0,0,0,0,0,0,0,0,0,0,0,0,0,0,0,0,0,0,0,0,0,0,0],"sum_hessian":[6.1582905E3,1.1379785E2,6.0444927E3,1.0643678E2,7.3610644E0,1.4782204E2,5.896671E3,1.5484845E1,9.095194E1,5.6151896E0,1.7458752E0,1.0304162E2,4.478042E1,1.1779779E2,5.778873E3,1.1726357E0,1.4312209E1,3.716101E1,5.379093E1,5.8930668E1,4.411095E1,5.9854035E0,3.8795013E1,9.749382E1,2.0303967E1,5.5375396E3,2.4133353E2,1.3120598E1,1.1916109E0,2.2831892E1,1.4329118E1,4.4831413E1,8.959516E0,2.6731348E1,3.219932E1,4.012716E1,3.9837914E0,2.4942493E0,3.4911544E0,3.7053905E1,1.7411085E0,8.8503174E1,8.990647E0,1.8322594E1,1.9813728E0,5.1547646E3,3.8277463E2,1.6654745E2,7.478607E1,1.9447496E1,3.3843958E0,1.1631629E1,2.6974883E0,2.439999E0,4.2391415E1,7.2269244E0,1.7325915E0,1.7990082E1,8.741265E0,3.4984252E0,2.8700897E1,3.3880596E1,6.246561E0,1.2463883E0,1.2478609E0,1.5870447E1,2.1183458E1,7.0527916E1,1.7975262E1,5.026037E3,1.2872758E2,1.8338734E2,1.993873E2,1.6089827E2,5.6491885E0,3.1932976E1,4.2853092E1],"tree_param":{"num_deleted":"0","num_feature":"14","num_nodes":"77","size_leaf_vector":"1"}},{"base_weights":[-9.868166E-4,-5.4470815E-2,1.985096E-1,4.923572E-1,-6.7793034E-2,-2.1026196E-1,2.4255535E-1,8.5416305E-1,-1.3277203E-1,-4.6934366E-2,-3.2473132E-1,-7.6326907E-1,2.9456306E-1,2.1692857E-1,7.892413E-1,9.92006E-1,1.2186074E-1,3.0257466E-1,-8.685563E-1,4.020468E-2,-1.1594687E-1,6.5657794E-2,-4.4268677E-1,-8.615665E-1,5.478858E-2,5.014275E-1,-7.766219E-2,4.0726703E-1,1.4349747E-1,1.1222768E0,-2.9515252E-1,4.5392415E-1,1.3374398E0,-7.1562834E-2,7.442603E-1,9.116436E-1,-2.3497711E-1,-1.7718948E-1,-1.3739115E0,-6.120347E-2,3.1450036E-1,-3.2942238E-1,-2.356917E-2,-1.440291E-1,4.6456936E-1,-6.871163E-1,-2.2892132E-1,7.1234035E-1,-9.5953625E-1,7.586248E-1,-9.341479E-1,2.205587E-1,1.0895405E0,-8.1860024E-1,1.8527755E-1,1.3363465E0,2.994557E-1,-1.0112009E0,6.905546E-1,4.332464E-2,-2.1364082E-2,6.903659E-2,1.4671137E-3,8.430169E-3,6.976031E-2,6.092226E-2,2.0635013E-2,7.0865736E-3,-5.6991663E-2,4.596304E-2,-4.029311E-2,-7.569476E-2,-1.0843652E-2,8.8295055E-4,-3.787693E-2,8.068982E-3,3.8643844E-2,-2.7554063E-2,3.663941E-3,3.5756223E-2,-3.3540973E-3,-4.161636E-2,5.6722243E-3,5.168599E-2,7.834641E-3,-2.0013547E-2,-4.8834737E-2,-2.1237822E-2,1.4754452E-2,5.4282423E-2,7.394296E-3,-7.75878E-3,-5.711322E-2,-6.3388892E-3,5.4211617E-2,-6.287131E-2,4.9606003E-3,2.2326682E-2,-9.912553E-3,5.8094155E-2,3.3911266E-3,-6.818887E-2,4.6194033E-4,-8.588183E-2,1.0519197E-2,6.787842E-2,2.1534003E-2,3.7472557E-2,-4.0561188E-2,-6.5620765E-2,-3.2131549E-3,6.728176E-2,-5.1585715E-2],"categories":[],"categories_nodes":[],"categories_segments":[],"categories_sizes":[],"default_left":[0,0,0,0,0,0,0,0,0,0,0,0,0,0,0,0,0,0,0,0,0,0,0,0,0,0,0,0,0,0,0,0,0,0,0,0,0,0,0,0,0,0,0,0,0,0,0,0,0,0,0,0,0,0,0,0,0,0,0,0,0,0,0,0,0,0,0,0,0,0,0,0,0,0,0,0,0,0,0,0,0,0,0,0,0,0,0,0,0,0,0,0,0,0,0,0,0,0,0,0,0,0,0,0,0,0,0,0,0,0,0,0,0],"id":10,"left_children":[1,3,5,7,9,11,13,15,17,19,21,23,25,27,29,31,33,35,37,39,41,43,45,47,-1,49,-1,51,53,55,57,59,61,-1,63,65,67,69,71,73,75,77,79,81,83,85,87,89,91,93,95,97,99,101,103,105,107,109,111,-1,-1,-1,-1,-1,-1,-1,-1,-1,-1,-1,-1,-1,-1,-1,-1,-1,-1,-1,-1,-1,-1,-1,-1,-1,-1,-1,-1,-1,-1,-1,-1,-1,-1,-1,-1,-1,-1,-1,-1,-1,-1,-1,-1,-1,-1,-1,-1,-1,-1,-1,-1,-1,-1],"loss_changes":[6.559789E1,3.535212E1,2.3452991E1,2.6220049E1,2.5354744E1,3.5669987E1,1.6273628E1,7.272789E0,1.409437E1,2.6341434E1,1.6388683E1,1.2067329E1,2.6425875E1,1.5632259E1,1.9176083E1,1.0824551E1,1.33836155E1,9.3391695E0,5.4549904E0,5.387869E1,4.81925E1,7.035245E0,1.4105141E1,9.684292E0,0E0,2.3267088E1,0E0,3.9502354E1,3.2776886E1,6.6682205E0,9.910682E0,9.662764E0,2.0515747E0,0E0,3.420319E0,1.5286236E0,5.478893E0,6.279689E0,1.1738205E0,7.76898E1,3.6568752E1,6.592909E1,5.491664E1,9.906596E0,4.908995E0,1.0145561E1,1.52221775E1,6.8114734E-1,7.9621887E0,1.5234079E1,3.3755379E0,2.338965E1,4.857086E0,1.5341227E1,3.7562954E1,2.1816254E-2,5.392866E0,2.187807E0,8.254881E0,0E0,0E0,0E0,0E0,0E0,0E0,0E0,0E0,0E0,0E0,0E0,0E0,0E0,0E0,0E0,0E0,0E0,0E0,0E0,0E0,0E0,0E0,0E0,0E0,0E0,0E0,0E0,0E0,0E0,0E0,0E0,0E0,0E0,0E0,0E0,0E0,0E0,0E0,0E0,0E0,0E0,0E0,0E0,0E0,0E0,0E0,0E0,0E0,0E0,0E0,0E0,0E0,0E0,0E0],"parents":[2147483647,0,0,1,1,2,2,3,3,4,4,5,5,6,6,7,7,8,8,9,9,10,10,11,11,12,12,13,13,14,14,15,15,16,16,17,17,18,18,19,19,20,20,21,21,22,22,23,23,25,25,27,27,28,28,29,29,30,30,31,31,32,32,34,34,35,35,36,36,37,37,38,38,39,39,40,40,41,41,42,42,43,43,44,44,45,45,46,46,47,47,48,48,49,49,50,50,51,51,52,52,53,53,54,54,55,55,56,56,57,57,58,58],"right_children":[2,4,6,8,10,12,14,16,18,20,22,24,26,28,30,32,34,36,38,40,42,44,46,48,-1,50,-1,52,54,56,58,60,62,-1,64,66,68,70,72,74,76,78,80,82,84,86,88,90,92,94,96,98,100,102,104,106,108,110,112,-1,-1,-1,-1,-1,-1,-1,-1,-1,-1,-1,-1,-1,-1,-1,-1,-1,-1,-1,-1,-1,-1,-1,-1,-1,-1,-1,-1,-1,-1,-1,-1,-1,-1,-1,-1,-1,-1,-1,-1,-1,-1,-1,-1,-1,-1,-1,-1,-1,-1,-1,-1,-1,-1],"split_conditions":[8.416307E-1,-1.8099608E0,-1.1290728E0,-1.81901E0,1.3757058E0,-4.3638295E-1,2.1623464E0,3.8240737E-1,4.6311942E-1,-2.8760764E-1,-5.890842E-1,2.201311E0,-1.6598247E-2,-2.1066298E-1,3.480368E-1,-4.0303925E-1,4.4136873E-1,-8.210587E-2,-4.385984E-1,-3.5724056E-1,-2.7607452E-2,1.9899659E-1,-9.3048416E-2,-1.3553501E0,5.478858E-2,1.500657E0,-7.766219E-2,-4.7733083E-1,-3.5758016E-1,1.122572E0,8.2075435E-1,-5.898643E-1,1.5295986E0,-7.1562834E-2,-1.8768411E0,-4.178682E-1,-1.8166081E0,6.9520164E-1,6.334692E-1,-4.5701867E-1,-3.3903995E-1,2.2865231E-1,-8.0462314E-2,-8.6354524E-1,-9.401687E-1,-6.7240876E-1,5.384156E-1,-1.2295351E0,-1.4721676E0,9.202105E-1,1.0036567E0,-4.6888986E-1,-2.8003985E-1,-1.6779791E-1,-8.934219E-1,2.5465872E0,5.71366E-1,5.6913257E-1,2.016152E0,4.332464E-2,-2.1364082E-2,6.903659E-2,1.4671137E-3,8.430169E-3,6.976031E-2,6.092226E-2,2.0635013E-2,7.0865736E-3,-5.6991663E-2,4.596304E-2,-4.029311E-2,-7.569476E-2,-1.0843652E-2,8.8295055E-4,-3.787693E-2,8.068982E-3,3.8643844E-2,-2.7554063E-2,3.663941E-3,3.5756223E-2,-3.3540973E-3,-4.161636E-2,5.6722243E-3,5.168599E-2,7.834641E-3,-2.0013547E-2,-4.8834737E-2,-2.1237822E-2,1.4754452E-2,5.4282423E-2,7.394296E-3,-7.75878E-3,-5.711322E-2,-6.3388892E-3,5.4211617E-2,-6.287131E-2,4.9606003E-3,2.2326682E-2,-9.912553E-3,5.8094155E-2,3.3911266E-3,-6.818887E-2,4.6194033E-4,-8.588183E-2,1.0519197E-2,6.787842E-2,2.1534003E-2,3.7472557E-2,-4.0561188E-2,-6.5620765E-2,-3.2131549E-3,6.728176E-2,-5.1585715E-2],"split_indices":[11,1,10,12,3,13,11,11,10,6,8,3,1,1,10,11,11,7,3,12,13,11,11,3,0,3,0,13,13,3,10,11,3,0,12,7,6,10,7,5,11,11,6,10,10,11,10,6,10,11,11,6,13,4,10,8,1,3,1,0,0,0,0,0,0,0,0,0,0,0,0,0,0,0,0,0,0,0,0,0,0,0,0,0,0,0,0,0,0,0,0,0,0,0,0,0,0,0,0,0,0,0,0,0,0,0,0,0,0,0,0,0,0],"split_type":[0,0,0,0,0,0,0,0,0,0,0,0,0,0,0,0,0,0,0,0,0,0,0,0,0,0,0,0,0,0,0,0,0,0,0,0,0,0,0,0,0,0,0,0,0,0,0,0,0,0,0,0,0,0,0,0,0,0,0,0,0,0,0,0,0,0,0,0,0,0,0,0,0,0,0,0,0,0,0,0,0,0,0,0,0,0,0,0,0,0,0,0,0,0,0,0,0,0,0,0,0,0,0,0,0,0,0,0,0,0,0,0,0],"sum_hessian":[6.145945E3,4.84717E3,1.2987751E3,1.1442651E2,4.732743E3,1.2596537E2,1.1728098E3,7.2246216E1,4.2180298E1,4.378474E3,3.5426907E2,5.9869637E1,6.609573E1,1.1216284E3,5.1181305E1,6.050296E1,1.1743253E1,2.6870443E1,1.5309853E1,1.9352883E3,2.4431858E3,8.230691E1,2.7196216E2,5.7372593E1,2.4970417E0,6.009649E1,5.999244E0,3.1098578E2,8.106427E2,3.9129154E1,1.2052153E1,2.4559975E1,3.594299E1,2.987859E0,8.755394E0,1.2270983E1,1.4599462E1,7.035434E0,8.274419E0,1.413492E3,5.2179645E2,7.371472E2,1.7060386E3,5.4367638E1,2.793927E1,1.2584766E2,1.461145E2,2.9944859E0,5.437811E1,5.1365425E1,8.731063E0,2.4520673E2,6.577905E1,3.296407E1,7.776786E2,3.0555548E1,8.573604E0,6.9659824E0,5.0861707E0,1.6739475E1,7.820499E0,3.47378E1,1.2051886E0,5.3145456E0,3.440848E0,6.705626E0,5.5653563E0,1.0903497E1,3.6959648E0,2.3954215E0,4.6400123E0,7.1062503E0,1.1681689E0,1.27057E3,1.4292201E2,3.9215057E2,1.2964587E2,4.752093E2,2.6193793E2,9.404533E1,1.6119933E3,1.4193041E1,4.0174595E1,8.980343E0,1.8958927E1,6.4418945E1,6.1428707E1,1.065017E2,3.96128E1,1.246645E0,1.747841E0,1.0408704E1,4.3969406E1,1.3974945E1,3.739048E1,6.4853435E0,2.2457197E0,1.5922719E2,8.597954E1,6.130143E1,4.4776254E0,1.9484844E1,1.3479226E1,9.248949E0,7.684297E2,2.9368406E1,1.1871426E0,6.333E0,2.2406037E0,4.9920797E0,1.973903E0,3.8430982E0,1.2430725E0],"tree_param":{"num_deleted":"0","num_feature":"14","num_nodes":"113","size_leaf_vector":"1"}},{"base_weights":[-3.5797486E-3,-8.0920845E-2,1.00917794E-1,2.6969802E-2,-1.874027E-1,7.557627E-2,4.1868055E-1,-8.759824E-3,3.8617888E-1,-4.8081622E-1,-7.914447E-2,1.0313576E-1,-3.6812428E-1,-6.55019E-1,4.530675E-1,7.3050223E-3,-1.2345078E0,-4.521997E-1,7.226945E-1,-3.07572E-1,-9.4001085E-1,6.353239E-1,-1.3077119E-1,-2.3114348E-2,1.796434E-1,-1.3901227E0,-1.587416E-1,-6.202324E-2,-5.3613394E-2,7.212976E-2,3.9603278E-1,2.9850072E-1,-4.5782153E-2,-1.5648495E0,5.1264375E-2,8.23756E-1,-9.620638E-1,7.776981E-1,-5.5325147E-2,-4.9592248E-1,2.1384585E-1,-4.7037023E-1,-1.3350049E0,1.6147037E0,3.5759583E-1,-7.4883044E-1,-8.873487E-2,4.8609544E-2,-8.498572E-1,6.022287E-1,6.421662E-2,-1.4868333E0,2.0657438E-3,4.6796814E-1,-4.812732E-1,-4.2291444E-2,4.1880727E-2,3.2492343E-1,9.7629654E-1,9.809949E-4,4.5316707E-2,-1.5071407E-2,3.0430227E-3,-8.748586E-2,-8.013502E-3,-8.507983E-4,8.183494E-2,-2.5342468E-2,-8.0975205E-2,-6.8195197E-3,4.4066567E-2,-9.9757E-3,-4.378142E-2,-5.5567652E-2,3.9179757E-2,1.619668E-2,-4.858544E-2,-6.9894634E-2,-1.910451E-2,8.4420085E-2,3.671616E-2,4.317248E-2,-4.5331204E-3,4.07752E-2,-4.9002312E-2,4.334893E-2,-5.637763E-3,-1.14996E-2,7.1202973E-3,-5.113669E-2,1.5324335E-2,-5.2305806E-2,3.2928362E-2,-3.7212835E-3,1.8526167E-2,-1.7873574E-2,-7.896004E-2,3.1716533E-2,-6.368442E-2,-2.3427836E-3,-4.016077E-2,-1.8997742E-2,2.2949304E-2,7.014544E-2,8.194243E-3],"categories":[],"categories_nodes":[],"categories_segments":[],"categories_sizes":[],"default_left":[0,0,0,0,0,0,0,0,0,0,0,0,0,0,0,0,0,0,0,0,0,0,0,0,0,0,0,0,0,0,0,0,0,0,0,0,0,0,0,0,0,0,0,0,0,0,0,0,0,0,0,0,0,0,0,0,0,0,0,0,0,0,0,0,0,0,0,0,0,0,0,0,0,0,0,0,0,0,0,0,0,0,0,0,0,0,0,0,0,0,0,0,0,0,0,0,0,0,0,0,0,0,0,0,0],"id":11,"left_children":[1,3,5,7,9,11,13,15,17,19,21,23,25,27,29,31,33,35,37,39,41,43,45,47,49,51,53,-1,55,-1,57,59,61,63,-1,65,67,69,-1,71,73,75,77,79,81,83,85,87,89,91,93,95,-1,97,99,-1,-1,101,103,-1,-1,-1,-1,-1,-1,-1,-1,-1,-1,-1,-1,-1,-1,-1,-1,-1,-1,-1,-1,-1,-1,-1,-1,-1,-1,-1,-1,-1,-1,-1,-1,-1,-1,-1,-1,-1,-1,-1,-1,-1,-1,-1,-1,-1,-1],"loss_changes":[4.9749683E1,4.0644714E1,2.1051548E1,2.2565973E1,5.651774E1,2.9703836E1,7.4283905E0,3.1513626E1,4.520319E1,3.7870407E1,4.8100853E1,2.207456E1,3.0185863E1,2.1879604E0,1.0025089E1,2.4441738E1,1.7059553E1,3.0832047E1,1.2319241E1,3.4456123E1,2.36568E1,2.3331032E1,3.1497852E1,5.12191E1,6.936523E1,3.3883896E0,2.4291553E1,0E0,3.676453E0,0E0,7.064619E0,4.130876E1,3.647993E1,4.512581E0,0E0,9.406762E0,9.19076E0,1.0649643E1,0E0,2.8778145E1,7.147774E1,2.474474E1,3.6944733E0,1.6670227E-3,1.5897423E1,2.8734383E1,2.623774E1,2.0810682E1,1.4097389E1,2.9026413E1,4.753618E1,1.7866287E0,0E0,1.267639E1,1.1025078E1,0E0,0E0,1.5376215E1,6.3661137E0,0E0,0E0,0E0,0E0,0E0,0E0,0E0,0E0,0E0,0E0,0E0,0E0,0E0,0E0,0E0,0E0,0E0,0E0,0E0,0E0,0E0,0E0,0E0,0E0,0E0,0E0,0E0,0E0,0E0,0E0,0E0,0E0,0E0,0E0,0E0,0E0,0E0,0E0,0E0,0E0,0E0,0E0,0E0,0E0,0E0,0E0],"parents":[2147483647,0,0,1,1,2,2,3,3,4,4,5,5,6,6,7,7,8,8,9,9,10,10,11,11,12,12,13,13,14,14,15,15,16,16,17,17,18,18,19,19,20,20,21,21,22,22,23,23,24,24,25,25,26,26,28,28,30,30,31,31,32,32,33,33,35,35,36,36,37,37,39,39,40,40,41,41,42,42,43,43,44,44,45,45,46,46,47,47,48,48,49,49,50,50,51,51,53,53,54,54,57,57,58,58],"right_children":[2,4,6,8,10,12,14,16,18,20,22,24,26,28,30,32,34,36,38,40,42,44,46,48,50,52,54,-1,56,-1,58,60,62,64,-1,66,68,70,-1,72,74,76,78,80,82,84,86,88,90,92,94,96,-1,98,100,-1,-1,102,104,-1,-1,-1,-1,-1,-1,-1,-1,-1,-1,-1,-1,-1,-1,-1,-1,-1,-1,-1,-1,-1,-1,-1,-1,-1,-1,-1,-1,-1,-1,-1,-1,-1,-1,-1,-1,-1,-1,-1,-1,-1,-1,-1,-1,-1,-1],"split_conditions":[1.9899659E-1,-3.0499047E-1,1.8376706E0,-2.0801622E-1,-2.7607452E-2,1.8625501E0,-4.6795252E-1,-2.1536566E-1,-3.6576328E-1,-1.4577492E-1,-1.0234897E-1,-3.5758016E-1,1.7333535E0,-4.133785E-1,-8.0277026E-1,-1.4697756E0,-3.005262E-1,-4.5576394E-1,-2.7442133E-1,-1.4749211E-1,-1.4548053E-1,1.7025765E-2,-4.9552867E-1,-2.1432796E-1,-1.3285941E-1,2.0426888E0,7.329235E-1,-6.202324E-2,-5.5246264E-1,7.212976E-2,1.4432386E0,-1.5286239E0,-7.821269E-1,2.5380822E-2,5.1264375E-2,-5.755758E-1,-3.9955282E-1,-3.4972727E-1,-5.5325147E-2,-2.3463519E-1,-1.454784E0,-9.097022E-1,3.032071E-1,-8.703422E-2,-1.4052837E-1,-7.795391E-2,-3.9684433E-1,-1.1290728E0,1.3058163E0,2.2865231E-1,6.629066E-1,1.8587273E0,2.0657438E-3,2.1097484E0,2.0426888E0,-4.2291444E-2,4.1880727E-2,-2.989855E-1,-3.5626686E-1,9.809949E-4,4.5316707E-2,-1.5071407E-2,3.0430227E-3,-8.748586E-2,-8.013502E-3,-8.507983E-4,8.183494E-2,-2.5342468E-2,-8.0975205E-2,-6.8195197E-3,4.4066567E-2,-9.9757E-3,-4.378142E-2,-5.5567652E-2,3.9179757E-2,1.619668E-2,-4.858544E-2,-6.9894634E-2,-1.910451E-2,8.4420085E-2,3.671616E-2,4.317248E-2,-4.5331204E-3,4.07752E-2,-4.9002312E-2,4.334893E-2,-5.637763E-3,-1.14996E-2,7.1202973E-3,-5.113669E-2,1.5324335E-2,-5.2305806E-2,3.2928362E-2,-3.7212835E-3,1.8526167E-2,-1.7873574E-2,-7.896004E-2,3.1716533E-2,-6.368442E-2,-2.3427836E-3,-4.016077E-2,-1.8997742E-2,2.2949304E-2,7.014544E-2,8.194243E-3],"split_indices":[11,0,11,13,13,6,10,13,5,0,6,13,13,8,5,0,4,2,6,13,13,13,10,0,5,2,10,0,9,0,10,0,13,10,0,5,4,2,0,13,11,10,10,0,2,5,10,10,11,11,10,1,0,0,2,0,0,5,0,0,0,0,0,0,0,0,0,0,0,0,0,0,0,0,0,0,0,0,0,0,0,0,0,0,0,0,0,0,0,0,0,0,0,0,0,0,0,0,0,0,0,0,0,0,0],"split_type":[0,0,0,0,0,0,0,0,0,0,0,0,0,0,0,0,0,0,0,0,0,0,0,0,0,0,0,0,0,0,0,0,0,0,0,0,0,0,0,0,0,0,0,0,0,0,0,0,0,0,0,0,0,0,0,0,0,0,0,0,0,0,0,0,0,0,0,0,0,0,0,0,0,0,0,0,0,0,0,0,0,0,0,0,0,0,0,0,0,0,0,0,0,0,0,0,0,0,0,0,0,0,0,0,0],"sum_hessian":[6.153639E3,3.536453E3,2.6171865E3,1.756977E3,1.7794757E3,2.4250288E3,1.9215778E2,1.5989128E3,1.5806422E2,4.7867526E2,1.3008005E3,2.2839348E3,1.4109407E2,5.4030867E0,1.8675468E2,1.5792095E3,1.9703327E1,4.5174614E1,1.128896E2,3.4876395E2,1.299113E2,8.68983E1,1.2139022E3,8.620723E2,1.4218624E3,2.3032604E1,1.1806147E2,2.1994221E0,3.2036648E0,8.853694E0,1.7790099E2,2.4279558E2,1.336414E3,1.7458702E1,2.2446249E0,1.2721901E1,3.2452713E1,1.1015219E2,2.7374136E0,2.5624875E2,9.2515205E1,6.034867E1,6.956263E1,1.813458E1,6.8763725E1,7.6233185E1,1.1376691E3,7.941199E2,6.7952484E1,3.0414594E2,1.1177164E3,2.153871E1,1.4938953E0,3.9961514E1,7.809996E1,1.7230127E0,1.4806519E0,1.5986949E2,1.8031504E1,1.6714148E2,7.56541E1,3.9284668E2,9.435672E2,1.5210949E1,2.2477543E0,6.7352033E0,5.9866977E0,2.0221916E1,1.2230797E1,1.118446E1,9.896773E1,1.44766E2,1.1148274E2,2.7530499E1,6.49847E1,2.3488365E1,3.6860306E1,6.4817986E1,4.744643E0,1.5886856E1,2.2477245E0,3.1871222E1,3.68925E1,9.491257E0,6.674193E1,2.7032137E1,1.1106368E3,1.9965038E2,5.944695E2,5.92152E1,8.737289E0,9.471176E0,2.9467477E2,7.6996674E2,3.4774973E2,1.9966078E0,1.9542103E1,3.705757E1,2.90394E0,3.3730606E1,4.436935E1,2.5254028E1,1.3461546E2,1.1346437E1,6.6850657E0],"tree_param":{"num_deleted":"0","num_feature":"14","num_nodes":"105","size_leaf_vector":"1"}},{"base_weights":[1.3886654E-3,4.8102766E-1,-7.7801463E-3,5.714974E-1,-8.157281E-1,-4.2295167E-1,2.1505286E-3,1.2277552E0,4.144019E-1,-1.4018065E-1,-5.949971E-2,-8.641355E-2,-1.1197736E0,6.4335257E-1,-1.1354166E-2,6.728573E-2,2.6741925E-1,6.195123E-2,3.0325884E-1,4.0757325E-2,-5.253024E-2,-3.9827424E-1,3.5617563E-1,3.8495874E-1,-1.3446482E0,4.71541E-1,7.4578196E-2,-6.851067E-1,-5.9610596E-3,-2.5165921E-2,4.304379E-2,7.22262E-1,-5.8285292E-2,3.018398E-1,-9.367573E-1,6.3645357E-1,-8.180734E-2,7.365869E-1,-3.2185692E-2,-1.4444585E0,4.9767297E-2,6.9945794E-1,-1.5473988E0,-2.092222E-1,-1.5203217E0,6.29439E-3,-2.8645784E-1,4.1953925E-2,-2.0506129E-2,1.616361E-2,-5.4056812E-2,-1.0147999E-2,7.162347E-2,2.6772374E-2,-5.74059E-2,4.189273E-2,-7.40997E-2,-7.43135E-3,5.9458483E-2,-5.207951E-2,-8.485725E-2,5.5894792E-2,4.2514405E-3,-5.4589044E-3,-8.617986E-2,9.612548E-3,-4.8080076E-2,-2.3243458E-3,-8.323083E-2,-5.6865806E-4,1.2066635E-2,1.96667E-2,-1.755611E-2],"categories":[],"categories_nodes":[],"categories_segments":[],"categories_sizes":[],"default_left":[0,0,0,0,0,0,0,0,0,0,0,0,0,0,0,0,0,0,0,0,0,0,0,0,0,0,0,0,0,0,0,0,0,0,0,0,0,0,0,0,0,0,0,0,0,0,0,0,0,0,0,0,0,0,0,0,0,0,0,0,0,0,0,0,0,0,0,0,0,0,0,0,0],"id":12,"left_children":[1,3,5,7,9,11,13,15,17,19,-1,21,23,25,27,-1,29,-1,31,-1,-1,33,35,37,39,41,-1,43,45,-1,-1,47,49,51,53,55,-1,57,-1,59,-1,61,63,65,67,69,71,-1,-1,-1,-1,-1,-1,-1,-1,-1,-1,-1,-1,-1,-1,-1,-1,-1,-1,-1,-1,-1,-1,-1,-1,-1,-1],"loss_changes":[2.7035227E1,1.3994349E1,2.487206E1,1.0664711E1,1.8387299E0,3.2951347E1,5.103157E1,1.953743E0,7.7772427E0,4.3018627E0,0E0,1.340805E1,1.6019398E1,1.7012173E1,2.0968819E1,0E0,2.0260684E0,0E0,1.2118014E1,0E0,0E0,2.171745E1,2.3521334E1,2.9097989E0,1.0798279E1,4.827001E1,0E0,1.7896189E1,1.9689293E1,0E0,0E0,5.2382946E0,1.7411228E1,1.4830145E1,1.0690758E1,1.6606735E1,0E0,2.3740768E0,0E0,2.1868668E0,0E0,2.37728E1,2.526781E0,9.353088E0,3.4260292E0,2.2793213E1,1.0678144E1,0E0,0E0,0E0,0E0,0E0,0E0,0E0,0E0,0E0,0E0,0E0,0E0,0E0,0E0,0E0,0E0,0E0,0E0,0E0,0E0,0E0,0E0,0E0,0E0,0E0,0E0],"parents":[2147483647,0,0,1,1,2,2,3,3,4,4,5,5,6,6,7,7,8,8,9,9,11,11,12,12,13,13,14,14,16,16,18,18,21,21,22,22,23,23,24,24,25,25,27,27,28,28,31,31,32,32,33,33,34,34,35,35,37,37,39,39,41,41,42,42,43,43,44,44,45,45,46,46],"right_children":[2,4,6,8,10,12,14,16,18,20,-1,22,24,26,28,-1,30,-1,32,-1,-1,34,36,38,40,42,-1,44,46,-1,-1,48,50,52,54,56,-1,58,-1,60,-1,62,64,66,68,70,72,-1,-1,-1,-1,-1,-1,-1,-1,-1,-1,-1,-1,-1,-1,-1,-1,-1,-1,-1,-1,-1,-1,-1,-1,-1,-1],"split_conditions":[-1.8088044E0,8.2075435E-1,-1.6614E0,-5.284646E-1,-5.8583593E-1,-1.8194757E0,-1.4751495E0,3.2903168E-1,-1.5136942E0,-1.8450458E0,-5.949971E-2,-8.934219E-1,-1.2945642E0,-1.4498706E0,-1.5069753E0,6.728573E-2,1.2995768E-1,6.195123E-2,-1.8329822E0,4.0757325E-2,-5.253024E-2,-1.853194E0,1.6177748E0,-1.7485983E0,6.781546E-1,-1.5112823E0,7.4578196E-2,-1.4595115E0,1.8392162E0,-2.5165921E-2,4.304379E-2,5.440288E-1,-8.720393E-1,1.1895772E0,-5.490407E-1,-1.685846E0,-8.180734E-2,-8.985076E-1,-3.2185692E-2,-5.9114575E-1,4.9767297E-2,-8.292151E-1,-1.8166081E0,-9.8334676E-1,-8.116644E-1,1.4605448E0,-1.2945642E0,4.1953925E-2,-2.0506129E-2,1.616361E-2,-5.4056812E-2,-1.0147999E-2,7.162347E-2,2.6772374E-2,-5.74059E-2,4.189273E-2,-7.40997E-2,-7.43135E-3,5.9458483E-2,-5.207951E-2,-8.485725E-2,5.5894792E-2,4.2514405E-3,-5.4589044E-3,-8.617986E-2,9.612548E-3,-4.8080076E-2,-2.3243458E-3,-8.323083E-2,-5.6865806E-4,1.2066635E-2,1.96667E-2,-1.755611E-2],"split_indices":[5,10,5,3,3,13,0,7,10,5,0,10,3,13,12,0,8,0,6,0,0,13,3,0,10,13,0,0,6,0,0,9,10,3,7,0,0,7,0,10,0,10,6,10,3,13,3,0,0,0,0,0,0,0,0,0,0,0,0,0,0,0,0,0,0,0,0,0,0,0,0,0,0],"split_type":[0,0,0,0,0,0,0,0,0,0,0,0,0,0,0,0,0,0,0,0,0,0,0,0,0,0,0,0,0,0,0,0,0,0,0,0,0,0,0,0,0,0,0,0,0,0,0,0,0,0,0,0,0,0,0,0,0,0,0,0,0,0,0,0,0,0,0,0,0,0,0,0,0],"sum_hessian":[6.145705E3,1.1431273E2,6.031392E3,1.07380486E2,6.9322424E0,1.3992583E2,5.8914663E3,1.9423698E1,8.795679E1,2.9614305E0,3.9708118E0,9.511362E1,4.4812202E1,1.2056178E2,5.770905E3,1.694146E1,2.4822392E0,9.241526E0,7.871526E1,1.4961455E0,1.465285E0,5.585603E1,3.925759E1,5.7336984E0,3.9078503E1,1.0154833E2,1.901345E1,4.4826008E1,5.7260786E3,1.1459067E0,1.3363326E0,3.599823E1,4.271703E1,2.44746E1,3.1381428E1,3.50126E1,4.244991E0,4.484663E0,1.2490354E0,3.784689E1,1.2316151E0,9.183472E1,9.713615E0,2.9352306E1,1.5473703E1,5.487305E3,2.3877347E2,3.2866726E1,3.1315057E0,3.160956E1,1.1107469E1,1.748738E1,6.98722E0,3.7472336E0,2.7634195E1,3.252495E1,2.4876535E0,1.7443881E0,2.740275E0,1.6562572E1,2.1284315E1,5.4142937E1,3.7691776E1,1.2369155E0,8.4767E0,1.9624863E1,9.727444E0,1.4977529E0,1.397595E1,5.1045537E3,3.8275162E2,2.0298662E1,2.1847481E2],"tree_param":{"num_deleted":"0","num_feature":"14","num_nodes":"73","size_leaf_vector":"1"}},{"base_weights":[1.0533369E-3,4.4286704E-1,-7.433939E-3,6.7289203E-1,-1.0656556E-1,-1.0877255E0,-3.1669943E-3,1.2557622E0,4.5494324E-1,-5.003484E-1,7.180591E-1,1.4664996E-1,-1.3032278E0,4.7464636E-3,-3.992744E-1,1.375754E0,-1.333229E-2,6.358678E-1,-2.6402083E-1,3.225574E-1,-9.5375985E-1,1.0298159E0,-2.8433561E-2,3.454357E-2,-3.5097774E-2,-8.326043E-2,-8.802009E-1,2.0216243E-2,-1.593326E-1,-6.071428E-1,-2.4996107E-2,7.310471E-2,-1.1789262E-3,8.677828E-1,1.0063001E-1,7.7589077E-1,-1.0121872E0,6.484579E-2,-5.160944E-1,-1.1544647E0,1.4973558E-1,-1.1615466E-3,5.886203E-2,2.2474885E-2,-1.1622455E0,-5.344047E-2,6.0816523E-2,1.0286195E-1,-2.9887357E-1,7.408662E-1,-7.228941E-1,8.043546E-1,-5.8326215E-1,5.7212394E-2,1.3809658E-3,4.9706753E-2,-8.38312E-3,5.623554E-2,-9.5194215E-3,1.5291685E-2,-6.332891E-2,-6.547525E-2,3.7397914E-2,-6.4092994E-2,-2.248792E-2,2.8170222E-2,-1.6549373E-2,-7.058717E-2,1.5449374E-2,-1.9335018E-2,-2.082013E-3,2.8441863E-3,4.20097E-2,-3.0631046E-3,4.9290784E-2,-7.966354E-2,-1.3312787E-2,-5.8387306E-2,7.7362515E-2,-7.173622E-2,-2.8029924E-2,-2.5183966E-2,4.9839184E-2,3.4649584E-2,-4.0361248E-2],"categories":[],"categories_nodes":[],"categories_segments":[],"categories_sizes":[],"default_left":[0,0,0,0,0,0,0,0,0,0,0,0,0,0,0,0,0,0,0,0,0,0,0,0,0,0,0,0,0,0,0,0,0,0,0,0,0,0,0,0,0,0,0,0,0,0,0,0,0,0,0,0,0,0,0,0,0,0,0,0,0,0,0,0,0,0,0,0,0,0,0,0,0,0,0,0,0,0,0,0,0,0,0,0,0],"id":13,"left_children":[1,3,5,7,9,11,13,15,17,19,21,23,25,27,29,31,-1,33,35,37,39,41,-1,-1,-1,-1,43,45,47,49,51,-1,-1,53,55,57,59,-1,61,63,65,-1,-1,-1,67,69,71,73,75,77,79,81,83,-1,-1,-1,-1,-1,-1,-1,-1,-1,-1,-1,-1,-1,-1,-1,-1,-1,-1,-1,-1,-1,-1,-1,-1,-1,-1,-1,-1,-1,-1,-1,-1],"loss_changes":[2.3123814E1,1.4761196E1,2.7886974E1,9.854027E0,1.1777753E1,6.522621E0,1.8896446E1,4.343113E0,8.141579E0,9.407298E0,5.3092885E0,2.5339184E0,1.6527367E0,1.5006163E1,9.171242E0,2.4917908E0,0E0,6.02833E0,1.0923775E1,8.359694E0,3.7114267E0,1.5541153E0,0E0,0E0,0E0,0E0,4.8398037E0,1.6158823E1,1.8667145E1,1.2374109E1,2.0472868E1,0E0,0E0,7.9222183E0,4.0082693E0,2.2427044E0,3.073885E0,0E0,6.7694464E0,6.4740753E-1,8.514534E-1,0E0,0E0,0E0,4.024804E0,7.535178E0,1.062845E1,2.5807627E1,1.3622578E1,1.1800993E1,7.3262444E0,4.9830065E0,8.1060505E0,0E0,0E0,0E0,0E0,0E0,0E0,0E0,0E0,0E0,0E0,0E0,0E0,0E0,0E0,0E0,0E0,0E0,0E0,0E0,0E0,0E0,0E0,0E0,0E0,0E0,0E0,0E0,0E0,0E0,0E0,0E0,0E0],"parents":[2147483647,0,0,1,1,2,2,3,3,4,4,5,5,6,6,7,7,8,8,9,9,10,10,11,11,12,12,13,13,14,14,15,15,17,17,18,18,19,19,20,20,21,21,26,26,27,27,28,28,29,29,30,30,33,33,34,34,35,35,36,36,38,38,39,39,40,40,44,44,45,45,46,46,47,47,48,48,49,49,50,50,51,51,52,52],"right_children":[2,4,6,8,10,12,14,16,18,20,22,24,26,28,30,32,-1,34,36,38,40,42,-1,-1,-1,-1,44,46,48,50,52,-1,-1,54,56,58,60,-1,62,64,66,-1,-1,-1,68,70,72,74,76,78,80,82,84,-1,-1,-1,-1,-1,-1,-1,-1,-1,-1,-1,-1,-1,-1,-1,-1,-1,-1,-1,-1,-1,-1,-1,-1,-1,-1,-1,-1,-1,-1,-1,-1],"split_conditions":[-1.8099754E0,-1.7252681E0,-1.8328233E0,-1.8510877E0,-1.6023651E0,-7.215393E-1,1.9376827E0,1.122572E0,-1.8194757E0,-5.8583593E-1,7.861094E-1,-1.6001382E-1,-1.7758975E0,1.3981789E0,2.1010904E0,9.65316E-1,-1.333229E-2,-1.7979771E0,-1.8600249E0,-1.8450458E0,7.2450686E-1,-7.945248E-1,-2.8433561E-2,3.454357E-2,-3.5097774E-2,-8.326043E-2,-1.8194757E0,-5.2961457E-1,-3.6496535E-1,1.8074514E0,2.407051E0,7.310471E-2,-1.1789262E-3,-1.6739048E-1,-1.8165205E0,8.1385845E-1,-8.671369E-1,6.484579E-2,-1.82844E0,8.1163615E-1,-4.9313754E-1,-1.1615466E-3,5.886203E-2,2.2474885E-2,-1.2552236E-4,-1.62916E0,5.2065015E0,-4.3639553E-1,-4.0112102E-1,1.9669639E0,1.8625501E0,2.0638878E0,2.3759482E0,5.7212394E-2,1.3809658E-3,4.9706753E-2,-8.38312E-3,5.623554E-2,-9.5194215E-3,1.5291685E-2,-6.332891E-2,-6.547525E-2,3.7397914E-2,-6.4092994E-2,-2.248792E-2,2.8170222E-2,-1.6549373E-2,-7.058717E-2,1.5449374E-2,-1.9335018E-2,-2.082013E-3,2.8441863E-3,4.20097E-2,-3.0631046E-3,4.9290784E-2,-7.966354E-2,-1.3312787E-2,-5.8387306E-2,7.7362515E-2,-7.173622E-2,-2.8029924E-2,-2.5183966E-2,4.9839184E-2,3.4649584E-2,-4.0361248E-2],"split_indices":[2,13,12,0,13,8,12,3,13,3,3,3,2,3,4,7,0,6,2,5,7,8,0,0,0,0,13,8,12,0,2,0,0,8,2,8,3,0,4,3,9,0,0,0,9,12,8,12,13,12,6,2,5,0,0,0,0,0,0,0,0,0,0,0,0,0,0,0,0,0,0,0,0,0,0,0,0,0,0,0,0,0,0,0,0],"split_type":[0,0,0,0,0,0,0,0,0,0,0,0,0,0,0,0,0,0,0,0,0,0,0,0,0,0,0,0,0,0,0,0,0,0,0,0,0,0,0,0,0,0,0,0,0,0,0,0,0,0,0,0,0,0,0,0,0,0,0,0,0,0,0,0,0,0,0,0,0,0,0,0,0,0,0,0,0,0,0,0,0,0,0,0,0],"sum_hessian":[6.1648105E3,1.15229744E2,6.0495806E3,8.106601E1,3.4163734E1,2.280169E1,6.026779E3,2.0766773E1,6.0299236E1,2.3388344E1,1.0775388E1,3.4366136E0,1.9365076E1,5.9097026E3,1.17076385E2,1.9338871E1,1.427903E0,4.8268288E1,1.203095E1,8.41123E0,1.4977114E1,8.834561E0,1.9408264E0,2.2070677E0,1.229546E0,8.853119E0,1.0511956E1,5.4013286E3,5.083738E2,7.487165E1,4.220473E1,1.8172743E1,1.1661276E0,3.3243008E1,1.5025283E1,5.0184765E0,7.012473E0,3.638054E0,4.7731767E0,1.2633187E1,2.3439264E0,1.1883881E0,7.6461735E0,1.7356284E0,8.776328E0,1.9192052E3,3.4821235E3,1.7667259E2,3.317012E2,5.4936414E0,6.9378006E1,1.6802464E1,2.540227E1,2.4740076E1,8.50293E0,2.8450115E0,1.2180271E1,3.5668926E0,1.4515836E0,1.101789E0,5.9106836E0,2.910426E0,1.8627506E0,1.0005432E1,2.6277556E0,1.1673831E0,1.1765432E0,7.538374E0,1.2379539E0,6.454565E1,1.8546595E3,3.4657083E3,1.6415247E1,1.4976482E2,2.690777E1,6.9771085E0,3.247241E2,1.4985741E0,3.9950674E0,1.142549E1,5.795252E1,1.9474202E0,1.4855043E1,3.4795873E0,2.1922682E1],"tree_param":{"num_deleted":"0","num_feature":"14","num_nodes":"85","size_leaf_vector":"1"}},{"base_weights":[-2.2723917E-3,-1.1384509E-1,6.513104E-2,-3.903748E-1,-6.0301933E-2,7.203301E-1,5.2178726E-2,-9.3306726E-1,-2.9129383E-1,1.1299894E-1,-2.1308808E-1,4.322519E-1,1.4825871E0,7.157741E-1,3.9524842E-2,5.712376E-1,-1.110947E0,-1.2015041E-1,-7.535515E-1,4.6240523E-1,4.058828E-2,-7.4185157E-1,-1.1579871E-1,8.5894585E-1,-7.189634E-1,8.792597E-2,1.0302052E0,8.378096E-1,-6.988047E-2,-1.0375397E0,4.8001207E-2,1.2514116E0,-4.364526E-2,2.0625226E-1,-1.4260955E0,6.378213E-1,-1.8664268E-1,-3.9406216E-1,-1.4091729E0,5.3912485E-1,-9.8492223E-1,8.575184E-2,-6.075156E-1,8.403646E-2,-8.5498136E-1,-8.3694056E-2,-1.1661531E0,-1.8552276E-1,1.1495341E0,-1.3953457E0,3.6448616E-1,-4.054315E-2,6.966767E-2,1.085442E0,3.3908606E-1,4.002597E-1,-1.2505579E0,2.8020116E-2,4.0643445E-1,7.57281E-2,1.2823159E-2,-6.920602E-2,5.65872E-2,-7.8631625E-2,4.010821E-2,4.7445122E-2,-1.5300942E-2,-1.9043973E-2,7.093267E-3,-4.1058324E-2,1.1642516E-2,-2.071352E-2,-7.889499E-2,4.2321377E-2,1.2602458E-2,-8.2032375E-2,5.864652E-2,-2.3193883E-2,6.853107E-3,5.7759117E-3,-5.1074266E-2,5.3042215E-3,-5.3337242E-2,-2.7905101E-2,-9.7039965E-4,-3.618859E-2,-8.0414E-2,6.900774E-2,-4.5779623E-2,4.4947553E-2,8.8208E-2,-6.631165E-4,-8.751307E-2,5.5220027E-2,-3.8607426E-2,5.4017384E-2,-5.7171233E-2,2.7919654E-2,6.496981E-2,-3.5769925E-2,3.445095E-2,-2.0870028E-2,4.7460042E-2,-2.4423584E-2,-7.989079E-2,2.408708E-3,-1.8541463E-2,1.4063105E-2,3.8454514E-2],"categories":[],"categories_nodes":[],"categories_segments":[],"categories_sizes":[],"default_left":[0,0,0,0,0,0,0,0,0,0,0,0,0,0,0,0,0,0,0,0,0,0,0,0,0,0,0,0,0,0,0,0,0,0,0,0,0,0,0,0,0,0,0,0,0,0,0,0,0,0,0,0,0,0,0,0,0,0,0,0,0,0,0,0,0,0,0,0,0,0,0,0,0,0,0,0,0,0,0,0,0,0,0,0,0,0,0,0,0,0,0,0,0,0,0,0,0,0,0,0,0,0,0,0,0,0,0,0,0],"id":14,"left_children":[1,3,5,7,9,11,13,15,17,19,21,23,25,27,29,31,33,35,37,39,41,43,45,47,49,-1,51,53,-1,55,57,59,-1,61,63,65,67,69,71,73,75,77,79,-1,81,83,85,87,89,91,93,95,-1,97,99,101,103,105,107,-1,-1,-1,-1,-1,-1,-1,-1,-1,-1,-1,-1,-1,-1,-1,-1,-1,-1,-1,-1,-1,-1,-1,-1,-1,-1,-1,-1,-1,-1,-1,-1,-1,-1,-1,-1,-1,-1,-1,-1,-1,-1,-1,-1,-1,-1,-1,-1,-1,-1],"loss_changes":[4.6259754E1,3.4276505E1,3.250479E1,1.9924694E1,5.144385E1,1.5665485E1,3.1556547E1,1.6029987E1,2.5151918E1,2.3019028E1,5.3025185E1,2.7783188E1,6.7934036E-1,1.9308216E1,3.3757103E1,7.7170734E0,2.17929E1,1.1914914E1,1.9719246E1,1.7876698E1,2.2161541E1,4.5357506E1,2.9346796E1,1.259758E1,1.1866792E1,0E0,3.9351425E0,7.920124E0,0E0,9.343897E0,2.6231333E1,9.1957426E-1,0E0,1.7569422E1,1.4948563E1,5.8989873E0,1.3833206E1,1.5439134E1,4.395027E0,1.2930965E1,1.35517E1,2.0002522E1,1.4883564E1,0E0,3.1407845E1,2.5861982E1,3.886074E0,1.2399676E1,3.3520126E0,4.7590256E0,6.529524E0,5.559522E0,0E0,4.280018E0,9.245907E0,2.4085305E0,5.9388123E0,2.7925789E1,8.563189E0,0E0,0E0,0E0,0E0,0E0,0E0,0E0,0E0,0E0,0E0,0E0,0E0,0E0,0E0,0E0,0E0,0E0,0E0,0E0,0E0,0E0,0E0,0E0,0E0,0E0,0E0,0E0,0E0,0E0,0E0,0E0,0E0,0E0,0E0,0E0,0E0,0E0,0E0,0E0,0E0,0E0,0E0,0E0,0E0,0E0,0E0,0E0,0E0,0E0,0E0],"parents":[2147483647,0,0,1,1,2,2,3,3,4,4,5,5,6,6,7,7,8,8,9,9,10,10,11,11,12,12,13,13,14,14,15,15,16,16,17,17,18,18,19,19,20,20,21,21,22,22,23,23,24,24,26,26,27,27,29,29,30,30,31,31,33,33,34,34,35,35,36,36,37,37,38,38,39,39,40,40,41,41,42,42,44,44,45,45,46,46,47,47,48,48,49,49,50,50,51,51,53,53,54,54,55,55,56,56,57,57,58,58],"right_children":[2,4,6,8,10,12,14,16,18,20,22,24,26,28,30,32,34,36,38,40,42,44,46,48,50,-1,52,54,-1,56,58,60,-1,62,64,66,68,70,72,74,76,78,80,-1,82,84,86,88,90,92,94,96,-1,98,100,102,104,106,108,-1,-1,-1,-1,-1,-1,-1,-1,-1,-1,-1,-1,-1,-1,-1,-1,-1,-1,-1,-1,-1,-1,-1,-1,-1,-1,-1,-1,-1,-1,-1,-1,-1,-1,-1,-1,-1,-1,-1,-1,-1,-1,-1,-1,-1,-1,-1,-1,-1,-1],"split_conditions":[-3.1181955E-1,-8.794126E-1,-2.7576554E-1,-1.5912375E0,-3.092726E-1,8.9153814E-1,-1.7877065E0,-1.0927076E0,3.5742185E-1,-6.8266326E-1,-1.4749211E-1,-5.1596407E-2,-2.8944102E-1,-1.7273735E0,-1.7656336E0,-6.8429166E-1,-1.4364512E0,-1.7979771E0,-6.7240876E-1,-2.8760764E-1,1.3757058E0,-4.6860388E-1,1.8299311E0,-2.8944102E-1,4.293159E-3,8.792597E-2,9.2725444E-1,3.8240737E-1,-6.988047E-2,-1.7979771E0,1.8376706E0,4.827188E-1,-4.364526E-2,-1.5286239E0,-4.1235708E-2,-1.809193E0,-4.4830889E-1,-9.92857E-1,-1.4721676E0,-8.8202316E-1,-1.8887453E-1,-5.9987575E-1,-8.208429E-1,8.403646E-2,-7.9158175E-1,-1.7747144E0,-2.3923148E-1,-5.501679E-1,-2.0635423E-1,-1.7854983E0,-2.3923148E-1,-7.650948E-1,6.966767E-2,-1.00746386E-1,4.4136873E-1,3.5336715E-1,-7.1961015E-1,1.8625501E0,1.1913866E0,7.57281E-2,1.2823159E-2,-6.920602E-2,5.65872E-2,-7.8631625E-2,4.010821E-2,4.7445122E-2,-1.5300942E-2,-1.9043973E-2,7.093267E-3,-4.1058324E-2,1.1642516E-2,-2.071352E-2,-7.889499E-2,4.2321377E-2,1.2602458E-2,-8.2032375E-2,5.864652E-2,-2.3193883E-2,6.853107E-3,5.7759117E-3,-5.1074266E-2,5.3042215E-3,-5.3337242E-2,-2.7905101E-2,-9.7039965E-4,-3.618859E-2,-8.0414E-2,6.900774E-2,-4.5779623E-2,4.4947553E-2,8.8208E-2,-6.631165E-4,-8.751307E-2,5.5220027E-2,-3.8607426E-2,5.4017384E-2,-5.7171233E-2,2.7919654E-2,6.496981E-2,-3.5769925E-2,3.445095E-2,-2.0870028E-2,4.7460042E-2,-2.4423584E-2,-7.989079E-2,2.408708E-3,-1.8541463E-2,1.4063105E-2,3.8454514E-2],"split_indices":[11,10,11,11,0,10,2,10,3,10,13,0,11,0,5,6,0,6,11,6,3,13,0,11,10,0,10,11,0,6,11,7,0,0,2,0,6,11,10,11,13,10,5,0,10,11,3,0,6,3,3,0,0,11,11,11,3,6,0,0,0,0,0,0,0,0,0,0,0,0,0,0,0,0,0,0,0,0,0,0,0,0,0,0,0,0,0,0,0,0,0,0,0,0,0,0,0,0,0,0,0,0,0,0,0,0,0,0,0],"split_type":[0,0,0,0,0,0,0,0,0,0,0,0,0,0,0,0,0,0,0,0,0,0,0,0,0,0,0,0,0,0,0,0,0,0,0,0,0,0,0,0,0,0,0,0,0,0,0,0,0,0,0,0,0,0,0,0,0,0,0,0,0,0,0,0,0,0,0,0,0,0,0,0,0,0,0,0,0,0,0,0,0,0,0,0,0,0,0,0,0,0,0,0,0,0,0,0,0,0,0,0,0,0,0,0,0,0,0,0,0],"sum_hessian":[6.1492637E3,2.3155884E3,3.8336755E3,3.746054E2,1.9409829E3,7.325824E1,3.7604172E3,5.6534412E1,3.1807098E2,9.095581E2,1.0314248E3,5.4302773E1,1.8955467E1,6.932468E1,3.6910925E3,5.7442985E0,5.0790115E1,2.3304848E2,8.5022514E1,1.5521355E2,7.543446E2,1.592551E2,8.7216974E2,3.980359E1,1.4499183E1,9.980543E0,8.974924E0,6.611074E1,3.2139387E0,2.7873646E1,3.6632188E3,3.9957876E0,1.7485108E0,9.87248E0,4.0917633E1,1.8102175E1,2.1494629E2,5.594687E1,2.9075647E1,1.4799611E2,7.21744E0,7.0601324E2,4.833133E1,6.4869013E0,1.5276819E2,8.4734973E2,2.4820032E1,8.742339E0,3.1061249E1,8.749266E0,5.749917E0,2.4979708E0,6.476953E0,4.3389843E1,2.2720896E1,3.4833364E0,2.4390308E1,3.4708142E3,1.924046E2,2.746993E0,1.2487946E0,3.4494195E0,6.423061E0,3.8668884E1,2.2487473E0,1.3610811E1,4.491363E0,1.3497832E2,7.996798E1,3.309201E1,2.2854856E1,4.717E0,2.4358646E1,7.0538795E1,7.745731E1,5.719187E0,1.4982532E0,5.959529E1,6.4641797E2,1.7859364E1,3.0471964E1,2.7673594E1,1.25094604E2,1.0020338E2,7.471463E2,1.372458E1,1.1095452E1,2.4969788E0,6.2453604E0,2.3814623E1,7.246626E0,1.9996722E0,6.7495937E0,3.4999294E0,2.2499876E0,1.2490036E0,1.2489673E0,1.3570506E1,2.9819336E1,5.401047E0,1.7319849E1,1.4954523E0,1.9878843E0,8.38825E0,1.600206E1,3.304705E3,1.6610905E2,1.4435527E2,4.8049335E1],"tree_param":{"num_deleted":"0","num_feature":"14","num_nodes":"109","size_leaf_vector":"1"}},{"base_weights":[-5.054477E-3,-8.51103E-2,1.0268375E-1,-5.598165E-2,-5.0179636E-1,2.52444E-1,4.2993173E-2,6.342572E-2,-1.6839935E-1,9.901038E-1,-5.318243E-1,8.702887E-1,2.0774394E-1,1.13112135E-2,3.7137005E-1,-1.7436162E-2,2.622364E-1,-4.4521084E-1,-5.9364703E-2,6.411346E-2,3.0060958E-3,-1.1906517E0,-4.2484176E-1,9.52701E-2,1.0086515E0,3.080046E-2,3.2745478E-1,4.0762216E-2,-5.1028556E-1,2.951847E-1,1.012249E0,3.9352387E-2,-8.803629E-1,5.822843E-1,1.2567104E-1,-2.7521375E-1,-9.3005073E-1,6.1078006E-1,-1.0353728E-1,-4.0102676E-1,-1.3441687E0,9.2564785E-1,-5.437227E-1,3.207994E-1,-3.4642596E-2,1.1869366E0,5.4421026E-1,1.8791772E-1,-2.6858476E-1,1.2044291E0,2.1782267E-1,-1.34227555E-2,3.021665E-1,-7.604345E-2,-3.05177E-1,5.0353044E-1,2.9764097E-2,1.2901446E0,-2.8982759E-2,-2.6513485E-3,1.2829329E-2,-6.340247E-2,3.4924623E-2,4.6637174E-2,-1.6738877E-2,-1.985296E-2,1.1724387E-2,-2.284695E-2,1.410296E-2,-2.4168639E-2,-6.557368E-2,8.148425E-2,1.5185334E-2,-7.018157E-2,-4.0040286E-3,-5.8913726E-2,6.592111E-3,-6.945682E-2,-2.3053762E-2,6.2842645E-2,5.126843E-3,-1.5419474E-3,-3.329648E-2,-3.221737E-2,3.1008398E-2,6.1373085E-2,7.162941E-3,-4.2696524E-2,4.4727277E-2,1.1172034E-3,3.3949617E-2,-2.353808E-2,5.3019762E-2,1.27653945E-2,6.836837E-2,-1.0097283E-2,1.649596E-2,5.7692705E-3,-8.901904E-3,3.3910118E-2,3.2232713E-3,6.014046E-3,-4.364327E-2,6.940591E-4,4.7019627E-2,-2.1645853E-2,3.6175165E-2,6.972563E-2,3.5854285E-3],"categories":[],"categories_nodes":[],"categories_segments":[],"categories_sizes":[],"default_left":[0,0,0,0,0,0,0,0,0,0,0,0,0,0,0,0,0,0,0,0,0,0,0,0,0,0,0,0,0,0,0,0,0,0,0,0,0,0,0,0,0,0,0,0,0,0,0,0,0,0,0,0,0,0,0,0,0,0,0,0,0,0,0,0,0,0,0,0,0,0,0,0,0,0,0,0,0,0,0,0,0,0,0,0,0,0,0,0,0,0,0,0,0,0,0,0,0,0,0,0,0,0,0,0,0,0,0,0,0],"id":15,"left_children":[1,3,5,7,9,11,13,15,17,19,21,23,25,27,29,31,33,35,37,-1,-1,39,41,43,45,47,49,51,53,55,57,59,61,63,65,67,69,71,73,75,77,79,81,83,-1,85,87,89,91,93,95,97,99,-1,101,103,105,107,-1,-1,-1,-1,-1,-1,-1,-1,-1,-1,-1,-1,-1,-1,-1,-1,-1,-1,-1,-1,-1,-1,-1,-1,-1,-1,-1,-1,-1,-1,-1,-1,-1,-1,-1,-1,-1,-1,-1,-1,-1,-1,-1,-1,-1,-1,-1,-1,-1,-1,-1],"loss_changes":[5.2946003E1,4.271673E1,2.3382223E1,4.4210766E1,1.0829197E1,2.0410164E1,1.9474669E1,2.5685608E1,5.1170822E1,1.2507243E0,1.5429626E1,5.2643127E0,1.4744978E1,2.6267546E1,7.74354E0,5.572911E1,2.0116863E1,3.923964E1,3.6121178E1,0E0,0E0,3.2223854E0,3.1980183E1,1.7645042E0,2.857563E0,1.3324788E1,3.9674442E1,2.292467E1,1.847931E1,8.203974E0,8.307615E0,2.1432184E1,4.3866287E1,4.462655E1,1.8582747E1,3.620273E1,2.0488739E1,2.3118086E1,3.4763367E1,2.8374982E0,3.7425232E-1,4.2963915E0,1.1313347E1,2.5463092E0,0E0,1.0815048E0,7.417281E0,1.5080843E1,2.670667E1,6.7549057E0,1.7497803E1,2.8461811E1,2.479437E1,0E0,1.8756392E1,1.7784874E1,2.16339E1,1.7895565E0,0E0,0E0,0E0,0E0,0E0,0E0,0E0,0E0,0E0,0E0,0E0,0E0,0E0,0E0,0E0,0E0,0E0,0E0,0E0,0E0,0E0,0E0,0E0,0E0,0E0,0E0,0E0,0E0,0E0,0E0,0E0,0E0,0E0,0E0,0E0,0E0,0E0,0E0,0E0,0E0,0E0,0E0,0E0,0E0,0E0,0E0,0E0,0E0,0E0,0E0,0E0],"parents":[2147483647,0,0,1,1,2,2,3,3,4,4,5,5,6,6,7,7,8,8,9,9,10,10,11,11,12,12,13,13,14,14,15,15,16,16,17,17,18,18,21,21,22,22,23,23,24,24,25,25,26,26,27,27,28,28,29,29,30,30,31,31,32,32,33,33,34,34,35,35,36,36,37,37,38,38,39,39,40,40,41,41,42,42,43,43,45,45,46,46,47,47,48,48,49,49,50,50,51,51,52,52,54,54,55,55,56,56,57,57],"right_children":[2,4,6,8,10,12,14,16,18,20,22,24,26,28,30,32,34,36,38,-1,-1,40,42,44,46,48,50,52,54,56,58,60,62,64,66,68,70,72,74,76,78,80,82,84,-1,86,88,90,92,94,96,98,100,-1,102,104,106,108,-1,-1,-1,-1,-1,-1,-1,-1,-1,-1,-1,-1,-1,-1,-1,-1,-1,-1,-1,-1,-1,-1,-1,-1,-1,-1,-1,-1,-1,-1,-1,-1,-1,-1,-1,-1,-1,-1,-1,-1,-1,-1,-1,-1,-1,-1,-1,-1,-1,-1,-1],"split_conditions":[1.9899659E-1,1.3757058E0,-4.0710106E-1,-2.901647E-1,-1.853194E0,-1.4506066E0,1.8376706E0,-3.5724056E-1,-2.7607452E-2,3.2903168E-1,-8.6354524E-1,-4.323722E-1,-3.1928536E-1,1.8625501E0,1.4432386E0,-4.3916172E-1,-3.8697696E-1,-1.4577492E-1,-1.0234897E-1,6.411346E-2,3.0060958E-3,-1.408398E-1,-7.637107E-1,-7.0698017E-1,1.5840129E0,-4.2769727E-1,-1.4942038E-1,7.161713E-1,1.7333535E0,4.1784728E-1,1.8518035E0,-5.209635E-1,-1.0754518E-1,1.5677547E-2,-3.6094165E-1,-1.4749211E-1,-1.4548053E-1,1.7025765E-2,-4.077658E-2,-1.2878349E0,8.78194E-1,-2.7576554E-1,-7.094164E-1,-9.580416E-1,-3.4642596E-2,-4.6019095E-1,1.6833229E0,-5.634546E-1,1.3449379E0,2.6913872E-1,-1.2015525E-1,-5.0089645E-1,9.4551075E-1,-7.604345E-2,4.497239E-1,2.0890303E0,1.1913866E0,1.3565973E0,-2.8982759E-2,-2.6513485E-3,1.2829329E-2,-6.340247E-2,3.4924623E-2,4.6637174E-2,-1.6738877E-2,-1.985296E-2,1.1724387E-2,-2.284695E-2,1.410296E-2,-2.4168639E-2,-6.557368E-2,8.148425E-2,1.5185334E-2,-7.018157E-2,-4.0040286E-3,-5.8913726E-2,6.592111E-3,-6.945682E-2,-2.3053762E-2,6.2842645E-2,5.126843E-3,-1.5419474E-3,-3.329648E-2,-3.221737E-2,3.1008398E-2,6.1373085E-2,7.162941E-3,-4.2696524E-2,4.4727277E-2,1.1172034E-3,3.3949617E-2,-2.353808E-2,5.3019762E-2,1.27653945E-2,6.836837E-2,-1.0097283E-2,1.649596E-2,5.7692705E-3,-8.901904E-3,3.3910118E-2,3.2232713E-3,6.014046E-3,-4.364327E-2,6.940591E-4,4.7019627E-2,-2.1645853E-2,3.6175165E-2,6.972563E-2,3.5854285E-3],"split_indices":[11,3,3,6,13,7,11,12,13,7,10,12,13,6,10,0,0,0,6,0,0,7,10,3,4,5,0,10,13,10,3,13,10,10,2,13,13,13,12,10,7,11,6,10,0,3,5,13,11,11,13,10,10,0,3,11,0,0,0,0,0,0,0,0,0,0,0,0,0,0,0,0,0,0,0,0,0,0,0,0,0,0,0,0,0,0,0,0,0,0,0,0,0,0,0,0,0,0,0,0,0,0,0,0,0,0,0,0,0],"split_type":[0,0,0,0,0,0,0,0,0,0,0,0,0,0,0,0,0,0,0,0,0,0,0,0,0,0,0,0,0,0,0,0,0,0,0,0,0,0,0,0,0,0,0,0,0,0,0,0,0,0,0,0,0,0,0,0,0,0,0,0,0,0,0,0,0,0,0,0,0,0,0,0,0,0,0,0,0,0,0,0,0,0,0,0,0,0,0,0,0,0,0,0,0,0,0,0,0,0,0,0,0,0,0,0,0,0,0,0,0],"sum_hessian":[6.136602E3,3.5207146E3,2.6158875E3,3.2917383E3,2.2897626E2,7.4457135E2,1.871316E3,1.5964565E3,1.6952819E3,3.8869176E0,2.2508934E2,4.8988068E1,6.955833E2,1.7076003E3,1.6371567E2,1.1355206E3,4.6093588E2,4.7819138E2,1.2170905E3,2.6694622E0,1.2174553E0,3.0029596E1,1.9505975E2,7.676706E0,4.1311363E1,2.812006E2,4.1438272E2,1.6172095E3,9.03909E1,1.476269E2,1.6088757E1,1.0663025E3,6.9218155E1,1.3688202E2,3.2405386E2,3.5521255E2,1.2297883E2,7.447028E1,1.1426202E3,5.4759493E0,2.4553646E1,1.523245E1,1.798273E2,6.429729E0,1.2469766E0,2.8727947E1,1.2583415E1,1.8466222E2,9.653835E1,4.493671E1,3.69446E2,1.3403291E3,2.7688037E2,1.4168219E1,7.622269E1,8.220319E1,6.5423706E1,1.3858981E1,2.2297761E0,7.486803E2,3.176222E2,5.5730453E1,1.34876995E1,9.902289E1,3.7859135E1,5.5378666E1,2.6867517E2,2.6799887E2,8.721367E1,5.7688297E1,6.529053E1,1.6248556E1,5.822173E1,1.9207378E1,1.1234128E3,1.7346225E0,3.7413268E0,2.2818668E1,1.7349792E0,1.0486085E1,4.746365E0,3.4844143E1,1.4498315E2,1.2493956E0,5.1803336E0,2.748465E1,1.2432978E0,2.23327E0,1.0350145E1,1.3888158E2,4.5780643E1,8.435175E1,1.2186602E1,6.960193E0,3.797652E1,7.7696E1,2.9175003E2,7.521141E2,5.8821497E2,1.06518364E2,1.7036201E2,4.4019836E1,3.2202847E1,3.9246365E1,4.2956833E1,3.9473373E1,2.5950335E1,1.263241E1,1.2265711E0],"tree_param":{"num_deleted":"0","num_feature":"14","num_nodes":"109","size_leaf_vector":"1"}},{"base_weights":[6.4066905E-3,-6.529552E-2,1.0282302E-1,4.4764277E-2,-1.5917423E-1,2.1665314E-1,1.8933875E-2,8.087138E-2,-3.758563E-1,-1.3415519E0,-1.3420096E-1,-1.9578807E-1,2.5076166E-1,-9.3371124E-4,7.6277655E-1,1.6720591E-3,3.2681787E-1,1.0997725E0,-4.4279644E-1,-6.610148E-1,-8.5722975E-2,-1.9929698E-1,1.3373922E-1,1.0526867E0,-4.4456762E-1,4.1951898E-1,1.5754056E-1,-5.800663E-2,2.1261688E-1,9.696678E-1,-2.0063353E-1,5.6650493E-2,-8.5114074E-1,-7.8070694E-1,3.8074574E-1,6.677453E-2,1.1717389E-2,-9.9522686E-1,-2.6731223E-1,-1.2287142E0,7.746637E-1,-3.5982192E-1,-7.17043E-2,1.2400365E0,4.2753518E-2,-8.595779E-2,1.389895E0,-3.0307183E-1,-7.882487E-2,-7.2826065E-2,5.073546E-1,-8.7646043E-1,1.9774477E-1,7.042031E-2,-1.9545983E-1,4.4503307E-1,-1.252175E-1,1.1348059E0,3.192827E-1,5.569185E-2,-1.0441198E0,-1.9350204E-3,1.2789666E-2,-5.9602525E-2,3.8569156E-2,6.0163986E-2,-6.636089E-2,5.1966812E-2,1.2314941E-2,3.4558605E-2,-5.473722E-2,1.7218653E-2,-2.7481362E-2,2.8188403E-3,-7.1344264E-2,6.773665E-2,-9.625118E-3,-3.3995043E-2,-9.351146E-3,-4.167717E-4,-2.7868822E-2,-1.39138205E-2,6.922429E-2,-1.9761099E-2,1.1918218E-2,4.4964485E-2,-5.6863647E-2,7.667142E-2,1.3330981E-2,-2.478054E-2,4.0489364E-2,7.0276097E-3,-2.3749655E-2,1.6189924E-2,3.8047332E-2,6.349122E-2,-5.8413353E-2,-3.4666415E-3,1.762509E-2,-4.851402E-2,4.8948377E-3,-2.1738283E-2,-7.726713E-4,1.0628944E-2,5.7888787E-2,-3.6796305E-2,3.5596888E-3,6.78989E-2,2.5170987E-2,-3.64987E-2,4.2975996E-2,-1.0366066E-2,-7.011264E-2],"categories":[],"categories_nodes":[],"categories_segments":[],"categories_sizes":[],"default_left":[0,0,0,0,0,0,0,0,0,0,0,0,0,0,0,0,0,0,0,0,0,0,0,0,0,0,0,0,0,0,0,0,0,0,0,0,0,0,0,0,0,0,0,0,0,0,0,0,0,0,0,0,0,0,0,0,0,0,0,0,0,0,0,0,0,0,0,0,0,0,0,0,0,0,0,0,0,0,0,0,0,0,0,0,0,0,0,0,0,0,0,0,0,0,0,0,0,0,0,0,0,0,0,0,0,0,0,0,0,0,0,0,0],"id":16,"left_children":[1,3,5,7,9,11,13,15,17,19,21,23,25,27,29,31,33,35,37,39,-1,41,43,45,47,49,51,53,55,57,59,61,63,65,67,-1,-1,69,71,73,75,77,79,81,83,85,87,89,-1,91,93,95,97,99,101,103,105,107,109,-1,111,-1,-1,-1,-1,-1,-1,-1,-1,-1,-1,-1,-1,-1,-1,-1,-1,-1,-1,-1,-1,-1,-1,-1,-1,-1,-1,-1,-1,-1,-1,-1,-1,-1,-1,-1,-1,-1,-1,-1,-1,-1,-1,-1,-1,-1,-1,-1,-1,-1,-1,-1,-1],"loss_changes":[4.235041E1,3.6307587E1,2.4944721E1,2.4604456E1,5.581217E1,1.56421585E1,2.2245993E1,2.9041603E1,1.3139975E1,8.792358E0,3.243603E1,2.693867E1,1.6046356E1,1.7893288E1,7.999939E0,5.297337E1,2.19878E1,8.7953806E-1,1.1682026E1,1.3562487E1,0E0,3.060157E1,3.656555E1,5.6706886E0,1.1016799E1,1.5771584E1,2.766662E1,2.0464111E1,2.436631E1,3.1184597E0,