{"learner":{"attributes":{"scikit_learn":"{\"_estimator_type\": \"classifier\"}"},"feature_names":["EMA20_x","EMA50_x","ATR14_x","ADX14_x","ema_fast_x","ema_slow_x","rsi_x","bb_high_x","bb_low_x","macd_diff_x","ema_gap_pct","band_pct","rsi_dev","macd_norm","price_above_ema","EMA20_y","EMA50_y","ATR14_y","ADX14_y","ema_fast_y","ema_slow_y","rsi_y","bb_high_y","bb_low_y","macd_diff_y","h4_ema_gap_pct","h4_band_pct","h4_rsi_dev","h4_macd_norm","h4_price_above_ema"],"feature_types":["float","float","float","float","float","float","float","float","float","float","float","float","float","float","float","float","float","float","float","float","float","float","float","float","float","float","float","float","float","float"],"gradient_booster":{"model":{"gbtree_model_param":{"num_parallel_tree":"1","num_trees":"700"},"iteration_indptr":[0,1,2,3,4,5,6,7,8,9,10,11,12,13,14,15,16,17,18,19,20,21,22,23,24,25,26,27,28,29,30,31,32,33,34,35,36,37,38,39,40,41,42,43,44,45,46,47,48,49,50,51,52,53,54,55,56,57,58,59,60,61,62,63,64,65,66,67,68,69,70,71,72,73,74,75,76,77,78,79,80,81,82,83,84,85,86,87,88,89,90,91,92,93,94,95,96,97,98,99,100,101,102,103,104,105,106,107,108,109,110,111,112,113,114,115,116,117,118,119,120,121,122,123,124,125,126,127,128,129,130,131,132,133,134,135,136,137,138,139,140,141,142,143,144,145,146,147,148,149,150,151,152,153,154,155,156,157,158,159,160,161,162,163,164,165,166,167,168,169,170,171,172,173,174,175,176,177,178,179,180,181,182,183,184,185,186,187,188,189,190,191,192,193,194,195,196,197,198,199,200,201,202,203,204,205,206,207,208,209,210,211,212,213,214,215,216,217,218,219,220,221,222,223,224,225,226,227,228,229,230,231,232,233,234,235,236,237,238,239,240,241,242,243,244,245,246,247,248,249,250,251,252,253,254,255,256,257,258,259,260,261,262,263,264,265,266,267,268,269,270,271,272,273,274,275,276,277,278,279,280,281,282,283,284,285,286,287,288,289,290,291,292,293,294,295,296,297,298,299,300,301,302,303,304,305,306,307,308,309,310,311,312,313,314,315,316,317,318,319,320,321,322,323,324,325,326,327,328,329,330,331,332,333,334,335,336,337,338,339,340,341,342,343,344,345,346,347,348,349,350,351,352,353,354,355,356,357,358,359,360,361,362,363,364,365,366,367,368,369,370,371,372,373,374,375,376,377,378,379,380,381,382,383,384,385,386,387,388,389,390,391,392,393,394,395,396,397,398,399,400,401,402,403,404,405,406,407,408,409,410,411,412,413,414,415,416,417,418,419,420,421,422,423,424,425,426,427,428,429,430,431,432,433,434,435,436,437,438,439,440,441,442,443,444,445,446,447,448,449,450,451,452,453,454,455,456,457,458,459,460,461,462,463,464,465,466,467,468,469,470,471,472,473,474,475,476,477,478,479,480,481,482,483,484,485,486,487,488,489,490,491,492,493,494,495,496,497,498,499,500,501,502,503,504,505,506,507,508,509,510,511,512,513,514,515,516,517,518,519,520,521,522,523,524,525,526,527,528,529,530,531,532,533,534,535,536,537,538,539,540,541,542,543,544,545,546,547,548,549,550,551,552,553,554,555,556,557,558,559,560,561,562,563,564,565,566,567,568,569,570,571,572,573,574,575,576,577,578,579,580,581,582,583,584,585,586,587,588,589,590,591,592,593,594,595,596,597,598,599,600,601,602,603,604,605,606,607,608,609,610,611,612,613,614,615,616,617,618,619,620,621,622,623,624,625,626,627,628,629,630,631,632,633,634,635,636,637,638,639,640,641,642,643,644,645,646,647,648,649,650,651,652,653,654,655,656,657,658,659,660,661,662,663,664,665,666,667,668,669,670,671,672,673,674,675,676,677,678,679,680,681,682,683,684,685,686,687,688,689,690,691,692,693,694,695,696,697,698,699,700],"tree_info":[0,0,0,0,0,0,0,0,0,0,0,0,0,0,0,0,0,0,0,0,0,0,0,0,0,0,0,0,0,0,0,0,0,0,0,0,0,0,0,0,0,0,0,0,0,0,0,0,0,0,0,0,0,0,0,0,0,0,0,0,0,0,0,0,0,0,0,0,0,0,0,0,0,0,0,0,0,0,0,0,0,0,0,0,0,0,0,0,0,0,0,0,0,0,0,0,0,0,0,0,0,0,0,0,0,0,0,0,0,0,0,0,0,0,0,0,0,0,0,0,0,0,0,0,0,0,0,0,0,0,0,0,0,0,0,0,0,0,0,0,0,0,0,0,0,0,0,0,0,0,0,0,0,0,0,0,0,0,0,0,0,0,0,0,0,0,0,0,0,0,0,0,0,0,0,0,0,0,0,0,0,0,0,0,0,0,0,0,0,0,0,0,0,0,0,0,0,0,0,0,0,0,0,0,0,0,0,0,0,0,0,0,0,0,0,0,0,0,0,0,0,0,0,0,0,0,0,0,0,0,0,0,0,0,0,0,0,0,0,0,0,0,0,0,0,0,0,0,0,0,0,0,0,0,0,0,0,0,0,0,0,0,0,0,0,0,0,0,0,0,0,0,0,0,0,0,0,0,0,0,0,0,0,0,0,0,0,0,0,0,0,0,0,0,0,0,0,0,0,0,0,0,0,0,0,0,0,0,0,0,0,0,0,0,0,0,0,0,0,0,0,0,0,0,0,0,0,0,0,0,0,0,0,0,0,0,0,0,0,0,0,0,0,0,0,0,0,0,0,0,0,0,0,0,0,0,0,0,0,0,0,0,0,0,0,0,0,0,0,0,0,0,0,0,0,0,0,0,0,0,0,0,0,0,0,0,0,0,0,0,0,0,0,0,0,0,0,0,0,0,0,0,0,0,0,0,0,0,0,0,0,0,0,0,0,0,0,0,0,0,0,0,0,0,0,0,0,0,0,0,0,0,0,0,0,0,0,0,0,0,0,0,0,0,0,0,0,0,0,0,0,0,0,0,0,0,0,0,0,0,0,0,0,0,0,0,0,0,0,0,0,0,0,0,0,0,0,0,0,0,0,0,0,0,0,0,0,0,0,0,0,0,0,0,0,0,0,0,0,0,0,0,0,0,0,0,0,0,0,0,0,0,0,0,0,0,0,0,0,0,0,0,0,0,0,0,0,0,0,0,0,0,0,0,0,0,0,0,0,0,0,0,0,0,0,0,0,0,0,0,0,0,0,0,0,0,0,0,0,0,0,0,0,0,0,0,0,0,0,0,0,0,0,0,0,0,0,0,0,0,0,0,0,0,0,0,0,0,0,0,0,0,0,0,0,0,0,0,0,0,0,0,0,0,0,0,0,0,0,0,0,0,0,0,0,0,0,0,0,0,0,0,0,0,0,0,0,0,0,0,0,0,0,0,0,0,0,0,0,0,0,0,0,0,0,0,0,0,0,0,0,0,0,0,0,0,0,0,0,0,0,0,0,0,0,0,0,0,0,0,0,0,0,0,0,0,0,0,0,0,0,0,0,0,0,0,0,0,0,0,0,0,0,0,0,0,0,0,0,0],"trees":[{"base_weights":[1.7248471E-3,4.6710977E-1,-1.5715751E-1,1.051589E0,2.899641E-1,-8.701295E-2,-8.1575423E-1,5.961031E-1,1.3142883E0,-4.388519E-1,4.1766378E-1,-1.3905051E-1,7.3226213E-1,-9.2946744E-1,1.1699783E0,4.717818E-4,3.681885E-2,5.993298E-2,2.6553541E-2,-4.7084335E-2,-1.2279712E-3,1.1607691E-2,4.255536E-2,-1.6918395E-2,-1.6709253E-3,3.313405E-2,-3.150651E-2,-4.638236E-2,-1.9524083E-2,6.211866E-2,-6.735855E-3],"categories":[],"categories_nodes":[],"categories_segments":[],"categories_sizes":[],"default_left":[0,0,0,0,0,0,0,0,0,0,0,0,0,0,0,0,0,0,0,0,0,0,0,0,0,0,0,0,0,0,0],"id":0,"left_children":[1,3,5,7,9,11,13,15,17,19,21,23,25,27,29,-1,-1,-1,-1,-1,-1,-1,-1,-1,-1,-1,-1,-1,-1,-1,-1],"loss_changes":[4.271949E2,1.5193985E2,1.9890201E2,4.0093872E1,1.0533339E2,1.6609811E2,9.467282E1,2.401978E1,2.4842041E1,5.0866657E1,7.89249E1,1.0111667E2,3.463758E1,3.9300507E1,1.199501E1,0E0,0E0,0E0,0E0,0E0,0E0,0E0,0E0,0E0,0E0,0E0,0E0,0E0,0E0,0E0,0E0],"parents":[2147483647,0,0,1,1,2,2,3,3,4,4,5,5,6,6,7,7,8,8,9,9,10,10,11,11,12,12,13,13,14,14],"right_children":[2,4,6,8,10,12,14,16,18,20,22,24,26,28,30,-1,-1,-1,-1,-1,-1,-1,-1,-1,-1,-1,-1,-1,-1,-1,-1],"split_conditions":[-7.72564E-1,-1.6448853E0,1.371363E0,-1.2645609E0,-1.3348087E0,1.3468791E0,3.9960098E0,-5.299735E-1,1.6807556E0,-1.2744557E0,8.018342E-1,-3.7519947E-1,1.8570918E0,1.1407062E0,2.2725592E0,4.717818E-4,3.681885E-2,5.993298E-2,2.6553541E-2,-4.7084335E-2,-1.2279712E-3,1.1607691E-2,4.255536E-2,-1.6918395E-2,-1.6709253E-3,3.313405E-2,-3.150651E-2,-4.638236E-2,-1.9524083E-2,6.211866E-2,-6.735855E-3],"split_indices":[26,26,26,6,10,10,10,17,3,21,8,25,21,6,21,0,0,0,0,0,0,0,0,0,0,0,0,0,0,0,0],"split_type":[0,0,0,0,0,0,0,0,0,0,0,0,0,0,0,0,0,0,0,0,0,0,0,0,0,0,0,0,0,0,0],"sum_hessian":[5.775482E3,1.4694249E3,4.3060566E3,3.4062405E2,1.1288009E3,3.892603E3,4.134538E2,1.2578993E2,2.1483414E2,1.6793195E2,9.608689E2,3.660905E3,2.3169795E2,3.915628E2,2.1890966E1,4.5272884E1,8.051705E1,1.664389E2,4.839523E1,5.9117558E1,1.0881439E2,8.0376886E2,1.5710007E2,9.3339435E2,2.7275107E3,2.1834901E2,1.3348938E1,2.563144E2,1.3524843E2,1.6895752E1,4.995214E0],"tree_param":{"num_deleted":"0","num_feature":"30","num_nodes":"31","size_leaf_vector":"1"}},{"base_weights":[-8.068922E-3,3.9156428E-1,-1.7296296E-1,1.0134066E0,2.335832E-1,-6.835124E-2,-6.2356234E-1,1.2293568E0,4.765484E-1,-5.12836E-1,3.45216E-1,-2.6508936E-1,1.283449E-1,-1.2849575E0,-3.9281082E-1,2.0183818E-2,5.5319197E-2,3.2466214E-2,-1.5428367E-2,-4.745611E-2,-6.2727756E-3,9.721707E-3,3.9505027E-2,-6.788196E-3,-3.9337393E-2,-1.2830649E-2,1.4637203E-2,-6.07669E-2,-3.7288327E-2,3.7651726E-3,-2.9197203E-2],"categories":[],"categories_nodes":[],"categories_segments":[],"categories_sizes":[],"default_left":[0,0,0,0,0,0,0,0,0,0,0,0,0,0,0,0,0,0,0,0,0,0,0,0,0,0,0,0,0,0,0],"id":1,"left_children":[1,3,5,7,9,11,13,15,17,19,21,23,25,27,29,-1,-1,-1,-1,-1,-1,-1,-1,-1,-1,-1,-1,-1,-1,-1,-1],"loss_changes":[3.829841E2,1.6653458E2,1.9389331E2,3.9250458E1,1.1308157E2,1.2928986E2,1.1778473E2,2.651477E1,2.926596E1,4.218369E1,7.716615E1,1.1427506E2,1.7840878E2,1.5110077E1,9.462963E1,0E0,0E0,0E0,0E0,0E0,0E0,0E0,0E0,0E0,0E0,0E0,0E0,0E0,0E0,0E0,0E0],"parents":[2147483647,0,0,1,1,2,2,3,3,4,4,5,5,6,6,7,7,8,8,9,9,10,10,11,11,12,12,13,13,14,14],"right_children":[2,4,6,8,10,12,14,16,18,20,22,24,26,28,30,-1,-1,-1,-1,-1,-1,-1,-1,-1,-1,-1,-1,-1,-1,-1,-1],"split_conditions":[-6.205485E-1,-1.6448853E0,1.0765617E0,1.5603515E0,-1.3348087E0,6.909074E-2,5.6224406E-1,-1.5502237E0,-9.177237E-1,-1.2744557E0,8.2705885E-1,6.67587E-1,-2.8471598E-1,7.84013E-1,1.1020491E0,2.0183818E-2,5.5319197E-2,3.2466214E-2,-1.5428367E-2,-4.745611E-2,-6.2727756E-3,9.721707E-3,3.9505027E-2,-6.788196E-3,-3.9337393E-2,-1.2830649E-2,1.4637203E-2,-6.07669E-2,-3.7288327E-2,3.7651726E-3,-2.9197203E-2],"split_indices":[26,26,26,3,10,10,10,13,29,27,7,26,25,23,27,0,0,0,0,0,0,0,0,0,0,0,0,0,0,0,0],"split_type":[0,0,0,0,0,0,0,0,0,0,0,0,0,0,0,0,0,0,0,0,0,0,0,0,0,0,0,0,0,0,0],"sum_hessian":[5.80982E3,1.696602E3,4.113218E3,3.4261035E2,1.3539917E3,3.3391487E3,7.740693E2,2.4340947E2,9.920089E1,1.7568713E2,1.1783044E3,1.6692224E3,1.6699264E3,1.9902945E2,5.7503986E2,4.331993E1,2.0008954E2,7.147975E1,2.7721136E1,5.9943813E1,1.15743324E2,1.01780414E3,1.6050037E2,1.4746494E3,1.9457292E2,5.7764484E2,1.0922815E3,1.1762397E2,8.140548E1,2.3554129E2,3.3949857E2],"tree_param":{"num_deleted":"0","num_feature":"30","num_nodes":"31","size_leaf_vector":"1"}},{"base_weights":[-1.867985E-3,3.9613065E-1,-1.669951E-1,9.8710734E-1,2.4791543E-1,-9.8435804E-2,-7.720146E-1,1.1880922E0,5.077673E-1,-4.3938017E-1,3.5121733E-1,-2.0499821E-1,3.0743998E-1,-8.914883E-1,6.7142403E-1,2.2902416E-2,5.344614E-2,3.2730218E-2,-2.1330519E-2,-4.351797E-2,-3.824939E-3,1.0289113E-2,3.981793E-2,-3.6286984E-3,-3.1974245E-2,2.8287271E-2,2.3286259E-3,-4.9514003E-2,-2.2805085E-2,6.522105E-2,1.2424626E-2],"categories":[],"categories_nodes":[],"categories_segments":[],"categories_sizes":[],"default_left":[0,0,0,0,0,0,0,0,0,0,0,0,0,0,0,0,0,0,0,0,0,0,0,0,0,0,0,0,0,0,0],"id":2,"left_children":[1,3,5,7,9,11,13,15,17,19,21,23,25,27,29,-1,-1,-1,-1,-1,-1,-1,-1,-1,-1,-1,-1,-1,-1,-1,-1],"loss_changes":[3.8050394E2,1.4846378E2,1.6965857E2,3.2160004E1,9.6618195E1,1.590817E2,7.239961E1,2.1004242E1,3.34748E1,3.9574757E1,7.1296616E1,1.9776706E2,7.61686E1,4.2142426E1,1.0704775E1,0E0,0E0,0E0,0E0,0E0,0E0,0E0,0E0,0E0,0E0,0E0,0E0,0E0,0E0,0E0,0E0],"parents":[2147483647,0,0,1,1,2,2,3,3,4,4,5,5,6,6,7,7,8,8,9,9,10,10,11,11,12,12,13,13,14,14],"right_children":[2,4,6,8,10,12,14,16,18,20,22,24,26,28,30,-1,-1,-1,-1,-1,-1,-1,-1,-1,-1,-1,-1,-1,-1,-1,-1],"split_conditions":[-6.205485E-1,-1.6448853E0,1.371363E0,1.5603515E0,-1.3348087E0,6.4529353E-1,3.092004E0,-1.4136307E0,-6.050821E-1,-1.2744557E0,8.3340406E-1,8.1286234E-1,-3.85703E-2,7.5433064E-1,6.1259985E-1,2.2902416E-2,5.344614E-2,3.2730218E-2,-2.1330519E-2,-4.351797E-2,-3.824939E-3,1.0289113E-2,3.981793E-2,-3.6286984E-3,-3.1974245E-2,2.8287271E-2,2.3286259E-3,-4.9514003E-2,-2.2805085E-2,6.522105E-2,1.2424626E-2],"split_indices":[26,26,26,3,10,10,10,9,29,21,0,26,17,11,21,0,0,0,0,0,0,0,0,0,0,0,0,0,0,0,0],"split_type":[0,0,0,0,0,0,0,0,0,0,0,0,0,0,0,0,0,0,0,0,0,0,0,0,0,0,0,0,0,0,0],"sum_hessian":[5.787736E3,1.6967455E3,4.0909902E3,3.3907922E2,1.3576663E3,3.675639E3,4.153514E2,2.37865E2,1.012142E2,1.7697176E2,1.1806945E3,2.9116755E3,7.6396344E2,3.8395386E2,3.1397552E1,4.7065956E1,1.9079906E2,7.812681E1,2.308739E1,6.055575E1,1.1641601E2,1.0315908E3,1.4910371E2,2.443082E3,4.6859335E2,2.926814E2,4.7128204E2,1.8341646E2,2.005374E2,7.6208057E0,2.3776745E1],"tree_param":{"num_deleted":"0","num_feature":"30","num_nodes":"31","size_leaf_vector":"1"}},{"base_weights":[4.8796465E-3,3.633677E-1,-1.6129488E-1,9.49937E-1,2.2606824E-1,-9.566388E-2,-7.190166E-1,-7.134706E-1,1.0092657E0,-3.9808658E-1,3.1508395E-1,-2.062354E-1,3.1234112E-1,-8.1816804E-1,1.0581152E0,-4.651635E-2,3.9477818E-2,3.4923144E-2,6.1431684E-2,-4.5844916E-2,-1.4157864E-3,1.026226E-2,5.2014634E-2,-5.0396747E-3,-3.7669294E-2,2.7768053E-2,2.857459E-3,-4.0438097E-2,-1.1850094E-2,5.4554075E-2,-2.7714854E-3],"categories":[],"categories_nodes":[],"categories_segments":[],"categories_sizes":[],"default_left":[0,0,0,0,0,0,0,0,0,0,0,0,0,0,0,0,0,0,0,0,0,0,0,0,0,0,0,0,0,0,0],"id":3,"left_children":[1,3,5,7,9,11,13,15,17,19,21,23,25,27,29,-1,-1,-1,-1,-1,-1,-1,-1,-1,-1,-1,-1,-1,-1,-1,-1],"loss_changes":[3.453454E2,1.476573E2,1.4492117E2,3.5058533E1,8.286234E1,1.6E2,7.432478E1,1.0753198E1,2.2779755E1,5.0507587E1,7.4853836E1,1.6453589E2,6.952406E1,3.9487396E1,7.838505E0,0E0,0E0,0E0,0E0,0E0,0E0,0E0,0E0,0E0,0E0,0E0,0E0,0E0,0E0,0E0,0E0],"parents":[2147483647,0,0,1,1,2,2,3,3,4,4,5,5,6,6,7,7,8,8,9,9,10,10,11,11,12,12,13,13,14,14],"right_children":[2,4,6,8,10,12,14,16,18,20,22,24,26,28,30,-1,-1,-1,-1,-1,-1,-1,-1,-1,-1,-1,-1,-1,-1,-1,-1],"split_conditions":[-5.4232216E-1,-1.6448853E0,1.371363E0,-3.6478918E0,-1.3348087E0,6.4529353E-1,3.9960098E0,-7.8885454E-1,-1.6631913E-1,-1.2581176E0,1.1509304E0,9.517116E-1,-3.85703E-2,1.3638607E0,2.2725592E0,-4.651635E-2,3.9477818E-2,3.4923144E-2,6.1431684E-2,-4.5844916E-2,-1.4157864E-3,1.026226E-2,5.2014634E-2,-5.0396747E-3,-3.7669294E-2,2.7768053E-2,2.857459E-3,-4.0438097E-2,-1.1850094E-2,5.4554075E-2,-2.7714854E-3],"split_indices":[26,26,26,10,10,10,10,11,11,21,8,26,17,6,21,0,0,0,0,0,0,0,0,0,0,0,0,0,0,0,0],"split_type":[0,0,0,0,0,0,0,0,0,0,0,0,0,0,0,0,0,0,0,0,0,0,0,0,0,0,0,0,0,0,0],"sum_hessian":[5.795166E3,1.8351067E3,3.9600593E3,3.4695035E2,1.4881562E3,3.5441643E3,4.15895E2,1.156879E1,3.3538156E2,1.8531364E2,1.3028427E3,2.7888625E3,7.553019E2,3.9442828E2,2.1466713E1,9.400295E0,2.1684954E0,2.6857285E2,6.6808716E1,5.9806103E1,1.25507545E2,1.2309806E3,7.1862E1,2.5155813E3,2.7328134E2,2.9144617E2,4.6385568E2,2.8735025E2,1.0707802E2,1.6722155E1,4.744559E0],"tree_param":{"num_deleted":"0","num_feature":"30","num_nodes":"31","size_leaf_vector":"1"}},{"base_weights":[-3.7078618E-3,3.7154868E-1,-1.584886E-1,9.0255356E-1,2.3891664E-1,-9.413691E-2,-7.3157066E-1,1.0997959E0,4.1148016E-1,-8.30903E-1,2.9526225E-1,-1.447455E-1,6.588929E-1,-8.2389075E-1,1.0135967E0,1.8254109E-2,5.0271645E-2,2.855331E-2,-2.1945488E-2,-4.7888096E-2,5.796101E-3,9.486047E-3,5.0011475E-2,-1.7774923E-2,-2.139259E-3,8.635968E-3,4.175333E-2,-4.62434E-2,-2.169497E-2,5.1749866E-2,-4.1854633E-3],"categories":[],"categories_nodes":[],"categories_segments":[],"categories_sizes":[],"default_left":[0,0,0,0,0,0,0,0,0,0,0,0,0,0,0,0,0,0,0,0,0,0,0,0,0,0,0,0,0,0,0],"id":4,"left_children":[1,3,5,7,9,11,13,15,17,19,21,23,25,27,29,-1,-1,-1,-1,-1,-1,-1,-1,-1,-1,-1,-1,-1,-1,-1,-1],"loss_changes":[3.358782E2,1.1871533E2,1.5091605E2,3.2202393E1,8.177648E1,1.404124E2,6.740221E1,2.366333E1,2.890031E1,2.4455772E1,7.105186E1,9.434103E1,3.934462E1,3.6121918E1,6.7789516E0,0E0,0E0,0E0,0E0,0E0,0E0,0E0,0E0,0E0,0E0,0E0,0E0,0E0,0E0,0E0,0E0],"parents":[2147483647,0,0,1,1,2,2,3,3,4,4,5,5,6,6,7,7,8,8,9,9,10,10,11,11,12,12,13,13,14,14],"right_children":[2,4,6,8,10,12,14,16,18,20,22,24,26,28,30,-1,-1,-1,-1,-1,-1,-1,-1,-1,-1,-1,-1,-1,-1,-1,-1],"split_conditions":[-6.205485E-1,-1.6448853E0,1.371363E0,1.5603515E0,-1.8632209E0,1.3468791E0,3.9960098E0,-1.4136307E0,-6.050821E-1,-8.0235794E-2,1.1509304E0,-3.7519947E-1,-9.346979E-2,6.805505E-1,9.44546E-1,1.8254109E-2,5.0271645E-2,2.855331E-2,-2.1945488E-2,-4.7888096E-2,5.796101E-3,9.486047E-3,5.0011475E-2,-1.7774923E-2,-2.139259E-3,8.635968E-3,4.175333E-2,-4.62434E-2,-2.169497E-2,5.1749866E-2,-4.1854633E-3],"split_indices":[26,26,26,3,14,10,10,9,29,25,8,25,25,6,18,0,0,0,0,0,0,0,0,0,0,0,0,0,0,0,0],"split_type":[0,0,0,0,0,0,0,0,0,0,0,0,0,0,0,0,0,0,0,0,0,0,0,0,0,0,0,0,0,0,0],"sum_hessian":[5.780766E3,1.6876823E3,4.093084E3,3.3613382E2,1.3515483E3,3.6809163E3,4.1216776E2,2.3892763E2,9.720621E1,6.693447E1,1.2846139E3,3.4498699E3,2.3104634E2,3.919608E2,2.0206984E1,4.76287E1,1.9129893E2,7.4121086E1,2.3085117E1,4.8501144E1,1.8433325E1,1.2121082E3,7.250571E1,8.045604E2,2.6453093E3,1.0814858E2,1.2289776E2,1.7837209E2,2.135887E2,1.6033234E1,4.173749E0],"tree_param":{"num_deleted":"0","num_feature":"30","num_nodes":"31","size_leaf_vector":"1"}},{"base_weights":[7.64616E-3,3.5678312E-1,-1.3700245E-1,8.522384E-1,2.3142709E-1,-7.546841E-2,-6.894164E-1,-8.0625266E-1,9.121976E-1,1.6994424E-2,4.8955703E-1,-1.8800645E-1,2.7675512E-1,-8.058918E-1,6.144245E-1,-5.2974828E-2,2.0646062E-2,2.1937884E-2,4.4354953E-2,-2.5647303E-2,6.3917725E-3,-6.666907E-2,2.2750953E-2,-2.9908186E-3,-3.328719E-2,-5.6236777E-3,2.0661416E-2,-4.6490185E-2,-1.930758E-2,4.114134E-3,5.7366084E-2],"categories":[],"categories_nodes":[],"categories_segments":[],"categories_sizes":[],"default_left":[0,0,0,0,0,0,0,0,0,0,0,0,0,0,0,0,0,0,0,0,0,0,0,0,0,0,0,0,0,0,0],"id":5,"left_children":[1,3,5,7,9,11,13,15,17,19,21,23,25,27,29,-1,-1,-1,-1,-1,-1,-1,-1,-1,-1,-1,-1,-1,-1,-1,-1],"loss_changes":[2.9308E2,1.0538728E2,1.3942978E2,3.4833725E1,7.516501E1,1.4644504E2,6.2933365E1,9.244667E0,2.3100739E1,6.99241E1,1.06208145E2,2.0414468E2,8.9604774E1,4.2959686E1,1.42293625E1,0E0,0E0,0E0,0E0,0E0,0E0,0E0,0E0,0E0,0E0,0E0,0E0,0E0,0E0,0E0,0E0],"parents":[2147483647,0,0,1,1,2,2,3,3,4,4,5,5,6,6,7,7,8,8,9,9,10,10,11,11,12,12,13,13,14,14],"right_children":[2,4,6,8,10,12,14,16,18,20,22,24,26,28,30,-1,-1,-1,-1,-1,-1,-1,-1,-1,-1,-1,-1,-1,-1,-1,-1],"split_conditions":[-6.205485E-1,-1.6448853E0,1.371363E0,-3.6478918E0,-5.7323503E-1,5.6224406E-1,3.092004E0,3.453369E0,-1.2645609E0,-1.1882905E0,-1.5489562E0,8.1286234E-1,-2.8471598E-1,7.5433064E-1,1.7625125E-1,-5.2974828E-2,2.0646062E-2,2.1937884E-2,4.4354953E-2,-2.5647303E-2,6.3917725E-3,-6.666907E-2,2.2750953E-2,-2.9908186E-3,-3.328719E-2,-5.6236777E-3,2.0661416E-2,-4.6490185E-2,-1.930758E-2,4.114134E-3,5.7366084E-2],"split_indices":[26,26,26,10,25,10,10,2,6,10,19,26,25,11,8,0,0,0,0,0,0,0,0,0,0,0,0,0,0,0,0],"split_type":[0,0,0,0,0,0,0,0,0,0,0,0,0,0,0,0,0,0,0,0,0,0,0,0,0,0,0,0,0,0,0],"sum_hessian":[5.801346E3,1.6990057E3,4.1023403E3,3.4189734E2,1.3571084E3,3.6921987E3,4.1014172E2,1.1494996E1,3.3040234E2,7.418815E2,6.152269E2,2.7985176E3,8.936809E2,3.7685797E2,3.328378E1,8.258018E0,3.2369788E0,1.17281044E2,2.1312129E2,1.3164201E2,6.1023944E2,2.1090939E1,5.94136E2,2.3810764E3,4.1744135E2,3.2624765E2,5.674333E2,1.7799956E2,1.988584E2,2.1186989E1,1.209679E1],"tree_param":{"num_deleted":"0","num_feature":"30","num_nodes":"31","size_leaf_vector":"1"}},{"base_weights":[8.8958605E-4,3.6977252E-1,-1.24650866E-1,8.316693E-1,2.3017262E-1,-2.6782215E-2,-4.4638196E-1,1.0316517E0,3.3641058E-1,-8.8206494E-1,2.9332313E-1,-5.7323657E-2,8.0872345E-1,-1.0362215E0,-2.2307307E-1,1.4685663E-2,4.686512E-2,2.4857769E-2,-2.3745695E-2,-5.7069328E-2,-1.3055943E-2,7.401639E-3,3.356146E-2,-8.611961E-3,3.2907599E-3,-5.244533E-2,3.714001E-2,-4.9398854E-2,-2.570839E-2,4.772063E-3,-2.2872524E-2],"categories":[],"categories_nodes":[],"categories_segments":[],"categories_sizes":[],"default_left":[0,0,0,0,0,0,0,0,0,0,0,0,0,0,0,0,0,0,0,0,0,0,0,0,0,0,0,0,0,0,0],"id":6,"left_children":[1,3,5,7,9,11,13,15,17,19,21,23,25,27,29,-1,-1,-1,-1,-1,-1,-1,-1,-1,-1,-1,-1,-1,-1,-1,-1],"loss_changes":[2.669924E2,9.420187E1,1.3543005E2,3.3265198E1,7.931404E1,8.423502E1,1.3190982E2,2.2011566E1,2.6640474E1,1.7911835E1,6.28244E1,7.0228195E1,3.0776344E1,2.0732391E1,8.7109436E1,0E0,0E0,0E0,0E0,0E0,0E0,0E0,0E0,0E0,0E0,0E0,0E0,0E0,0E0,0E0,0E0],"parents":[2147483647,0,0,1,1,2,2,3,3,4,4,5,5,6,6,7,7,8,8,9,9,10,10,11,11,12,12,13,13,14,14],"right_children":[2,4,6,8,10,12,14,16,18,20,22,24,26,28,30,-1,-1,-1,-1,-1,-1,-1,-1,-1,-1,-1,-1,-1,-1,-1,-1],"split_conditions":[-7.72564E-1,-1.6448853E0,9.451649E-1,1.5603515E0,-1.8632209E0,1.3116301E0,4.2141622E-1,-1.5502237E0,-6.050821E-1,-1.3833386E0,8.018342E-1,-5.6907185E-3,-1.5618163E0,9.180644E-1,1.371363E0,1.4685663E-2,4.686512E-2,2.4857769E-2,-2.3745695E-2,-5.7069328E-2,-1.3055943E-2,7.401639E-3,3.356146E-2,-8.611961E-3,3.2907599E-3,-5.244533E-2,3.714001E-2,-4.9398854E-2,-2.570839E-2,4.772063E-3,-2.2872524E-2],"split_indices":[26,26,26,3,14,4,14,13,29,24,8,14,24,28,26,0,0,0,0,0,0,0,0,0,0,0,0,0,0,0,0],"split_type":[0,0,0,0,0,0,0,0,0,0,0,0,0,0,0,0,0,0,0,0,0,0,0,0,0,0,0,0,0,0,0],"sum_hessian":[5.763368E3,1.4628993E3,4.3004688E3,3.3837018E2,1.124529E3,3.2982456E3,1.00222314E3,2.4026825E2,9.810191E1,5.972126E1,1.0648079E3,3.1828306E3,1.154152E2,2.7423334E2,7.2798975E2,4.2435745E1,1.978325E2,7.534326E1,2.2758657E1,2.9367456E1,3.0353804E1,8.896248E2,1.7518303E2,1.4928486E3,1.6899818E3,5.6405272E0,1.0977467E2,1.8078595E2,9.3447395E1,3.676794E2,3.6031036E2],"tree_param":{"num_deleted":"0","num_feature":"30","num_nodes":"31","size_leaf_vector":"1"}},{"base_weights":[-1.002988E-2,3.4705696E-1,-1.3142107E-1,8.202726E-1,2.069863E-1,-5.3123638E-2,-4.9900812E-1,4.2258126E-1,1.0513624E0,1.03115775E-1,7.944718E-1,-3.180316E-1,6.375315E-2,-1.0672909E0,-3.0578277E-1,-5.442209E-3,2.9303057E-2,3.5104595E-2,5.695916E-2,1.7342368E-3,5.246126E-2,1.16142E-2,5.897885E-2,-4.4708747E-2,-1.0345264E-2,-2.5503277E-3,2.2800345E-2,2.3039496E-2,-4.4830326E-2,6.448288E-3,-2.5092533E-2],"categories":[],"categories_nodes":[],"categories_segments":[],"categories_sizes":[],"default_left":[0,0,0,0,0,0,0,0,0,0,0,0,0,0,0,0,0,0,0,0,0,0,0,0,0,0,0,0,0,0,0],"id":7,"left_children":[1,3,5,7,9,11,13,15,17,19,21,23,25,27,29,-1,-1,-1,-1,-1,-1,-1,-1,-1,-1,-1,-1,-1,-1,-1,-1],"loss_changes":[2.5053528E2,9.7024704E1,1.2411626E2,3.0303085E1,6.9042854E1,1.1015176E2,8.283072E1,2.1682714E1,1.2406418E1,6.953905E1,5.7861847E1,5.1444313E1,1.5941486E2,1.7493607E1,8.516908E1,0E0,0E0,0E0,0E0,0E0,0E0,0E0,0E0,0E0,0E0,0E0,0E0,0E0,0E0,0E0,0E0],"parents":[2147483647,0,0,1,1,2,2,3,3,4,4,5,5,6,6,7,7,8,8,9,9,10,10,11,11,12,12,13,13,14,14],"right_children":[2,4,6,8,10,12,14,16,18,20,22,24,26,28,30,-1,-1,-1,-1,-1,-1,-1,-1,-1,-1,-1,-1,-1,-1,-1,-1],"split_conditions":[-7.72564E-1,-1.6448853E0,1.0765617E0,-1.2645609E0,4.0566064E-2,-2.8471598E-1,5.6224406E-1,-5.299735E-1,-1.6631913E-1,1.1542059E0,-5.8387166E-1,-5.241276E-1,4.2222545E-1,-1.2118687E-1,1.1020491E0,-5.442209E-3,2.9303057E-2,3.5104595E-2,5.695916E-2,1.7342368E-3,5.246126E-2,1.16142E-2,5.897885E-2,-4.4708747E-2,-1.0345264E-2,-2.5503277E-3,2.2800345E-2,2.3039496E-2,-4.4830326E-2,6.448288E-3,-2.5092533E-2],"split_indices":[26,26,26,6,10,25,10,17,11,4,28,24,10,29,21,0,0,0,0,0,0,0,0,0,0,0,0,0,0,0,0],"split_type":[0,0,0,0,0,0,0,0,0,0,0,0,0,0,0,0,0,0,0,0,0,0,0,0,0,0,0,0,0,0,0],"sum_hessian":[5.777682E3,1.4653423E3,4.31234E3,3.3356564E2,1.1317766E3,3.5560352E3,7.563045E2,1.236317E2,2.0993396E2,9.627355E2,1.6904115E2,1.0880917E3,2.4679436E3,1.9075716E2,5.6554736E2,4.432163E1,7.9310074E1,1.4546182E2,6.447214E1,9.1835583E2,4.437962E1,9.789431E1,7.114684E1,7.400219E1,1.0140895E3,1.9721014E3,4.9584216E2,5.7031107E0,1.8505405E2,2.3081335E2,3.3473398E2],"tree_param":{"num_deleted":"0","num_feature":"30","num_nodes":"31","size_leaf_vector":"1"}},{"base_weights":[1.4182784E-3,2.4177237E-1,-1.9444425E-1,7.7432483E-1,1.6212603E-1,-1.3025925E-1,-6.599392E-1,-3.2280663E-1,8.731135E-1,-6.978615E-2,3.792636E-1,-4.0681446E-1,1.9461928E-2,-7.519189E-1,9.86502E-1,-2.6251193E-2,3.7021846E-2,6.271157E-2,3.0249385E-2,8.067733E-3,-1.2169676E-2,-6.235248E-2,1.7031439E-2,-1.1108211E-2,-4.2864703E-2,-1.5372954E-2,5.785958E-3,-3.8839176E-2,-1.3334668E-2,5.357996E-2,-4.471903E-3],"categories":[],"categories_nodes":[],"categories_segments":[],"categories_sizes":[],"default_left":[0,0,0,0,0,0,0,0,0,0,0,0,0,0,0,0,0,0,0,0,0,0,0,0,0,0,0,0,0,0,0],"id":8,"left_children":[1,3,5,7,9,11,13,15,17,19,21,23,25,27,29,-1,-1,-1,-1,-1,-1,-1,-1,-1,-1,-1,-1,-1,-1,-1,-1],"loss_changes":[2.719676E2,1.09899414E2,9.502109E1,3.682965E1,1.1371975E2,1.1589206E2,5.9119263E1,1.2507094E1,2.395343E1,6.960389E1,1.0581047E2,8.407884E1,9.188634E1,3.3202682E1,8.224886E0,0E0,0E0,0E0,0E0,0E0,0E0,0E0,0E0,0E0,0E0,0E0,0E0,0E0,0E0,0E0,0E0],"parents":[2147483647,0,0,1,1,2,2,3,3,4,4,5,5,6,6,7,7,8,8,9,9,10,10,11,11,12,12,13,13,14,14],"right_children":[2,4,6,8,10,12,14,16,18,20,22,24,26,28,30,-1,-1,-1,-1,-1,-1,-1,-1,-1,-1,-1,-1,-1,-1,-1,-1],"split_conditions":[-8.766728E-2,-1.6448853E0,1.3910446E0,-3.1652544E0,-5.5174214E-1,-5.6907185E-3,3.9960098E0,3.453369E0,-2.1249728E0,-1.1048473E0,-1.579019E0,7.1353126E-1,-2.8471598E-1,1.1777031E0,2.2725592E0,-2.6251193E-2,3.7021846E-2,6.271157E-2,3.0249385E-2,8.067733E-3,-1.2169676E-2,-6.235248E-2,1.7031439E-2,-1.1108211E-2,-4.2864703E-2,-1.5372954E-2,5.785958E-3,-3.8839176E-2,-1.3334668E-2,5.357996E-2,-4.471903E-3],"split_indices":[26,26,26,14,25,14,10,2,29,29,1,26,25,6,21,0,0,0,0,0,0,0,0,0,0,0,0,0,0,0,0],"split_type":[0,0,0,0,0,0,0,0,0,0,0,0,0,0,0,0,0,0,0,0,0,0,0,0,0,0,0,0,0,0,0],"sum_hessian":[5.7751597E3,2.5929583E3,3.1822014E3,3.362061E2,2.2567522E3,2.7977168E3,3.844847E2,2.7584913E1,3.086212E2,1.0915785E3,1.1651737E3,9.8203973E2,1.815677E3,3.6465622E2,1.9828491E1,2.2143887E1,5.441026E0,4.265935E1,2.6596182E2,5.0591382E2,5.856647E2,2.6551657E1,1.1386221E3,8.2352374E2,1.5851604E2,4.2920935E2,1.3864677E3,2.3850723E2,1.2614899E2,1.4839438E1,4.9890537E0],"tree_param":{"num_deleted":"0","num_feature":"30","num_nodes":"31","size_leaf_vector":"1"}},{"base_weights":[2.5527773E-3,2.1973431E-1,-1.7978561E-1,7.2459704E-1,1.4741345E-1,-8.802335E-2,-4.6623927E-1,-7.633158E-1,7.9013807E-1,-8.717924E-2,3.603358E-1,-2.2885966E-1,2.7489302E-1,-1.0167234E0,-2.730133E-1,-4.892728E-2,1.663837E-2,2.587203E-2,5.280923E-2,-3.6225937E-2,-8.830845E-4,-5.119087E-2,1.6444955E-2,-5.8655045E-3,-2.8998686E-2,-5.0545055E-2,1.5155286E-2,-3.547474E-2,-6.97686E-2,5.76559E-3,-2.305546E-2],"categories":[],"categories_nodes":[],"categories_segments":[],"categories_sizes":[],"default_left":[0,0,0,0,0,0,0,0,0,0,0,0,0,0,0,0,0,0,0,0,0,0,0,0,0,0,0,0,0,0,0],"id":9,"left_children":[1,3,5,7,9,11,13,15,17,19,21,23,25,27,29,-1,-1,-1,-1,-1,-1,-1,-1,-1,-1,-1,-1,-1,-1,-1,-1],"loss_changes":[2.2813562E2,9.589241E1,8.227719E1,3.270529E1,1.14969215E2,1.2135683E2,8.051645E1,8.31654E0,2.3140488E1,5.835913E1,1.0101976E2,6.96542E1,1.0669802E2,1.7061478E1,7.140735E1,0E0,0E0,0E0,0E0,0E0,0E0,0E0,0E0,0E0,0E0,0E0,0E0,0E0,0E0,0E0,0E0],"parents":[2147483647,0,0,1,1,2,2,3,3,4,4,5,5,6,6,7,7,8,8,9,9,10,10,11,11,12,12,13,13,14,14],"right_children":[2,4,6,8,10,12,14,16,18,20,22,24,26,28,30,-1,-1,-1,-1,-1,-1,-1,-1,-1,-1,-1,-1,-1,-1,-1,-1],"split_conditions":[-7.1192E-2,-1.6448853E0,1.0765617E0,-3.7965252E0,-5.5174214E-1,4.1336045E-1,5.241312E-1,1.1146038E0,-1.6631913E-1,-1.5841283E0,-1.583484E0,8.1286234E-1,-3.5859653E-1,3.927235E-1,1.1020491E0,-4.892728E-2,1.663837E-2,2.587203E-2,5.280923E-2,-3.6225937E-2,-8.830845E-4,-5.119087E-2,1.6444955E-2,-5.8655045E-3,-2.8998686E-2,-5.0545055E-2,1.5155286E-2,-3.547474E-2,-6.97686E-2,5.76559E-3,-2.305546E-2],"split_indices":[26,26,26,14,25,10,14,18,11,10,7,26,21,17,21,0,0,0,0,0,0,0,0,0,0,0,0,0,0,0,0],"split_type":[0,0,0,0,0,0,0,0,0,0,0,0,0,0,0,0,0,0,0,0,0,0,0,0,0,0,0,0,0,0,0],"sum_hessian":[5.7589253E3,2.6282437E3,3.1306814E3,3.2818774E2,2.300056E3,2.3721096E3,7.585718E2,1.339723E1,3.147905E2,1.0946204E3,1.2054357E3,1.7091948E3,6.6291486E2,1.9597998E2,5.625918E2,9.611808E0,3.7854223E0,2.4953604E2,6.525446E1,7.970106E1,1.01491925E3,3.54799E1,1.1699558E3,1.4673073E3,2.4188759E2,4.1263885E1,6.2165094E2,1.6817957E2,2.7800417E1,2.3709688E2,3.2549493E2],"tree_param":{"num_deleted":"0","num_feature":"30","num_nodes":"31","size_leaf_vector":"1"}},{"base_weights":[-3.89106E-3,2.3356795E-1,-1.7206727E-1,7.230815E-1,1.5423225E-1,-1.14438325E-1,-5.958254E-1,2.2858705E-1,9.4355047E-1,-4.6648644E-2,3.5810855E-1,-2.2371991E-1,2.1850938E-1,-6.872209E-1,1.0117245E0,8.1610214E-4,5.3494338E-2,4.3433085E-2,1.3355366E-2,-3.1063285E-2,1.6911196E-3,-5.760982E-2,1.6405126E-2,-5.4564076E-3,-3.3628404E-2,1.4575937E-2,-1.2903756E-2,-3.3690125E-2,-6.651581E-3,5.359436E-2,-3.6515216E-3],"categories":[],"categories_nodes":[],"categories_segments":[],"categories_sizes":[],"default_left":[0,0,0,0,0,0,0,0,0,0,0,0,0,0,0,0,0,0,0,0,0,0,0,0,0,0,0,0,0,0,0],"id":10,"left_children":[1,3,5,7,9,11,13,15,17,19,21,23,25,27,29,-1,-1,-1,-1,-1,-1,-1,-1,-1,-1,-1,-1,-1,-1,-1,-1],"loss_changes":[2.290567E2,9.224196E1,8.1929146E1,3.59124E1,8.387819E1,1.0763829E2,5.971805E1,2.3865292E1,1.9490799E1,6.703932E1,9.567146E1,1.1983862E2,5.7840626E1,3.0606598E1,8.090542E0,0E0,0E0,0E0,0E0,0E0,0E0,0E0,0E0,0E0,0E0,0E0,0E0,0E0,0E0,0E0,0E0],"parents":[2147483647,0,0,1,1,2,2,3,3,4,4,5,5,6,6,7,7,8,8,9,9,10,10,11,11,12,12,13,13,14,14],"right_children":[2,4,6,8,10,12,14,16,18,20,22,24,26,28,30,-1,-1,-1,-1,-1,-1,-1,-1,-1,-1,-1,-1,-1,-1,-1,-1],"split_conditions":[-2.1374595E-1,-1.6448853E0,1.371363E0,-1.8632209E0,-5.4747236E-1,5.708255E-1,3.9960098E0,1.0803493E0,1.5603515E0,-1.2861937E0,-1.579019E0,9.517116E-1,1.2320411E0,1.4801154E0,2.2725592E0,8.1610214E-4,5.3494338E-2,4.3433085E-2,1.3355366E-2,-3.1063285E-2,1.6911196E-3,-5.760982E-2,1.6405126E-2,-5.4564076E-3,-3.3628404E-2,1.4575937E-2,-1.2903756E-2,-3.3690125E-2,-6.651581E-3,5.359436E-2,-3.6515216E-3],"split_indices":[26,26,26,14,25,14,10,7,3,14,1,26,17,12,21,0,0,0,0,0,0,0,0,0,0,0,0,0,0,0,0],"split_type":[0,0,0,0,0,0,0,0,0,0,0,0,0,0,0,0,0,0,0,0,0,0,0,0,0,0,0,0,0,0,0],"sum_hessian":[5.733738E3,2.3770442E3,3.3566934E3,3.3038754E2,2.0466567E3,2.9559668E3,4.007264E2,1.0250768E2,2.2787987E2,1.0312899E3,1.0153668E3,2.2257495E3,7.302174E2,3.7971085E2,2.1015545E1,8.7160675E1,1.5347012E1,1.8412901E2,4.3750847E1,1.11156334E2,9.201336E2,2.7794796E1,9.87572E2,1.9509004E3,2.748491E2,5.754064E2,1.5481107E2,2.921488E2,8.756204E1,1.603159E1,4.983955E0],"tree_param":{"num_deleted":"0","num_feature":"30","num_nodes":"31","size_leaf_vector":"1"}},{"base_weights":[4.6469015E-3,1.642747E-1,-2.1293224E-1,7.280444E-1,1.0272743E-1,-4.6957606E-1,-7.310551E-2,4.725969E-1,1.0309267E0,-1.2131982E-1,2.762804E-1,-3.4793466E-1,-1.2487556E0,7.250178E-2,-5.2686524E-1,-1.305623E-2,2.9708892E-2,4.8133906E-2,2.6680693E-2,6.5956446E-3,-1.2491696E-2,-4.710971E-2,1.2839128E-2,-2.5802277E-2,-9.6398353E-4,-5.2574348E-2,4.3088898E-2,1.1961979E-2,-4.763018E-3,-2.6620898E-2,2.0967074E-2],"categories":[],"categories_nodes":[],"categories_segments":[],"categories_sizes":[],"default_left":[0,0,0,0,0,0,0,0,0,0,0,0,0,0,0,0,0,0,0,0,0,0,0,0,0,0,0,0,0,0,0],"id":11,"left_children":[1,3,5,7,9,11,13,15,17,19,21,23,25,27,29,-1,-1,-1,-1,-1,-1,-1,-1,-1,-1,-1,-1,-1,-1,-1,-1],"loss_changes":[1.995518E2,1.14919395E2,8.721887E1,2.4737762E1,1.1626067E2,8.082335E1,1.0410592E2,3.8813553E1,8.503662E0,7.1404106E1,1.0986569E2,7.146957E1,1.9022125E1,5.182771E1,5.6131203E1,0E0,0E0,0E0,0E0,0E0,0E0,0E0,0E0,0E0,0E0,0E0,0E0,0E0,0E0,0E0,0E0],"parents":[2147483647,0,0,1,1,2,2,3,3,4,4,5,5,6,6,7,7,8,8,9,9,10,10,11,11,12,12,13,13,14,14],"right_children":[2,4,6,8,10,12,14,16,18,20,22,24,26,28,30,-1,-1,-1,-1,-1,-1,-1,-1,-1,-1,-1,-1,-1,-1,-1,-1],"split_conditions":[3.1014353E-1,-1.6448853E0,1.3430351E-1,-1.2240796E0,-4.9661216E-1,9.517116E-1,1.371363E0,-5.299735E-1,-1.8010159E0,-1.1048473E0,-1.5489562E0,4.6351597E-1,2.1217444E0,-3.0002537E-1,2.6853912E0,-1.305623E-2,2.9708892E-2,4.8133906E-2,2.6680693E-2,6.5956446E-3,-1.2491696E-2,-4.710971E-2,1.2839128E-2,-2.5802277E-2,-9.6398353E-4,-5.2574348E-2,4.3088898E-2,1.1961979E-2,-4.763018E-3,-2.6620898E-2,2.0967074E-2],"split_indices":[26,26,14,10,25,26,26,17,26,29,19,24,24,17,14,0,0,0,0,0,0,0,0,0,0,0,0,0,0,0,0],"split_type":[0,0,0,0,0,0,0,0,0,0,0,0,0,0,0,0,0,0,0,0,0,0,0,0,0,0,0,0,0,0,0],"sum_hessian":[5.743519E3,3.3130972E3,2.4304219E3,3.2502817E2,2.9880688E3,8.563265E2,1.5740955E3,1.7770993E2,1.4731824E2,1.3044271E3,1.6836418E3,7.419445E2,1.14381935E2,1.1923286E3,3.817669E2,4.4847473E1,1.3286246E2,9.83928E1,4.8925434E1,5.2209656E2,7.823305E2,4.9456875E1,1.6341849E3,3.8641367E2,3.5553082E2,1.11667336E2,2.714602E0,5.4604626E2,6.4628235E2,3.3759674E2,4.4170166E1],"tree_param":{"num_deleted":"0","num_feature":"30","num_nodes":"31","size_leaf_vector":"1"}},{"base_weights":[1.63141E-3,3.1945306E-1,-1.0526758E-1,7.012246E-1,2.0724575E-1,-2.7745314E-2,-3.724191E-1,9.1787493E-1,3.0176282E-1,-8.8680434E-1,2.6802936E-1,-3.3971483E-1,7.987794E-2,-9.822764E-1,-1.6261873E-1,1.5979214E-2,4.184719E-2,-1.5370416E-2,2.4298007E-2,-5.7533648E-2,-1.3860239E-2,8.943394E-3,5.168416E-2,-2.731557E-2,-3.3592088E-3,-5.1756734E-3,1.2950779E-2,-2.83826E-2,-5.023704E-2,6.2630135E-3,-1.9759228E-2],"categories":[],"categories_nodes":[],"categories_segments":[],"categories_sizes":[],"default_left":[0,0,0,0,0,0,0,0,0,0,0,0,0,0,0,0,0,0,0,0,0,0,0,0,0,0,0,0,0,0,0],"id":12,"left_children":[1,3,5,7,9,11,13,15,17,19,21,23,25,27,29,-1,-1,-1,-1,-1,-1,-1,-1,-1,-1,-1,-1,-1,-1,-1,-1],"loss_changes":[1.9518317E2,6.17959E1,8.902258E1,2.8111862E1,7.464668E1,1.1193872E2,1.2354407E2,1.3695419E1,2.4735443E1,1.7120762E1,4.7992958E1,7.499011E1,1.2656971E2,1.7562073E1,7.62896E1,0E0,0E0,0E0,0E0,0E0,0E0,0E0,0E0,0E0,0E0,0E0,0E0,0E0,0E0,0E0,0E0],"parents":[2147483647,0,0,1,1,2,2,3,3,4,4,5,5,6,6,7,7,8,8,9,9,10,10,11,11,12,12,13,13,14,14],"right_children":[2,4,6,8,10,12,14,16,18,20,22,24,26,28,30,-1,-1,-1,-1,-1,-1,-1,-1,-1,-1,-1,-1,-1,-1,-1,-1],"split_conditions":[-7.72564E-1,-1.6448853E0,9.517116E-1,1.4184525E0,-1.8632209E0,-4.9661216E-1,4.132717E-1,-1.4136307E0,-5.299735E-1,-1.3833386E0,1.1542059E0,2.3741296E-1,2.0328095E-2,-4.462431E-1,1.371363E0,1.5979214E-2,4.184719E-2,-1.5370416E-2,2.4298007E-2,-5.7533648E-2,-1.3860239E-2,8.943394E-3,5.168416E-2,-2.731557E-2,-3.3592088E-3,-5.1756734E-3,1.2950779E-2,-2.83826E-2,-5.023704E-2,6.2630135E-3,-1.9759228E-2],"split_indices":[26,26,26,3,14,25,14,9,17,24,4,24,14,17,26,0,0,0,0,0,0,0,0,0,0,0,0,0,0,0,0],"split_type":[0,0,0,0,0,0,0,0,0,0,0,0,0,0,0,0,0,0,0,0,0,0,0,0,0,0,0,0,0,0,0],"sum_hessian":[5.7429478E3,1.4449563E3,4.297991E3,3.2702942E2,1.1179269E3,3.3321646E3,9.658267E2,2.1119101E2,1.1583841E2,5.8125786E1,1.059801E3,8.5412885E2,2.4780356E3,2.4627148E2,7.1955524E2,4.27163E1,1.684747E2,3.562709E1,8.021131E1,2.7941233E1,3.0184553E1,1.01688684E3,4.2914257E1,3.6400046E2,4.9012842E2,1.3339321E3,1.1441036E3,1.2514678E2,1.21124695E2,3.667755E2,3.527797E2],"tree_param":{"num_deleted":"0","num_feature":"30","num_nodes":"31","size_leaf_vector":"1"}},{"base_weights":[1.8234492E-3,1.2250448E-1,-1.2255394E-1,3.5091735E-2,3.3429107E-1,-1.9109611E-1,2.2475193E-1,1.4497705E-1,-2.6407272E-1,4.359615E-1,-1.5673782E-1,-3.9908054E-1,-1.09113514E-1,1.7976137E-1,1.0732765E0,-1.0469614E-2,9.532738E-3,1.1508119E-2,-1.8234469E-2,1.26145575E-2,3.7682958E-2,3.9722946E-2,-1.5567316E-2,-1.7576864E-2,3.242543E-2,-9.356993E-4,-1.463363E-2,8.576199E-3,-3.320851E-2,6.6299915E-2,3.7352412E-3],"categories":[],"categories_nodes":[],"categories_segments":[],"categories_sizes":[],"default_left":[0,0,0,0,0,0,0,0,0,0,0,0,0,0,0,0,0,0,0,0,0,0,0,0,0,0,0,0,0,0,0],"id":13,"left_children":[1,3,5,7,9,11,13,15,17,19,21,23,25,27,29,-1,-1,-1,-1,-1,-1,-1,-1,-1,-1,-1,-1,-1,-1,-1,-1],"loss_changes":[8.6185135E1,5.3938805E1,6.735495E1,6.7887566E1,4.2567352E1,4.0232964E1,1.7616892E1,5.7392395E1,5.884261E1,4.2765244E1,3.9611797E1,3.2929283E1,3.7307304E1,1.5721392E1,1.3177818E1,0E0,0E0,0E0,0E0,0E0,0E0,0E0,0E0,0E0,0E0,0E0,0E0,0E0,0E0,0E0,0E0],"parents":[2147483647,0,0,1,1,2,2,3,3,4,4,5,5,6,6,7,7,8,8,9,9,10,10,11,11,12,12,13,13,14,14],"right_children":[2,4,6,8,10,12,14,16,18,20,22,24,26,28,30,-1,-1,-1,-1,-1,-1,-1,-1,-1,-1,-1,-1,-1,-1,-1,-1],"split_conditions":[1.728347E-2,7.417078E-1,1.1407062E0,5.155231E-1,2.5803035E-1,-5.85336E-1,1.2870965E0,-1.5545284E0,-1.3773829E0,2.1409935E-1,-4.7696987E-1,1.3195654E0,1.1829665E0,2.2725592E0,1.581059E0,-1.0469614E-2,9.532738E-3,1.1508119E-2,-1.8234469E-2,1.26145575E-2,3.7682958E-2,3.9722946E-2,-1.5567316E-2,-1.7576864E-2,3.242543E-2,-9.356993E-4,-1.463363E-2,8.576199E-3,-3.320851E-2,6.6299915E-2,3.7352412E-3],"split_indices":[21,4,6,22,29,18,8,4,21,25,2,4,29,21,21,0,0,0,0,0,0,0,0,0,0,0,0,0,0,0,0],"split_type":[0,0,0,0,0,0,0,0,0,0,0,0,0,0,0,0,0,0,0,0,0,0,0,0,0,0,0,0,0,0,0],"sum_hessian":[5.739851E3,2.9132217E3,2.8266292E3,2.0629329E3,8.502888E2,2.3611055E3,4.6552368E2,1.5091327E3,5.5380023E2,7.045249E2,1.4576393E2,6.664636E2,1.6946418E3,4.432343E2,2.2289364E1,2.813592E2,1.2277736E3,1.4271373E2,4.1108652E2,5.702642E2,1.3426068E2,2.3961891E1,1.2180205E2,6.4557214E2,2.0891497E1,1.2712603E3,4.2338165E2,4.292965E2,1.3937802E1,1.3530731E1,8.758633E0],"tree_param":{"num_deleted":"0","num_feature":"30","num_nodes":"31","size_leaf_vector":"1"}},{"base_weights":[-2.6624128E-3,1.5895963E-1,-1.9759183E-1,6.453251E-1,1.0268187E-1,-4.8291308E-1,-9.457529E-2,-8.1642723E-1,7.0286435E-1,-2.2524988E-2,3.906067E-1,-3.9426643E-1,-1.2667667E0,6.554387E-3,-5.222578E-1,-4.976457E-2,1.0460059E-2,1.459051E-2,3.51592E-2,-2.1988869E-2,1.1712938E-3,2.0754484E-2,-3.1512044E-3,-4.397576E-2,-1.0132762E-2,-5.311885E-2,2.7560033E-2,-6.7084604E-3,9.521658E-3,-2.4673881E-2,3.944624E-2],"categories":[],"categories_nodes":[],"categories_segments":[],"categories_sizes":[],"default_left":[0,0,0,0,0,0,0,0,0,0,0,0,0,0,0,0,0,0,0,0,0,0,0,0,0,0,0,0,0,0,0],"id":14,"left_children":[1,3,5,7,9,11,13,15,17,19,21,23,25,27,29,-1,-1,-1,-1,-1,-1,-1,-1,-1,-1,-1,-1,-1,-1,-1,-1],"loss_changes":[1.8012332E2,8.548925E1,7.612897E1,2.7823105E1,1.0104763E2,4.725461E1,8.2412964E1,6.195221E0,1.827211E1,5.339207E1,5.1180237E1,6.122882E1,9.21904E0,6.224341E1,5.2599678E1,0E0,0E0,0E0,0E0,0E0,0E0,0E0,0E0,0E0,0E0,0E0,0E0,0E0,0E0,0E0,0E0],"parents":[2147483647,0,0,1,1,2,2,3,3,4,4,5,5,6,6,7,7,8,8,9,9,10,10,11,11,12,12,13,13,14,14],"right_children":[2,4,6,8,10,12,14,16,18,20,22,24,26,28,30,-1,-1,-1,-1,-1,-1,-1,-1,-1,-1,-1,-1,-1,-1,-1,-1],"split_conditions":[2.3390447E-1,-1.6448853E0,-5.6907185E-3,-3.7965252E0,6.915547E-2,9.517116E-1,1.3910446E0,1.1146038E0,-1.2645609E0,-1.2861937E0,5.696603E-1,-2.6308304E-1,2.1217444E0,7.429256E-1,3.9960098E0,-4.976457E-2,1.0460059E-2,1.459051E-2,3.51592E-2,-2.1988869E-2,1.1712938E-3,2.0754484E-2,-3.1512044E-3,-4.397576E-2,-1.0132762E-2,-5.311885E-2,2.7560033E-2,-6.7084604E-3,9.521658E-3,-2.4673881E-2,3.944624E-2],"split_indices":[26,26,14,14,25,26,26,18,6,14,3,24,24,21,10,0,0,0,0,0,0,0,0,0,0,0,0,0,0,0,0],"split_type":[0,0,0,0,0,0,0,0,0,0,0,0,0,0,0,0,0,0,0,0,0,0,0,0,0,0,0,0,0,0,0],"sum_hessian":[5.715316E3,3.124708E3,2.5906082E3,3.2297922E2,2.8017288E3,6.862468E2,1.9043613E3,1.17324915E1,3.1124673E2,1.9532578E3,8.4847107E2,6.178739E2,6.83729E1,1.5409689E3,3.6339236E2,8.289369E0,3.443123E0,1.0765162E2,2.0359512E2,1.7391098E2,1.7793468E3,6.663044E2,1.8216669E2,1.0179862E2,5.1607526E2,6.66094E1,1.7635049E0,8.792989E2,6.6167E2,3.4250568E2,2.0886688E1],"tree_param":{"num_deleted":"0","num_feature":"30","num_nodes":"31","size_leaf_vector":"1"}},{"base_weights":[6.528482E-3,1.2216876E-1,-2.3952869E-1,6.5180546E-1,7.457214E-2,-6.1929816E-1,-7.460618E-2,-7.1618736E-1,7.112409E-1,-5.2081746E-1,1.12880476E-1,-4.6575114E-1,-1.126205E0,9.428674E-2,-4.837189E-1,-4.6042465E-2,1.4409014E-2,2.0326735E-2,3.9875258E-2,-7.688498E-3,-3.6414366E-2,4.496196E-4,1.322329E-2,-3.5929833E-2,-9.3193045E-3,-4.7281213E-2,4.2465914E-2,-5.992142E-5,3.267458E-2,-2.262453E-2,3.868827E-2],"categories":[],"categories_nodes":[],"categories_segments":[],"categories_sizes":[],"default_left":[0,0,0,0,0,0,0,0,0,0,0,0,0,0,0,0,0,0,0,0,0,0,0,0,0,0,0,0,0,0,0],"id":15,"left_children":[1,3,5,7,9,11,13,15,17,19,21,23,25,27,29,-1,-1,-1,-1,-1,-1,-1,-1,-1,-1,-1,-1,-1,-1,-1,-1],"loss_changes":[1.6315042E2,9.828085E1,1.147715E2,2.6649612E1,8.171472E1,4.266713E1,8.843875E1,6.9142194E0,1.7394806E1,2.7551178E1,7.444287E1,4.2839096E1,1.692601E1,6.2728638E1,4.4982773E1,0E0,0E0,0E0,0E0,0E0,0E0,0E0,0E0,0E0,0E0,0E0,0E0,0E0,0E0,0E0,0E0],"parents":[2147483647,0,0,1,1,2,2,3,3,4,4,5,5,6,6,7,7,8,8,9,9,10,10,11,11,12,12,13,13,14,14],"right_children":[2,4,6,8,10,12,14,16,18,20,22,24,26,28,30,-1,-1,-1,-1,-1,-1,-1,-1,-1,-1,-1,-1,-1,-1,-1,-1],"split_conditions":[5.607024E-1,-1.6448853E0,1.8156807E-1,-3.7965252E0,-1.3824822E0,9.517116E-1,1.371363E0,3.453369E0,-7.1227586E-1,3.1288534E-1,7.417078E-1,5.521923E-1,2.2078972E0,1.5185091E0,3.9960098E0,-4.6042465E-2,1.4409014E-2,2.0326735E-2,3.9875258E-2,-7.688498E-3,-3.6414366E-2,4.496196E-4,1.322329E-2,-3.5929833E-2,-9.3193045E-3,-4.7281213E-2,4.2465914E-2,-5.992142E-5,3.267458E-2,-2.262453E-2,3.868827E-2],"split_indices":[26,26,14,14,10,26,26,2,11,15,4,21,24,10,10,0,0,0,0,0,0,0,0,0,0,0,0,0,0,0,0],"split_type":[0,0,0,0,0,0,0,0,0,0,0,0,0,0,0,0,0,0,0,0,0,0,0,0,0,0,0,0,0,0,0],"sum_hessian":[5.731779E3,3.8995828E3,1.8321959E3,3.2049908E2,3.5790837E3,5.5392035E2,1.2782756E3,1.2884892E1,3.0761417E2,2.1560153E2,3.3634822E3,4.266137E2,1.2730664E2,9.053089E2,3.7296674E2,9.127857E0,3.7570345E0,1.8141705E2,1.26197136E2,1.1775803E2,9.784349E1,2.2936711E3,1.069811E3,1.4826727E2,2.783464E2,1.2458739E2,2.7192526E0,8.0022864E2,1.0508023E2,3.536177E2,1.9349016E1],"tree_param":{"num_deleted":"0","num_feature":"30","num_nodes":"31","size_leaf_vector":"1"}},{"base_weights":[1.1012321E-2,2.5426665E-1,-1.0089471E-1,8.542202E-1,2.0293273E-1,-2.599836E-1,6.741771E-3,-1.0091788E0,9.06809E-1,5.772788E-2,4.905874E-1,-1.613491E-1,-8.5267407E-1,1.459961E-1,-3.1211665E-1,-5.4701127E-2,6.1545515E-4,1.743227E-2,4.3021966E-2,1.4710091E-2,-3.4641766E-3,1.0810594E-2,3.1216342E-2,-4.3097027E-2,-3.7795862E-3,-5.0045103E-2,-1.7424816E-2,-9.397557E-3,1.3503704E-2,-3.2102346E-2,-6.3560456E-3],"categories":[],"categories_nodes":[],"categories_segments":[],"categories_sizes":[],"default_left":[0,0,0,0,0,0,0,0,0,0,0,0,0,0,0,0,0,0,0,0,0,0,0,0,0,0,0,0,0,0,0],"id":16,"left_children":[1,3,5,7,9,11,13,15,17,19,21,23,25,27,29,-1,-1,-1,-1,-1,-1,-1,-1,-1,-1,-1,-1,-1,-1,-1,-1],"loss_changes":[1.5598438E2,5.543164E1,6.7207306E1,1.4829712E1,6.949516E1,9.2452515E1,1.040301E2,1.6257377E0,1.0548676E1,4.957774E1,3.5434067E1,8.314018E1,3.6967438E1,1.1909592E2,5.3388412E1,0E0,0E0,0E0,0E0,0E0,0E0,0E0,0E0,0E0,0E0,0E0,0E0,0E0,0E0,0E0,0E0],"parents":[2147483647,0,0,1,1,2,2,3,3,4,4,5,5,6,6,7,7,8,8,9,9,10,10,11,11,12,12,13,13,14,14],"right_children":[2,4,6,8,10,12,14,16,18,20,22,24,26,28,30,-1,-1,-1,-1,-1,-1,-1,-1,-1,-1,-1,-1,-1,-1,-1,-1],"split_conditions":[-5.4232216E-1,-2.0030575E0,6.909074E-2,-3.6478918E0,-7.6420516E-1,6.67587E-1,1.0765617E0,-1.0253378E0,-1.6995534E0,-1.3831426E0,-3.129059E-1,-1.2848828E0,6.9213545E-1,-2.8471598E-1,6.109291E-1,-5.4701127E-2,6.1545515E-4,1.743227E-2,4.3021966E-2,1.4710091E-2,-3.4641766E-3,1.0810594E-2,3.1216342E-2,-4.3097027E-2,-3.7795862E-3,-5.0045103E-2,-1.7424816E-2,-9.397557E-3,1.3503704E-2,-3.2102346E-2,-6.3560456E-3],"split_indices":[26,26,10,10,27,26,26,11,6,26,11,18,28,25,10,0,0,0,0,0,0,0,0,0,0,0,0,0,0,0,0],"split_type":[0,0,0,0,0,0,0,0,0,0,0,0,0,0,0,0,0,0,0,0,0,0,0,0,0,0,0,0,0,0,0],"sum_hessian":[5.72817E3,1.804476E3,3.9236938E3,1.4099448E2,1.6634814E3,1.5828275E3,2.3408665E3,3.3706553E0,1.3762383E2,1.1062563E3,5.572251E2,1.358089E3,2.2473853E2,1.6296814E3,7.11185E2,2.2492301E0,1.1214252E0,3.7245014E1,1.0037881E2,3.5092496E2,7.553314E2,3.1766678E2,2.395583E2,9.134928E1,1.2667397E3,1.1390942E2,1.1082911E2,5.452938E2,1.0843876E3,1.6828084E2,5.429042E2],"tree_param":{"num_deleted":"0","num_feature":"30","num_nodes":"31","size_leaf_vector":"1"}},{"base_weights":[-6.718018E-4,1.8555346E-1,-1.317056E-1,1.0809819E-1,5.44099E-1,-3.939317E-1,-6.5149374E-2,4.3408483E-1,1.0559909E-2,7.862225E-1,-3.6638565E-2,-1.0337464E0,-1.3578002E-1,4.64275E-2,-3.8910854E-1,9.581726E-4,2.7098915E-2,-1.3301314E-2,9.146565E-3,-1.768627E-3,3.7659824E-2,5.2070105E-3,-4.726483E-2,-6.560416E-2,-3.1885702E-2,-3.5672723E-3,-6.52751E-2,-3.7998375E-3,2.1904094E-2,-3.1397745E-2,-8.396775E-3],"categories":[],"categories_nodes":[],"categories_segments":[],"categories_sizes":[],"default_left":[0,0,0,0,0,0,0,0,0,0,0,0,0,0,0,0,0,0,0,0,0,0,0,0,0,0,0,0,0,0,0],"id":17,"left_children":[1,3,5,7,9,11,13,15,17,19,21,23,25,27,29,-1,-1,-1,-1,-1,-1,-1,-1,-1,-1,-1,-1,-1,-1,-1,-1],"loss_changes":[1.3918056E2,6.5362854E1,5.8405624E1,6.1631912E1,5.8838593E1,1.1176818E2,9.658037E1,4.4544907E1,1.1180292E2,3.810919E1,2.3842045E1,2.66156E1,3.359033E1,1.4095338E2,4.838497E1,0E0,0E0,0E0,0E0,0E0,0E0,0E0,0E0,0E0,0E0,0E0,0E0,0E0,0E0,0E0,0E0],"parents":[2147483647,0,0,1,1,2,2,3,3,4,4,5,5,6,6,7,7,8,8,9,9,10,10,11,11,12,12,13,13,14,14],"right_children":[2,4,6,8,10,12,14,16,18,20,22,24,26,28,30,-1,-1,-1,-1,-1,-1,-1,-1,-1,-1,-1,-1,-1,-1,-1,-1],"split_conditions":[-2.1374595E-1,2.1409935E-1,-2.8471598E-1,-1.3831426E0,7.484176E-1,4.845049E-1,1.050718E0,-1.4791309E0,-4.925599E-1,-1.4380023E0,-2.3815668E-1,1.613764E-1,2.225943E0,4.1336045E-1,6.3439983E-1,9.581726E-4,2.7098915E-2,-1.3301314E-2,9.146565E-3,-1.768627E-3,3.7659824E-2,5.2070105E-3,-4.726483E-2,-6.560416E-2,-3.1885702E-2,-3.5672723E-3,-6.52751E-2,-3.7998375E-3,2.1904094E-2,-3.1397745E-2,-8.396775E-3],"split_indices":[26,25,25,26,3,24,26,10,24,24,21,10,2,10,10,0,0,0,0,0,0,0,0,0,0,0,0,0,0,0,0],"split_type":[0,0,0,0,0,0,0,0,0,0,0,0,0,0,0,0,0,0,0,0,0,0,0,0,0,0,0,0,0,0,0],"sum_hessian":[5.701699E3,2.3547344E3,3.3469648E3,1.9374875E3,4.1724677E2,6.765387E2,2.670426E3,4.4541098E2,1.4920765E3,2.9422388E2,1.2302287E2,1.9363086E2,4.829078E2,1.9869459E3,6.834802E2,1.662922E2,2.7911874E2,5.796784E2,9.1239813E2,4.6459988E1,2.477639E2,1.08152336E2,1.4870536E1,5.2683666E1,1.409472E2,4.6934885E2,1.3558967E1,1.5502897E3,4.3665625E2,2.1193279E2,4.7154742E2],"tree_param":{"num_deleted":"0","num_feature":"30","num_nodes":"31","size_leaf_vector":"1"}},{"base_weights":[1.9339325E-3,1.3201542E-1,-1.7499667E-1,5.9579843E-1,8.2659185E-2,-4.5167822E-1,-6.5459214E-2,7.8471917E-1,1.3453794E-1,-1.1537006E-1,2.3726231E-1,-2.6749188E-1,-8.79462E-1,3.6663845E-2,-4.5787796E-1,8.729788E-3,3.6909647E-2,1.6610546E-2,-2.9019834E-2,-2.6958425E-2,-1.6187769E-3,-4.317166E-2,1.1120323E-2,-2.721968E-2,1.711904E-3,-5.1464427E-2,-1.4679854E-2,7.4389097E-3,-8.10861E-3,-2.1996586E-2,3.8009293E-2],"categories":[],"categories_nodes":[],"categories_segments":[],"categories_sizes":[],"default_left":[0,0,0,0,0,0,0,0,0,0,0,0,0,0,0,0,0,0,0,0,0,0,0,0,0,0,0,0,0,0,0],"id":18,"left_children":[1,3,5,7,9,11,13,15,17,19,21,23,25,27,29,-1,-1,-1,-1,-1,-1,-1,-1,-1,-1,-1,-1,-1,-1,-1,-1],"loss_changes":[1.3152197E2,7.533542E1,7.33514E1,2.7483559E1,9.119124E1,5.385814E1,6.95758E1,1.7343567E1,2.2802996E1,5.4620697E1,9.001985E1,6.1713093E1,4.2549545E1,4.9297245E1,4.698352E1,0E0,0E0,0E0,0E0,0E0,0E0,0E0,0E0,0E0,0E0,0E0,0E0,0E0,0E0,0E0,0E0],"parents":[2147483647,0,0,1,1,2,2,3,3,4,4,5,5,6,6,7,7,8,8,9,9,10,10,11,11,12,12,13,13,14,14],"right_children":[2,4,6,8,10,12,14,16,18,20,22,24,26,28,30,-1,-1,-1,-1,-1,-1,-1,-1,-1,-1,-1,-1,-1,-1,-1,-1],"split_conditions":[3.1014353E-1,-1.6448853E0,3.8207393E-2,1.5603515E0,-4.9661216E-1,7.1353126E-1,1.3910446E0,-1.4136307E0,-6.7770475E-1,-1.2240796E0,-1.5489562E0,2.3741296E-1,9.3135154E-1,1.3198364E-1,3.9960098E0,8.729788E-3,3.6909647E-2,1.6610546E-2,-2.9019834E-2,-2.6958425E-2,-1.6187769E-3,-4.317166E-2,1.1120323E-2,-2.721968E-2,1.711904E-3,-5.1464427E-2,-1.4679854E-2,7.4389097E-3,-8.10861E-3,-2.1996586E-2,3.8009293E-2],"split_indices":[26,26,14,3,25,26,26,9,29,10,19,24,28,17,10,0,0,0,0,0,0,0,0,0,0,0,0,0,0,0,0],"split_type":[0,0,0,0,0,0,0,0,0,0,0,0,0,0,0,0,0,0,0,0,0,0,0,0,0,0,0,0,0,0,0],"sum_hessian":[5.712516E3,3.2922607E3,2.4202554E3,3.1560086E2,2.97666E3,6.8553467E2,1.7347208E3,2.2340039E2,9.220047E1,1.3051558E3,1.6715042E3,4.8034357E2,2.0519113E2,1.3772197E3,3.575011E2,4.4273388E1,1.79127E2,6.9901054E1,2.2299416E1,1.5336903E2,1.1517867E3,4.9412945E1,1.6220912E3,2.055544E2,2.7478918E2,1.13503296E2,9.168783E1,8.4831793E2,5.2890173E2,3.3613983E2,2.1361261E1],"tree_param":{"num_deleted":"0","num_feature":"30","num_nodes":"31","size_leaf_vector":"1"}},{"base_weights":[-7.48494E-3,1.677175E-1,-1.3076706E-1,9.7791575E-2,4.954465E-1,-5.858625E-1,-9.034626E-2,4.8291346E-1,1.7466035E-2,-1.5088105E-1,6.895426E-1,-8.479116E-1,-3.638326E-2,-1.2750303E-2,-3.404553E-1,1.4386001E-2,4.2696413E-2,-1.1145581E-2,9.160537E-3,3.2681372E-2,-1.6372532E-2,1.9187158E-2,4.81726E-2,-3.9323978E-2,-1.3692157E-3,5.6813315E-2,-1.3913208E-2,-1.6325468E-2,4.2465343E-3,-3.3537455E-2,-7.33643E-3],"categories":[],"categories_nodes":[],"categories_segments":[],"categories_sizes":[],"default_left":[0,0,0,0,0,0,0,0,0,0,0,0,0,0,0,0,0,0,0,0,0,0,0,0,0,0,0,0,0,0,0],"id":19,"left_children":[1,3,5,7,9,11,13,15,17,19,21,23,25,27,29,-1,-1,-1,-1,-1,-1,-1,-1,-1,-1,-1,-1,-1,-1,-1,-1],"loss_changes":[1.23052864E2,5.387606E1,6.1460876E1,6.0022125E1,5.198121E1,3.9220604E1,5.9623016E1,2.3741318E1,1.00706665E2,2.4429289E1,3.37986E1,2.026448E1,4.090363E1,1.1034174E2,5.6737488E1,0E0,0E0,0E0,0E0,0E0,0E0,0E0,0E0,0E0,0E0,0E0,0E0,0E0,0E0,0E0,0E0],"parents":[2147483647,0,0,1,1,2,2,3,3,4,4,5,5,6,6,7,7,8,8,9,9,10,10,11,11,12,12,13,13,14,14],"right_children":[2,4,6,8,10,12,14,16,18,20,22,24,26,28,30,-1,-1,-1,-1,-1,-1,-1,-1,-1,-1,-1,-1,-1,-1,-1,-1],"split_conditions":[-2.1374595E-1,2.1409935E-1,-4.741714E-1,-1.5546176E0,-1.3833386E0,8.027627E-1,1.0765617E0,1.599812E-1,-4.925599E-1,-1.8010159E0,-1.6921271E-1,9.646934E-1,1.1022176E0,-2.8471598E-1,5.6224406E-1,1.4386001E-2,4.2696413E-2,-1.1145581E-2,9.160537E-3,3.2681372E-2,-1.6372532E-2,1.9187158E-2,4.81726E-2,-3.9323978E-2,-1.3692157E-3,5.6813315E-2,-1.3913208E-2,-1.6325468E-2,4.2465343E-3,-3.3537455E-2,-7.33643E-3],"split_indices":[26,25,10,26,24,25,26,6,24,26,17,28,25,25,10,0,0,0,0,0,0,0,0,0,0,0,0,0,0,0,0],"split_type":[0,0,0,0,0,0,0,0,0,0,0,0,0,0,0,0,0,0,0,0,0,0,0,0,0,0,0,0,0,0,0],"sum_hessian":[5.695053E3,2.3520605E3,3.3429927E3,1.9395309E3,4.125298E2,2.715975E2,3.0713953E3,3.3385355E2,1.6056774E3,9.53253E1,3.172045E2,1.8352873E2,8.806877E1,2.3449338E3,7.264613E2,2.7704367E2,5.6809887E1,6.6898016E2,9.3669714E2,1.9632713E1,7.569259E1,2.2671046E2,9.0494026E1,1.5720235E2,2.6326382E1,1.4885427E1,7.318334E1,5.416205E2,1.8033134E3,1.7313123E2,5.533301E2],"tree_param":{"num_deleted":"0","num_feature":"30","num_nodes":"31","size_leaf_vector":"1"}},{"base_weights":[2.8748815E-3,2.6793566E-1,-8.784287E-2,2.2059458E-1,1.0173137E0,-1.2413035E-1,2.5637892E-1,1.8797682E-1,1.1549252E0,6.636279E-1,1.616586E0,-6.788374E-2,-4.4763973E-1,6.7044073E-1,-3.191556E-1,2.899636E-2,5.0877365E-3,2.3808146E-2,5.7526316E-2,-6.6446334E-2,3.5018563E-2,3.0839164E-2,6.821071E-2,-1.4181484E-2,1.6192182E-3,-3.3846904E-2,-1.0882855E-2,1.0530663E-2,5.851733E-2,4.8878197E-2,-2.502237E-2],"categories":[],"categories_nodes":[],"categories_segments":[],"categories_sizes":[],"default_left":[0,0,0,0,0,0,0,0,0,0,0,0,0,0,0,0,0,0,0,0,0,0,0,0,0,0,0,0,0,0,0],"id":20,"left_children":[1,3,5,7,9,11,13,15,17,19,21,23,25,27,29,-1,-1,-1,-1,-1,-1,-1,-1,-1,-1,-1,-1,-1,-1,-1,-1],"loss_changes":[1.3665869E2,5.118592E1,5.2920532E1,4.136136E1,1.7119476E1,6.968048E1,9.651848E1,4.2971233E1,6.409096E0,2.887119E1,1.0219193E0,1.01428635E2,3.9459908E1,7.5559E1,8.0928795E1,0E0,0E0,0E0,0E0,0E0,0E0,0E0,0E0,0E0,0E0,0E0,0E0,0E0,0E0,0E0,0E0],"parents":[2147483647,0,0,1,1,2,2,3,3,4,4,5,5,6,6,7,7,8,8,9,9,10,10,11,11,12,12,13,13,14,14],"right_children":[2,4,6,8,10,12,14,16,18,20,22,24,26,28,30,-1,-1,-1,-1,-1,-1,-1,-1,-1,-1,-1,-1,-1,-1,-1,-1],"split_conditions":[-7.5836474E-1,3.0530277E-1,1.3468791E0,1.1798841E0,-5.8387166E-1,1.0270904E0,1.1393917E0,-2.0030575E0,-1.4585859E0,-2.357319E0,-7.8289205E-1,-3.7519947E-1,4.132717E-1,8.543001E-2,1.2886565E0,2.899636E-2,5.0877365E-3,2.3808146E-2,5.7526316E-2,-6.6446334E-2,3.5018563E-2,3.0839164E-2,6.821071E-2,-1.4181484E-2,1.6192182E-3,-3.3846904E-2,-1.0882855E-2,1.0530663E-2,5.851733E-2,4.8878197E-2,-2.502237E-2],"split_indices":[26,10,10,8,28,26,21,26,26,25,17,25,14,25,26,0,0,0,0,0,0,0,0,0,0,0,0,0,0,0,0],"split_type":[0,0,0,0,0,0,0,0,0,0,0,0,0,0,0,0,0,0,0,0,0,0,0,0,0,0,0,0,0,0,0],"sum_hessian":[5.6813076E3,1.4481432E3,4.2331646E3,1.3633119E3,8.483125E1,3.830045E3,4.0311972E2,1.3184844E3,4.482749E1,5.467179E1,3.0159466E1,3.2637979E3,5.662469E2,2.3435254E2,1.6876718E2,1.3296933E2,1.1855151E3,1.6104136E1,2.8723356E1,3.994344E0,5.067745E1,3.7828338E0,2.637663E1,8.947265E2,2.3690715E3,1.7199829E2,3.9424863E2,1.5569191E2,7.866063E1,2.749388E1,1.412733E2],"tree_param":{"num_deleted":"0","num_feature":"30","num_nodes":"31","size_leaf_vector":"1"}},{"base_weights":[-5.9590684E-3,2.6128387E-1,-9.5329165E-2,1.998074E-1,9.6266556E-1,-3.3260904E-2,-3.1187877E-1,7.33196E-1,1.3819742E-1,-1.571966E-1,1.2026621E0,-3.1653172E-1,6.1712418E-2,-8.6897755E-1,-1.2067871E-1,-3.878072E-2,3.2949783E-2,-1.380982E-2,9.3030175E-3,-3.213482E-2,4.274438E-2,2.020987E-2,6.267226E-2,-2.5490483E-2,-3.2189125E-3,-4.8644263E-3,1.245944E-2,-2.3348361E-2,-4.600421E-2,6.282922E-3,-1.5033161E-2],"categories":[],"categories_nodes":[],"categories_segments":[],"categories_sizes":[],"default_left":[0,0,0,0,0,0,0,0,0,0,0,0,0,0,0,0,0,0,0,0,0,0,0,0,0,0,0,0,0,0,0],"id":21,"left_children":[1,3,5,7,9,11,13,15,17,19,21,23,25,27,29,-1,-1,-1,-1,-1,-1,-1,-1,-1,-1,-1,-1,-1,-1,-1,-1],"loss_changes":[1.3569456E2,6.12014E1,5.721583E1,4.295973E1,3.0957321E1,8.907628E1,1.0091207E2,2.1682198E1,5.373269E1,1.7562542E1,2.3180222E1,6.2890427E1,1.1359207E2,1.8748932E1,5.01775E1,0E0,0E0,0E0,0E0,0E0,0E0,0E0,0E0,0E0,0E0,0E0,0E0,0E0,0E0,0E0,0E0],"parents":[2147483647,0,0,1,1,2,2,3,3,4,4,5,5,6,6,7,7,8,8,9,9,10,10,11,11,12,12,13,13,14,14],"right_children":[2,4,6,8,10,12,14,16,18,20,22,24,26,28,30,-1,-1,-1,-1,-1,-1,-1,-1,-1,-1,-1,-1,-1,-1,-1,-1],"split_conditions":[-7.72564E-1,2.2660942E-1,9.517116E-1,-2.0030575E0,-7.70654E-1,-5.0616646E-1,4.132717E-1,-3.7965252E0,-1.4157797E0,-9.7409743E-1,-1.2275255E0,2.3741296E-1,6.909074E-2,-4.462431E-1,1.1393917E0,-3.878072E-2,3.2949783E-2,-1.380982E-2,9.3030175E-3,-3.213482E-2,4.274438E-2,2.020987E-2,6.267226E-2,-2.5490483E-2,-3.2189125E-3,-4.8644263E-3,1.245944E-2,-2.3348361E-2,-4.600421E-2,6.282922E-3,-1.5033161E-2],"split_indices":[26,10,26,26,2,25,14,14,14,25,21,24,10,17,21,0,0,0,0,0,0,0,0,0,0,0,0,0,0,0,0],"split_type":[0,0,0,0,0,0,0,0,0,0,0,0,0,0,0,0,0,0,0,0,0,0,0,0,0,0,0,0,0,0,0],"sum_hessian":[5.6794697E3,1.4228386E3,4.256631E3,1.3093577E3,1.13481E2,3.3092693E3,9.4736163E2,1.344506E2,1.1749071E3,2.0088741E1,9.3392265E1,8.303387E2,2.4789307E3,2.4115741E2,7.062042E2,6.2987695E0,1.2815184E2,1.9146854E2,9.834385E2,1.3380131E1,6.7086105E0,3.2855114E1,6.0537148E1,3.5131357E2,4.7902512E2,1.4299337E3,1.0489968E3,1.212241E2,1.1993331E2,3.383104E2,3.6789383E2],"tree_param":{"num_deleted":"0","num_feature":"30","num_nodes":"31","size_leaf_vector":"1"}},{"base_weights":[-2.4661392E-3,2.010218E-1,-9.5627315E-2,1.7159995E-1,1.1483431E0,-1.2361152E-1,4.5371798E-1,5.217017E-1,9.611783E-2,7.203158E-1,1.585723E0,-8.446909E-1,-1.0401123E-1,1.416594E0,2.1398893E-1,-1.3769531E-2,2.4210358E-2,-7.548591E-3,9.275128E-3,3.9730933E-3,6.077757E-2,7.006976E-2,1.9970302E-2,-4.4829283E-2,-4.4347164E-3,-2.581124E-3,-1.896922E-2,-1.9984921E-2,5.944056E-2,-4.4733067E-3,3.0771539E-2],"categories":[],"categories_nodes":[],"categories_segments":[],"categories_sizes":[],"default_left":[0,0,0,0,0,0,0,0,0,0,0,0,0,0,0,0,0,0,0,0,0,0,0,0,0,0,0,0,0,0,0],"id":22,"left_children":[1,3,5,7,9,11,13,15,17,19,21,23,25,27,29,-1,-1,-1,-1,-1,-1,-1,-1,-1,-1,-1,-1,-1,-1,-1,-1],"loss_changes":[1.0798744E2,4.9663795E1,6.0125256E1,4.583181E1,8.913055E0,5.247175E1,4.346561E1,2.2472984E1,5.5321205E1,1.4229366E1,3.7670364E0,1.9781723E1,5.2907307E1,5.746834E0,2.7767195E1,0E0,0E0,0E0,0E0,0E0,0E0,0E0,0E0,0E0,0E0,0E0,0E0,0E0,0E0,0E0,0E0],"parents":[2147483647,0,0,1,1,2,2,3,3,4,4,5,5,6,6,7,7,8,8,9,9,10,10,11,11,12,12,13,13,14,14],"right_children":[2,4,6,8,10,12,14,16,18,20,22,24,26,28,30,-1,-1,-1,-1,-1,-1,-1,-1,-1,-1,-1,-1,-1,-1,-1,-1],"split_conditions":[-5.4232216E-1,2.3741296E-1,1.3116301E0,-1.6448853E0,-7.503852E-1,-1.0250105E0,3.2376868E-1,-3.1652544E0,-7.015837E-1,6.6003525E-1,7.5116205E-1,7.2419E-1,1.3910446E0,-1.3274485E0,5.2660865E-1,-1.3769531E-2,2.4210358E-2,-7.548591E-3,9.275128E-3,3.9730933E-3,6.077757E-2,7.006976E-2,1.9970302E-2,-4.4829283E-2,-4.4347164E-3,-2.581124E-3,-1.896922E-2,-1.9984921E-2,5.944056E-2,-4.4733067E-3,3.0771539E-2],"split_indices":[26,24,4,26,11,14,29,14,14,2,6,28,26,14,6,0,0,0,0,0,0,0,0,0,0,0,0,0,0,0,0],"split_type":[0,0,0,0,0,0,0,0,0,0,0,0,0,0,0,0,0,0,0,0,0,0,0,0,0,0,0,0,0,0,0],"sum_hessian":[5.694374E3,1.7879261E3,3.906448E3,1.7352151E3,5.271107E1,3.7178328E3,1.8861517E2,3.0671155E2,1.4285035E3,2.7978115E1,2.4732958E1,9.726945E1,3.6205635E3,3.6620228E1,1.5199495E2,2.6716541E1,2.7999503E2,4.609711E2,9.675325E2,1.637647E1,1.16016445E1,2.092336E1,3.8095977E0,7.029822E1,2.6971228E1,3.27271E3,3.4785355E2,1.0636251E0,3.5556602E1,9.629345E1,5.57015E1],"tree_param":{"num_deleted":"0","num_feature":"30","num_nodes":"31","size_leaf_vector":"1"}},{"base_weights":[-3.925163E-3,1.4485957E-1,-1.2363878E-1,6.467651E-2,4.092882E-1,-8.9522076E-1,-1.0155883E-1,4.8751935E-1,-1.4543364E-2,2.70401E-1,9.5539886E-1,-1.1522595E0,5.110866E-1,-3.3817056E-1,-1.9989425E-2,1.4210371E-2,4.218991E-2,-1.2729011E-2,6.9626765E-3,1.6830813E-2,-2.085596E-3,2.1105539E-2,5.407143E-2,-5.1367152E-2,7.4530934E-4,4.610484E-2,-1.2787144E-2,-3.20346E-2,-8.25968E-3,5.2316496E-3,-9.7105205E-3],"categories":[],"categories_nodes":[],"categories_segments":[],"categories_sizes":[],"default_left":[0,0,0,0,0,0,0,0,0,0,0,0,0,0,0,0,0,0,0,0,0,0,0,0,0,0,0,0,0,0,0],"id":23,"left_children":[1,3,5,7,9,11,13,15,17,19,21,23,25,27,29,-1,-1,-1,-1,-1,-1,-1,-1,-1,-1,-1,-1,-1,-1,-1,-1],"loss_changes":[1.0097277E2,5.356523E1,5.3426727E1,6.501464E1,4.4334297E1,3.2133255E1,5.8957264E1,2.260025E1,9.3728294E1,2.2822536E1,1.9432E1,1.1467751E1,7.9248276E0,4.754917E1,7.637981E1,0E0,0E0,0E0,0E0,0E0,0E0,0E0,0E0,0E0,0E0,0E0,0E0,0E0,0E0,0E0,0E0],"parents":[2147483647,0,0,1,1,2,2,3,3,4,4,5,5,6,6,7,7,8,8,9,9,10,10,11,11,12,12,13,13,14,14],"right_children":[2,4,6,8,10,12,14,16,18,20,22,24,26,28,30,-1,-1,-1,-1,-1,-1,-1,-1,-1,-1,-1,-1,-1,-1,-1,-1],"split_conditions":[-8.766728E-2,6.915547E-2,-1.1657355E0,-1.5546176E0,-4.2782688E-1,7.312473E-1,-8.929264E-2,1.1192789E-2,-4.925599E-1,6.4897394E-1,-5.8715856E-1,2.27154E0,-5.424107E-1,-7.754679E-1,9.451649E-1,1.4210371E-2,4.218991E-2,-1.2729011E-2,6.9626765E-3,1.6830813E-2,-2.085596E-3,2.1105539E-2,5.407143E-2,-5.1367152E-2,7.4530934E-4,4.610484E-2,-1.2787144E-2,-3.20346E-2,-8.25968E-3,5.2316496E-3,-9.7105205E-3],"split_indices":[26,25,25,26,28,21,14,11,24,3,6,28,2,18,26,0,0,0,0,0,0,0,0,0,0,0,0,0,0,0,0],"split_type":[0,0,0,0,0,0,0,0,0,0,0,0,0,0,0,0,0,0,0,0,0,0,0,0,0,0,0,0,0,0,0],"sum_hessian":[5.666941E3,2.5265886E3,3.1403525E3,1.9396656E3,5.869229E2,8.6265564E1,3.054087E3,3.052443E2,1.6344214E3,4.6911295E2,1.17809975E2,7.3087585E1,1.3177981E1,7.82144E2,2.2719429E3,2.4884715E2,5.639712E1,6.259272E2,1.0084942E3,3.1974332E2,1.4936963E2,5.77838E1,6.0026176E1,6.559997E1,7.487617E0,7.217249E0,5.960733E0,1.7215182E2,6.099921E2,1.3551469E3,9.1679614E2],"tree_param":{"num_deleted":"0","num_feature":"30","num_nodes":"31","size_leaf_vector":"1"}},{"base_weights":[4.228755E-3,1.00994565E-1,-2.0709464E-1,3.5731408E-1,3.6009315E-2,-5.364773E-1,-4.5286622E-2,-5.497358E-2,5.2831936E-1,-1.9143339E-1,1.4864661E-1,-9.5134014E-1,-3.4821975E-1,1.02839135E-1,-4.1953596E-1,1.05382055E-2,-2.6645433E-2,4.207594E-3,2.7656734E-2,-2.6189005E-2,-2.5687912E-3,2.7172826E-3,2.2759719E-2,1.2192306E-2,-4.220717E-2,-5.751165E-3,-3.5875015E-2,2.0101753E-3,4.1689064E-2,-2.138608E-2,2.6162736E-2],"categories":[],"categories_nodes":[],"categories_segments":[],"categories_sizes":[],"default_left":[0,0,0,0,0,0,0,0,0,0,0,0,0,0,0,0,0,0,0,0,0,0,0,0,0,0,0,0,0,0,0],"id":24,"left_children":[1,3,5,7,9,11,13,15,17,19,21,23,25,27,29,-1,-1,-1,-1,-1,-1,-1,-1,-1,-1,-1,-1,-1,-1,-1,-1],"loss_changes":[1.16143E2,6.4878624E1,9.50518E1,5.557305E1,7.967472E1,4.55578E1,6.641886E1,4.5300648E1,3.8363327E1,6.0671394E1,7.052463E1,2.4168594E1,4.5381527E1,4.236142E1,4.2335014E1,0E0,0E0,0E0,0E0,0E0,0E0,0E0,0E0,0E0,0E0,0E0,0E0,0E0,0E0,0E0,0E0],"parents":[2147483647,0,0,1,1,2,2,3,3,4,4,5,5,6,6,7,7,8,8,9,9,10,10,11,11,12,12,13,13,14,14],"right_children":[2,4,6,8,10,12,14,16,18,20,22,24,26,28,30,-1,-1,-1,-1,-1,-1,-1,-1,-1,-1,-1,-1,-1,-1,-1,-1],"split_conditions":[5.7141316E-1,-1.1897715E0,2.3216061E-1,-1.3824822E0,-5.4747236E-1,5.2983755E-1,1.3910446E0,-1.6448853E0,-9.2780733E-1,-5.241276E-1,2.9534236E-1,5.9336704E-1,9.517116E-1,1.9760029E0,3.092004E0,1.05382055E-2,-2.6645433E-2,4.207594E-3,2.7656734E-2,-2.6189005E-2,-2.5687912E-3,2.7172826E-3,2.2759719E-2,1.2192306E-2,-4.220717E-2,-5.751165E-3,-3.5875015E-2,2.0101753E-3,4.1689064E-2,-2.138608E-2,2.6162736E-2],"split_indices":[26,26,14,10,25,21,26,26,17,24,24,26,26,10,10,0,0,0,0,0,0,0,0,0,0,0,0,0,0,0,0],"split_type":[0,0,0,0,0,0,0,0,0,0,0,0,0,0,0,0,0,0,0,0,0,0,0,0,0,0,0,0,0,0,0],"sum_hessian":[5.677653E3,3.8947524E3,1.7829003E3,7.868204E2,3.1079321E3,5.8656006E2,1.1963402E3,2.3087282E2,5.559475E2,1.029141E3,2.078791E3,1.8182326E2,4.0473685E2,8.576231E2,3.387171E2,1.5216203E2,7.8710785E1,1.5513194E2,4.0081558E2,2.2081633E2,8.083246E2,1.7448988E3,3.338923E2,1.3734982E1,1.6808827E2,2.9578366E2,1.0895316E2,8.131579E2,4.446521E1,3.0636905E2,3.2348072E1],"tree_param":{"num_deleted":"0","num_feature":"30","num_nodes":"31","size_leaf_vector":"1"}},{"base_weights":[2.0273344E-3,1.4815238E-1,-1.2109665E-1,6.993734E-2,3.9365768E-1,-8.217112E-1,-9.281673E-2,-3.9526293E-1,1.3500382E-1,-2.444603E-1,4.772902E-1,-4.4108036E-1,-1.4213918E0,-3.592247E-1,-6.0924543E-3,-3.7630845E-2,-1.5842953E-3,2.3304243E-2,2.2662708E-3,-6.391772E-2,1.8105679E-3,2.053437E-2,-6.7418285E-2,5.7540987E-2,-2.2858381E-2,4.8175827E-2,-6.095765E-2,-8.536234E-3,-3.2473203E-2,7.8420825E-3,-7.945725E-3],"categories":[],"categories_nodes":[],"categories_segments":[],"categories_sizes":[],"default_left":[0,0,0,0,0,0,0,0,0,0,0,0,0,0,0,0,0,0,0,0,0,0,0,0,0,0,0,0,0,0,0],"id":25,"left_children":[1,3,5,7,9,11,13,15,17,19,21,23,25,27,29,-1,-1,-1,-1,-1,-1,-1,-1,-1,-1,-1,-1,-1,-1,-1,-1],"loss_changes":[1.0170298E2,4.9609406E1,6.0708572E1,5.9429413E1,3.3436295E1,2.65131E1,6.81542E1,4.671116E1,6.0342743E1,2.8701029E1,4.395208E1,1.9001888E1,1.4145653E1,4.7639656E1,8.670199E1,0E0,0E0,0E0,0E0,0E0,0E0,0E0,0E0,0E0,0E0,0E0,0E0,0E0,0E0,0E0,0E0],"parents":[2147483647,0,0,1,1,2,2,3,3,4,4,5,5,6,6,7,7,8,8,9,9,10,10,11,11,12,12,13,13,14,14],"right_children":[2,4,6,8,10,12,14,16,18,20,22,24,26,28,30,-1,-1,-1,-1,-1,-1,-1,-1,-1,-1,-1,-1,-1,-1,-1,-1],"split_conditions":[-7.1192E-2,6.915547E-2,-3.5859653E-1,-9.2420876E-1,-1.4192648E0,-1.5988828E-1,-8.408629E-2,-1.2787594E0,-1.5546176E0,-1.0548592E0,3.428043E0,-1.3502579E0,-1.6207671E0,5.9336704E-1,8.1286234E-1,-3.7630845E-2,-1.5842953E-3,2.3304243E-2,2.2662708E-3,-6.391772E-2,1.8105679E-3,2.053437E-2,-6.7418285E-2,5.7540987E-2,-2.2858381E-2,4.8175827E-2,-6.095765E-2,-8.536234E-3,-3.2473203E-2,7.8420825E-3,-7.945725E-3],"split_indices":[26,25,21,17,10,2,10,7,26,17,17,6,8,26,26,0,0,0,0,0,0,0,0,0,0,0,0,0,0,0,0],"split_type":[0,0,0,0,0,0,0,0,0,0,0,0,0,0,0,0,0,0,0,0,0,0,0,0,0,0,0,0,0,0,0],"sum_hessian":[5.6508384E3,2.58396E3,3.0668784E3,1.9606162E3,6.233438E2,1.1790132E2,2.9489773E3,2.3995508E2,1.7206611E3,7.200687E1,5.51337E2,7.318481E1,4.4716515E1,7.234554E2,2.2255217E3,9.405199E1,1.4590309E2,2.5535628E2,1.4653048E3,1.1899859E1,6.010701E1,5.43043E2,8.2939205E0,4.0963645E0,6.908844E1,1.2768972E0,4.3439617E1,5.4828296E2,1.7517244E2,1.0857042E3,1.1398176E3],"tree_param":{"num_deleted":"0","num_feature":"30","num_nodes":"31","size_leaf_vector":"1"}},{"base_weights":[-8.800065E-4,2.3945431E-1,-6.7581266E-2,1.8866883E-1,9.591819E-1,-1.0628741E-1,2.6299354E-1,6.6338897E-1,1.2781213E-1,4.0023315E-1,1.4084885E0,-5.382476E-2,-4.768604E-1,6.317228E-1,-1.2985925E-1,-4.0517863E-2,2.9804684E-2,-1.437402E-2,9.235751E-3,3.0258052E-2,-6.781769E-2,1.6674519E-2,6.1197508E-2,-5.9148227E-3,7.59925E-3,-1.1805619E-2,-3.4133352E-2,1.0021433E-2,4.747786E-2,2.3169683E-2,-1.7795544E-2],"categories":[],"categories_nodes":[],"categories_segments":[],"categories_sizes":[],"default_left":[0,0,0,0,0,0,0,0,0,0,0,0,0,0,0,0,0,0,0,0,0,0,0,0,0,0,0,0,0,0,0],"id":26,"left_children":[1,3,5,7,9,11,13,15,17,19,21,23,25,27,29,-1,-1,-1,-1,-1,-1,-1,-1,-1,-1,-1,-1,-1,-1,-1,-1],"loss_changes":[9.076093E1,4.4776558E1,5.673342E1,3.3142834E1,1.9734383E1,7.711618E1,6.741142E1,1.8626991E1,5.1339798E1,2.921302E1,4.710579E0,7.97518E1,3.340425E1,5.048291E1,5.071399E1,0E0,0E0,0E0,0E0,0E0,0E0,0E0,0E0,0E0,0E0,0E0,0E0,0E0,0E0,0E0,0E0],"parents":[2147483647,0,0,1,1,2,2,3,3,4,4,5,5,6,6,7,7,8,8,9,9,10,10,11,11,12,12,13,13,14,14],"right_children":[2,4,6,8,10,12,14,16,18,20,22,24,26,28,30,-1,-1,-1,-1,-1,-1,-1,-1,-1,-1,-1,-1,-1,-1,-1,-1],"split_conditions":[-8.768601E-1,2.1870069E-1,1.1955388E0,-2.0030575E0,-1.2581176E0,1.050718E0,1.2886565E0,-3.7965252E0,-1.4157797E0,-1.3134698E0,-7.196644E-1,6.4618593E-1,1.1196661E0,2.706959E-2,1.1204319E0,-4.0517863E-2,2.9804684E-2,-1.437402E-2,9.235751E-3,3.0258052E-2,-6.781769E-2,1.6674519E-2,6.1197508E-2,-5.9148227E-3,7.59925E-3,-1.1805619E-2,-3.4133352E-2,1.0021433E-2,4.747786E-2,2.3169683E-2,-1.7795544E-2],"split_indices":[26,10,14,26,21,26,26,14,14,21,2,25,29,25,21,0,0,0,0,0,0,0,0,0,0,0,0,0,0,0,0],"split_type":[0,0,0,0,0,0,0,0,0,0,0,0,0,0,0,0,0,0,0,0,0,0,0,0,0,0,0,0,0,0,0],"sum_hessian":[5.65972E3,1.2289707E3,4.43075E3,1.1491466E3,7.982404E1,3.9669485E3,4.6380118E2,1.294506E2,1.01969604E3,3.641439E1,4.340965E1,3.4759917E3,4.9095682E2,2.3893253E2,2.2486865E2,5.4881644E0,1.2396245E2,1.7764792E2,8.420481E2,3.1670204E1,4.744188E0,5.2201214E0,3.818953E1,2.5086846E3,9.6730725E2,3.3232895E2,1.5862787E2,1.4253017E2,9.640237E1,6.891309E1,1.5595557E2],"tree_param":{"num_deleted":"0","num_feature":"30","num_nodes":"31","size_leaf_vector":"1"}},{"base_weights":[3.0369668E-3,2.0870985E-1,-6.514377E-2,1.3665196E-1,7.1318775E-1,-3.527885E-1,-2.6227884E-2,6.849946E-1,7.219256E-2,2.3432416E-1,1.2380335E0,-1.6139083E-1,-7.732504E-1,5.873444E-2,-2.0915489E-1,5.3438907E-3,3.6199186E-2,1.3225605E-3,4.6850808E-2,-8.524153E-3,3.726651E-2,-9.567473E-3,5.469672E-2,4.776843E-3,-2.1564588E-2,-8.924011E-3,-3.72524E-2,-3.0294436E-3,1.2054818E-2,-2.3850372E-2,5.616963E-4],"categories":[],"categories_nodes":[],"categories_segments":[],"categories_sizes":[],"default_left":[0,0,0,0,0,0,0,0,0,0,0,0,0,0,0,0,0,0,0,0,0,0,0,0,0,0,0,0,0,0,0],"id":27,"left_children":[1,3,5,7,9,11,13,15,17,19,21,23,25,27,29,-1,-1,-1,-1,-1,-1,-1,-1,-1,-1,-1,-1,-1,-1,-1,-1],"loss_changes":[7.941331E1,5.115567E1,4.7600937E1,4.360073E1,4.39393E1,4.0657738E1,5.825459E1,1.5621746E1,4.753211E1,2.9295034E1,1.6329636E1,3.713663E1,1.35540085E1,8.353919E1,1.0271594E2,0E0,0E0,0E0,0E0,0E0,0E0,0E0,0E0,0E0,0E0,0E0,0E0,0E0,0E0,0E0,0E0],"parents":[2147483647,0,0,1,1,2,2,3,3,4,4,5,5,6,6,7,7,8,8,9,9,10,10,11,11,12,12,13,13,14,14],"right_children":[2,4,6,8,10,12,14,16,18,20,22,24,26,28,30,-1,-1,-1,-1,-1,-1,-1,-1,-1,-1,-1,-1,-1,-1,-1,-1],"split_conditions":[-7.72564E-1,4.0566064E-2,-4.741714E-1,-2.0030575E0,-1.0555872E0,6.813263E-1,8.1286234E-1,-1.6995534E0,1.1655154E0,7.126093E-1,-7.769921E-1,4.780979E-1,-5.668901E-1,2.780957E-1,5.3737825E-1,5.3438907E-3,3.6199186E-2,1.3225605E-3,4.6850808E-2,-8.524153E-3,3.726651E-2,-9.567473E-3,5.469672E-2,4.776843E-3,-2.1564588E-2,-8.924011E-3,-3.72524E-2,-3.0294436E-3,1.2054818E-2,-2.3850372E-2,5.616963E-4],"split_indices":[26,10,10,26,21,3,26,6,4,22,2,23,26,24,10,0,0,0,0,0,0,0,0,0,0,0,0,0,0,0,0],"split_type":[0,0,0,0,0,0,0,0,0,0,0,0,0,0,0,0,0,0,0,0,0,0,0,0,0,0,0,0,0,0,0],"sum_hessian":[5.6611343E3,1.4089271E3,4.252207E3,1.2339454E3,1.7498166E2,5.0576996E2,3.7464373E3,1.287836E2,1.1051619E3,9.225535E1,8.272631E1,3.4850946E2,1.572605E2,2.5587012E3,1.1877361E3,3.718527E1,9.1598335E1,1.068164E3,3.69979E1,5.662067E1,3.5634678E1,6.5938435E0,7.613247E1,2.0029079E2,1.4821867E2,3.5635902E1,1.216246E2,1.6467493E3,9.1195184E2,4.337632E2,7.5397284E2],"tree_param":{"num_deleted":"0","num_feature":"30","num_nodes":"31","size_leaf_vector":"1"}},{"base_weights":[1.3251054E-3,1.0744112E-1,-1.4475842E-1,5.6837395E-2,5.386332E-1,-3.489242E-1,-1.6798224E-2,2.908454E-1,-2.4947943E-2,2.4096246E-1,8.679346E-1,-6.1008954E-1,-9.459307E-2,9.311993E-2,-3.779944E-1,4.072314E-3,2.6062317E-2,-1.5547665E-2,3.7301923E-3,4.382347E-2,3.5828417E-3,7.359816E-3,4.4567283E-2,-2.6694834E-2,3.0706586E-2,2.167173E-2,-1.4639497E-2,1.1025805E-2,-6.83859E-3,-1.934882E-2,2.5610944E-2],"categories":[],"categories_nodes":[],"categories_segments":[],"categories_sizes":[],"default_left":[0,0,0,0,0,0,0,0,0,0,0,0,0,0,0,0,0,0,0,0,0,0,0,0,0,0,0,0,0,0,0],"id":28,"left_children":[1,3,5,7,9,11,13,15,17,19,21,23,25,27,29,-1,-1,-1,-1,-1,-1,-1,-1,-1,-1,-1,-1,-1,-1,-1,-1],"loss_changes":[8.7148964E1,7.102351E1,6.1792267E1,5.5804985E1,3.3305573E1,6.0473656E1,5.7808037E1,5.1425415E1,9.296419E1,2.3315166E1,2.706929E1,3.598114E1,8.014279E1,5.3862484E1,3.6881966E1,0E0,0E0,0E0,0E0,0E0,0E0,0E0,0E0,0E0,0E0,0E0,0E0,0E0,0E0,0E0,0E0],"parents":[2147483647,0,0,1,1,2,2,3,3,4,4,5,5,6,6,7,7,8,8,9,9,10,10,11,11,12,12,13,13,14,14],"right_children":[2,4,6,8,10,12,14,16,18,20,22,24,26,28,30,-1,-1,-1,-1,-1,-1,-1,-1,-1,-1,-1,-1,-1,-1,-1,-1],"split_conditions":[3.1014353E-1,6.936087E-1,1.8156807E-1,-1.1897715E0,-7.7575225E-1,4.6351597E-1,1.3910446E0,-6.056939E-1,-5.241276E-1,1.914972E-1,-5.4394895E-1,1.3116301E0,5.7141316E-1,1.3198364E-1,3.092004E0,4.072314E-3,2.6062317E-2,-1.5547665E-2,3.7301923E-3,4.382347E-2,3.5828417E-3,7.359816E-3,4.4567283E-2,-2.6694834E-2,3.0706586E-2,2.167173E-2,-1.4639497E-2,1.1025805E-2,-6.83859E-3,-1.934882E-2,2.5610944E-2],"split_indices":[26,25,14,26,28,24,26,14,24,29,13,4,26,17,10,0,0,0,0,0,0,0,0,0,0,0,0,0,0,0,0],"split_type":[0,0,0,0,0,0,0,0,0,0,0,0,0,0,0,0,0,0,0,0,0,0,0,0,0,0,0,0,0,0,0],"sum_hessian":[5.619857E3,3.2553875E3,2.3644697E3,2.9144822E3,3.409052E2,9.1030835E2,1.4541614E3,7.541414E2,2.1603408E3,1.7996144E2,1.6094376E2,4.4842984E2,4.6187854E2,1.1154524E3,3.38709E2,4.95663E2,2.5847842E2,5.2928644E2,1.6310542E3,2.6143152E1,1.538183E2,4.3069046E1,1.1787471E2,4.310252E2,1.740464E1,1.377875E2,3.2409103E2,6.5955176E2,4.5590067E2,3.0732465E2,3.1384377E1],"tree_param":{"num_deleted":"0","num_feature":"30","num_nodes":"31","size_leaf_vector":"1"}},{"base_weights":[9.539959E-4,2.0949021E-1,-6.850908E-2,1.5993425E-1,8.8857865E-1,-9.784291E-1,-5.4353215E-2,1.2955394E-1,1.0173968E0,5.725967E-1,1.398291E0,-1.2725273E0,1.0298762E0,-8.048679E-2,4.934063E-1,2.487438E-2,2.993484E-3,1.6671754E-2,5.2780177E-2,-6.1763518E-2,2.9953498E-2,2.9180512E-2,6.0310796E-2,-5.5682857E-2,1.0402799E-2,-4.1785277E-2,6.033945E-2,-1.5145213E-2,-1.6638461E-3,4.9950942E-2,8.314524E-3],"categories":[],"categories_nodes":[],"categories_segments":[],"categories_sizes":[],"default_left":[0,0,0,0,0,0,0,0,0,0,0,0,0,0,0,0,0,0,0,0,0,0,0,0,0,0,0,0,0,0,0],"id":29,"left_children":[1,3,5,7,9,11,13,15,17,19,21,23,25,27,29,-1,-1,-1,-1,-1,-1,-1,-1,-1,-1,-1,-1,-1,-1,-1,-1],"loss_changes":[8.170819E1,4.72889E1,5.4448326E1,3.4118244E1,1.4602577E1,3.956003E1,5.969703E1,3.4189255E1,7.5867424E0,2.3811855E1,1.5289536E0,1.0793213E1,1.0337755E1,4.611582E1,4.0703598E1,0E0,0E0,0E0,0E0,0E0,0E0,0E0,0E0,0E0,0E0,0E0,0E0,0E0,0E0,0E0,0E0],"parents":[2147483647,0,0,1,1,2,2,3,3,4,4,5,5,6,6,7,7,8,8,9,9,10,10,11,11,12,12,13,13,14,14],"right_children":[2,4,6,8,10,12,14,16,18,20,22,24,26,28,30,-1,-1,-1,-1,-1,-1,-1,-1,-1,-1,-1,-1,-1,-1,-1,-1],"split_conditions":[-7.72564E-1,2.654787E-1,-1.1644126E0,1.1798841E0,-5.8387166E-1,9.44546E-1,1.3116301E0,-2.0030575E0,-1.4585859E0,-2.357319E0,-7.8289205E-1,1.1918901E0,-2.1257992E0,-4.741714E-1,4.04996E-1,2.487438E-2,2.993484E-3,1.6671754E-2,5.2780177E-2,-6.1763518E-2,2.9953498E-2,2.9180512E-2,6.0310796E-2,-5.5682857E-2,1.0402799E-2,-4.1785277E-2,6.033945E-2,-1.5145213E-2,-1.6638461E-3,4.9950942E-2,8.314524E-3],"split_indices":[26,10,28,8,28,18,4,26,26,25,17,10,13,10,29,0,0,0,0,0,0,0,0,0,0,0,0,0,0,0,0],"split_type":[0,0,0,0,0,0,0,0,0,0,0,0,0,0,0,0,0,0,0,0,0,0,0,0,0,0,0,0,0,0,0],"sum_hessian":[5.6386724E3,1.408419E3,4.2302534E3,1.3137822E3,9.463673E1,6.3759487E1,4.1664937E3,1.2699387E3,4.3843464E1,5.9731327E1,3.49054E1,5.593472E1,7.8247685E0,3.977577E3,1.889169E2,1.25990974E2,1.1439478E3,1.5469355E1,2.837411E1,3.9945683E0,5.573676E1,5.9882455E0,2.8917152E1,5.19725E1,3.9622176E0,1.2451409E0,6.579628E0,4.5796768E2,3.5196091E3,5.089843E1,1.3801848E2],"tree_param":{"num_deleted":"0","num_feature":"30","num_nodes":"31","size_leaf_vector":"1"}},{"base_weights":[-1.2737836E-3,9.865435E-2,-1.386058E-1,4.934741E-2,4.926889E-1,-6.3450056E-1,-8.094491E-2,-3.6366094E-2,2.8460675E-1,1.9976352E-1,8.248137E-1,-7.854469E-1,2.8772473E-1,-1.1431504E0,-6.0172956E-2,1.1543031E-2,-4.896347E-3,3.4809984E-2,7.8876745E-3,1.3234432E-2,-2.6866695E-2,8.454497E-3,4.188312E-2,-2.044266E-2,-5.2698683E-2,-5.4243427E-2,1.7046213E-2,-4.942945E-2,2.9896066E-2,3.4560626E-3,-9.771072E-3],"categories":[],"categories_nodes":[],"categories_segments":[],"categories_sizes":[],"default_left":[0,0,0,0,0,0,0,0,0,0,0,0,0,0,0,0,0,0,0,0,0,0,0,0,0,0,0,0,0,0,0],"id":30,"left_children":[1,3,5,7,9,11,13,15,17,19,21,23,25,27,29,-1,-1,-1,-1,-1,-1,-1,-1,-1,-1,-1,-1,-1,-1,-1,-1],"loss_changes":[7.740449E1,6.3406006E1,6.78752E1,5.8544983E1,3.514943E1,3.4652405E1,4.6911633E1,5.9546062E1,3.9518246E1,2.2407524E1,2.2929504E1,3.0388641E1,8.659786E0,8.062481E0,5.6405746E1,0E0,0E0,0E0,0E0,0E0,0E0,0E0,0E0,0E0,0E0,0E0,0E0,0E0,0E0,0E0,0E0],"parents":[2147483647,0,0,1,1,2,2,3,3,4,4,5,5,6,6,7,7,8,8,9,9,10,10,11,11,12,12,13,13,14,14],"right_children":[2,4,6,8,10,12,14,16,18,20,22,24,26,28,30,-1,-1,-1,-1,-1,-1,-1,-1,-1,-1,-1,-1,-1,-1,-1,-1],"split_conditions":[3.1014353E-1,6.688556E-1,-2.6308304E-1,7.6356405E-1,-7.7575225E-1,1.2780426E0,-2.2965865E-1,-1.3368102E0,7.272668E-1,1.1378111E-1,-5.4394895E-1,-3.5194257E-1,1.6136558E-1,1.3291906E0,9.451649E-1,1.1543031E-2,-4.896347E-3,3.4809984E-2,7.8876745E-3,1.3234432E-2,-2.6866695E-2,8.454497E-3,4.188312E-2,-2.044266E-2,-5.2698683E-2,-5.4243427E-2,1.7046213E-2,-4.942945E-2,2.9896066E-2,3.4560626E-3,-9.771072E-3],"split_indices":[26,25,24,4,28,11,21,26,22,26,13,28,9,23,26,0,0,0,0,0,0,0,0,0,0,0,0,0,0,0,0],"split_type":[0,0,0,0,0,0,0,0,0,0,0,0,0,0,0,0,0,0,0,0,0,0,0,0,0,0,0,0,0,0,0],"sum_hessian":[5.6383594E3,3.2637844E3,2.3745752E3,2.9017974E3,3.6198697E2,2.4630458E2,2.1282708E3,2.1275127E3,7.742846E2,1.9319528E2,1.687917E2,2.1178821E2,3.4516373E1,3.9784737E1,2.0884858E3,4.4491742E2,1.6825953E3,9.9398865E1,6.7488574E2,1.68471E2,2.4724293E1,4.5410183E1,1.23381516E2,1.4102011E2,7.076809E1,1.9977481E0,3.2518623E1,3.825752E1,1.5272186E0,1.1630516E3,9.254343E2],"tree_param":{"num_deleted":"0","num_feature":"30","num_nodes":"31","size_leaf_vector":"1"}},{"base_weights":[8.980766E-3,1.0901084E-1,-1.12194546E-1,3.3976153E-2,3.4563923E-1,-5.6436867E-1,-4.8921984E-2,2.6246423E-1,-5.7007816E-2,5.028997E-1,-1.958774E-1,-8.129223E-1,-1.6999948E-1,-1.6942388E-1,1.30605E-1,2.568137E-3,2.4822345E-2,-1.787261E-2,2.8315252E-3,2.096366E-2,-6.809962E-2,-1.6886609E-2,3.363617E-2,-3.707468E-2,2.620236E-2,3.3803068E-2,-1.49388015E-2,-2.1590063E-2,-2.4385066E-3,1.63266E-2,-9.754675E-3],"categories":[],"categories_nodes":[],"categories_segments":[],"categories_sizes":[],"default_left":[0,0,0,0,0,0,0,0,0,0,0,0,0,0,0,0,0,0,0,0,0,0,0,0,0,0,0,0,0,0,0],"id":31,"left_children":[1,3,5,7,9,11,13,15,17,19,21,23,25,27,29,-1,-1,-1,-1,-1,-1,-1,-1,-1,-1,-1,-1,-1,-1,-1,-1],"loss_changes":[6.8494026E1,5.4948547E1,7.308128E1,4.889538E1,6.3553314E1,3.0599586E1,4.854055E1,4.751432E1,8.3845604E1,2.7892685E1,3.98664E1,3.2737167E1,2.5615408E1,5.3887276E1,9.378287E1,0E0,0E0,0E0,0E0,0E0,0E0,0E0,0E0,0E0,0E0,0E0,0E0,0E0,0E0,0E0,0E0],"parents":[2147483647,0,0,1,1,2,2,3,3,4,4,5,5,6,6,7,7,8,8,9,9,10,10,11,11,12,12,13,13,14,14],"right_children":[2,4,6,8,10,12,14,16,18,20,22,24,26,28,30,-1,-1,-1,-1,-1,-1,-1,-1,-1,-1,-1,-1,-1,-1,-1,-1],"split_conditions":[2.3390447E-1,2.1409935E-1,-2.6308304E-1,-1.1897715E0,6.4897394E-1,1.1146038E0,6.0110855E-1,-6.6922724E-1,-5.241276E-1,3.428043E0,-5.0353384E-1,1.0270904E0,2.1519506E-1,3.2501262E-1,9.6714705E-1,2.568137E-3,2.4822345E-2,-1.787261E-2,2.8315252E-3,2.096366E-2,-6.809962E-2,-1.6886609E-2,3.363617E-2,-3.707468E-2,2.620236E-2,3.3803068E-2,-1.49388015E-2,-2.1590063E-2,-2.4385066E-3,1.63266E-2,-9.754675E-3],"split_indices":[26,25,24,26,3,18,25,10,24,17,10,26,21,24,26,0,0,0,0,0,0,0,0,0,0,0,0,0,0,0,0],"split_type":[0,0,0,0,0,0,0,0,0,0,0,0,0,0,0,0,0,0,0,0,0,0,0,0,0,0,0,0,0,0,0],"sum_hessian":[5.648766E3,3.0944236E3,2.5543425E3,2.3502915E3,7.441321E2,3.1258075E2,2.2417617E3,6.6881396E2,1.6814775E3,5.767197E2,1.6741235E2,1.9108617E2,1.2149458E2,1.341427E3,9.0033484E2,4.312368E2,2.3757718E2,4.145394E2,1.2669381E3,5.719858E2,4.7339067E0,1.3790585E2,2.9506498E1,1.7766446E2,1.3421711E1,1.9760395E1,1.0173419E2,3.029759E2,1.038451E3,5.1702435E2,3.8331046E2],"tree_param":{"num_deleted":"0","num_feature":"30","num_nodes":"31","size_leaf_vector":"1"}},{"base_weights":[2.053219E-3,1.8258917E-1,-7.090277E-2,-1.3976246E0,1.99711E-1,-2.1823403E-1,2.4022385E-2,-1.626956E0,-2.320034E-1,7.190042E-2,4.4869334E-1,-1.3686346E-1,-6.458543E-1,1.19836085E-1,-2.1717538E-1,-7.224142E-2,1.086958E-2,-4.4456985E-2,2.249689E-2,-1.7743867E-2,6.948476E-3,1.0921382E-2,3.6604784E-2,-3.9804313E-2,-3.571663E-3,-3.5310123E-2,-3.7668576E-3,-7.7622384E-3,1.1131048E-2,-2.757587E-2,-3.5871875E-3],"categories":[],"categories_nodes":[],"categories_segments":[],"categories_sizes":[],"default_left":[0,0,0,0,0,0,0,0,0,0,0,0,0,0,0,0,0,0,0,0,0,0,0,0,0,0,0,0,0,0,0],"id":32,"left_children":[1,3,5,7,9,11,13,15,17,19,21,23,25,27,29,-1,-1,-1,-1,-1,-1,-1,-1,-1,-1,-1,-1,-1,-1,-1,-1],"loss_changes":[7.3902176E1,4.397034E1,5.5892204E1,4.2830048E0,5.0833004E1,5.439869E1,5.6210426E1,5.387657E0,3.4423723E0,5.5573368E1,4.4156998E1,5.36757E1,3.2599037E1,8.662048E1,4.157354E1,0E0,0E0,0E0,0E0,0E0,0E0,0E0,0E0,0E0,0E0,0E0,0E0,0E0,0E0,0E0,0E0],"parents":[2147483647,0,0,1,1,2,2,3,3,4,4,5,5,6,6,7,7,8,8,9,9,10,10,11,11,12,12,13,13,14,14],"right_children":[2,4,6,8,10,12,14,16,18,20,22,24,26,28,30,-1,-1,-1,-1,-1,-1,-1,-1,-1,-1,-1,-1,-1,-1,-1,-1],"split_conditions":[-6.205485E-1,-1.8643742E0,4.0566064E-2,2.9202557E-1,-2.7056882E-1,6.0981506E-1,1.0765617E0,1.1138984E0,6.438588E-1,-9.2420876E-1,-3.9745218E-1,-1.3589593E0,1.1933545E0,-2.8471598E-1,5.6224406E-1,-7.224142E-2,1.086958E-2,-4.4456985E-2,2.249689E-2,-1.7743867E-2,6.948476E-3,1.0921382E-2,3.6604784E-2,-3.9804313E-2,-3.571663E-3,-3.5310123E-2,-3.7668576E-3,-7.7622384E-3,1.1131048E-2,-2.757587E-2,-3.5871875E-3],"split_indices":[26,7,10,14,14,26,26,3,6,17,24,18,21,25,10,0,0,0,0,0,0,0,0,0,0,0,0,0,0,0,0],"split_type":[0,0,0,0,0,0,0,0,0,0,0,0,0,0,0,0,0,0,0,0,0,0,0,0,0,0,0,0,0,0,0],"sum_hessian":[5.6089175E3,1.6138363E3,3.9950813E3,1.6434437E1,1.5974019E3,1.5649138E3,2.4301675E3,1.3401883E1,3.0325534E0,1.0564045E3,5.409973E2,1.3158456E3,2.4906822E2,1.7396213E3,6.9054614E2,1.2291397E1,1.110486E0,1.2498988E0,1.7826545E0,1.7367705E2,8.827275E2,3.9414536E2,1.4685196E2,6.805983E1,1.2477858E3,1.738255E2,7.524272E1,5.834669E2,1.1561544E3,1.4586838E2,5.446778E2],"tree_param":{"num_deleted":"0","num_feature":"30","num_nodes":"31","size_leaf_vector":"1"}},{"base_weights":[-1.0134882E-3,1.6711967E-1,-6.971645E-2,-1.3334842E0,1.8681587E-1,-1.2338552E0,-5.922871E-2,-1.556047E0,2.9859945E-2,1.5626834E-1,1.0234673E0,6.573301E-1,-1.563194E0,-1.5345173E-1,8.6090036E-2,-6.941884E-2,2.5466114E-2,-1.4101116E-3,1.2326268E-2,-3.0555319E-2,4.3347478E-2,-2.4034886E-2,5.4561503E-2,-6.568955E-2,1.1050208E-2,-1.7097265E-2,-2.4049394E-3,1.9124396E-2,-1.6527418E-3],"categories":[],"categories_nodes":[],"categories_segments":[],"categories_sizes":[],"default_left":[0,0,0,0,0,0,0,0,0,0,0,0,0,0,0,0,0,0,0,0,0,0,0,0,0,0,0,0,0],"id":33,"left_children":[1,3,5,7,9,11,13,15,-1,17,19,21,23,25,27,-1,-1,-1,-1,-1,-1,-1,-1,-1,-1,-1,-1,-1,-1],"loss_changes":[6.511743E1,4.8582264E1,4.8787594E1,1.1026054E1,4.1115314E1,2.3251347E1,5.4334656E1,8.805527E0,0E0,4.537002E1,6.9315605E0,6.1512194E0,4.9152756E0,6.152453E1,7.79944E1,0E0,0E0,0E0,0E0,0E0,0E0,0E0,0E0,0E0,0E0,0E0,0E0,0E0,0E0],"parents":[2147483647,0,0,1,1,2,2,3,3,4,4,5,5,6,6,7,7,9,9,10,10,11,11,12,12,13,13,14,14],"right_children":[2,4,6,8,10,12,14,16,-1,18,20,22,24,26,28,-1,-1,-1,-1,-1,-1,-1,-1,-1,-1,-1,-1,-1,-1],"split_conditions":[-6.205485E-1,-1.8643742E0,-1.4380023E0,-7.632735E-1,1.1798841E0,3.427305E-1,4.8302573E-1,1.4049739E0,2.9859945E-2,-6.577515E-1,-1.136319E0,5.4625565E-1,2.0753016E0,-6.55441E-2,3.2675865E-1,-6.941884E-2,2.5466114E-2,-1.4101116E-3,1.2326268E-2,-3.0555319E-2,4.3347478E-2,-2.4034886E-2,5.4561503E-2,-6.568955E-2,1.1050208E-2,-1.7097265E-2,-2.4049394E-3,1.9124396E-2,-1.6527418E-3],"split_indices":[26,7,24,2,8,22,25,6,0,14,3,11,14,28,26,0,0,0,0,0,0,0,0,0,0,0,0,0,0],"split_type":[0,0,0,0,0,0,0,0,0,0,0,0,0,0,0,0,0,0,0,0,0,0,0,0,0,0,0,0,0],"sum_hessian":[5.6352563E3,1.6342963E3,4.00096E3,2.0308916E1,1.6139874E3,3.4681377E1,3.9662786E3,1.8573414E1,1.7355018E0,1.5582788E3,5.570855E1,4.9960876E0,2.9685291E1,2.406121E3,1.5601573E3,1.7361298E1,1.2121161E0,6.895588E2,8.6872003E2,1.4349031E0,5.4273643E1,1.8507762E0,3.1453116E0,2.8565008E1,1.1202822E0,6.1045465E2,1.7956666E3,3.8200977E2,1.1781476E3],"tree_param":{"num_deleted":"0","num_feature":"30","num_nodes":"29","size_leaf_vector":"1"}},{"base_weights":[-2.9552772E-3,1.2308708E-1,-1.055952E-1,-1.3295788E-2,2.5109953E-1,-5.6463844E-1,-6.1295062E-2,2.1840312E-1,-2.6131415E-1,-1.3187904E0,2.8759632E-1,-6.9277304E-1,2.848042E-1,-7.346587E-1,-3.2370035E-2,-5.3130466E-2,1.0741336E-2,-3.7241217E-2,-4.846644E-3,-6.0439628E-2,2.641637E-2,8.795676E-3,4.117562E-2,-3.9216314E-2,-4.4887117E-3,-2.140523E-2,4.5627415E-2,-4.4235032E-2,5.0169188E-3,3.418533E-3,-7.4800877E-3],"categories":[],"categories_nodes":[],"categories_segments":[],"categories_sizes":[],"default_left":[0,0,0,0,0,0,0,0,0,0,0,0,0,0,0,0,0,0,0,0,0,0,0,0,0,0,0,0,0,0,0],"id":34,"left_children":[1,3,5,7,9,11,13,15,17,19,21,23,25,27,29,-1,-1,-1,-1,-1,-1,-1,-1,-1,-1,-1,-1,-1,-1,-1,-1],"loss_changes":[7.264854E1,4.4007286E1,6.2906513E1,7.0238754E1,7.487416E1,2.9833542E1,5.497602E1,4.9355484E1,5.5294567E1,1.2302982E1,6.362976E1,3.9447098E1,2.6153286E1,3.7257275E1,4.9368286E1,0E0,0E0,0E0,0E0,0E0,0E0,0E0,0E0,0E0,0E0,0E0,0E0,0E0,0E0,0E0,0E0],"parents":[2147483647,0,0,1,1,2,2,3,3,4,4,5,5,6,6,7,7,8,8,9,9,10,10,11,11,12,12,13,13,14,14],"right_children":[2,4,6,8,10,12,14,16,18,20,22,24,26,28,30,-1,-1,-1,-1,-1,-1,-1,-1,-1,-1,-1,-1,-1,-1,-1,-1],"split_conditions":[-8.766728E-2,-5.5174214E-1,-4.1788107E-1,-1.1048473E0,-1.579019E0,1.3728774E0,-3.5859653E-1,-1.855871E0,-6.722395E-1,7.7149E-1,-3.126788E-2,5.270668E-1,2.3391832E-1,8.81989E-1,8.1286234E-1,-5.3130466E-2,1.0741336E-2,-3.7241217E-2,-4.846644E-3,-6.0439628E-2,2.641637E-2,8.795676E-3,4.117562E-2,-3.9216314E-2,-4.4887117E-3,-2.140523E-2,4.5627415E-2,-4.4235032E-2,5.0169188E-3,3.418533E-3,-7.4800877E-3],"split_indices":[26,25,10,29,1,18,21,1,14,9,24,28,1,8,26,0,0,0,0,0,0,0,0,0,0,0,0,0,0,0,0],"split_type":[0,0,0,0,0,0,0,0,0,0,0,0,0,0,0,0,0,0,0,0,0,0,0,0,0,0,0,0,0,0,0],"sum_hessian":[5.6135674E3,2.5194592E3,3.0941082E3,1.2202821E3,1.2991772E3,2.7128418E2,2.822824E3,6.309591E2,5.8932294E2,2.8718798E1,1.2704584E3,2.3588623E2,3.539794E1,1.15258194E2,2.7075657E3,1.9008095E1,6.11951E2,1.0100651E2,4.8831647E2,2.6392395E1,2.326403E0,1.1653884E3,1.0506992E2,1.5727563E2,7.86106E1,1.8270014E1,1.7127928E1,8.031005E1,3.4948143E1,1.5368767E3,1.1706891E3],"tree_param":{"num_deleted":"0","num_feature":"30","num_nodes":"31","size_leaf_vector":"1"}},{"base_weights":[-6.2963255E-3,1.1620155E-1,-1.0599138E-1,9.790254E-2,1.0363783E0,-5.3806686E-1,-5.8984566E-2,-2.7806873E-2,2.2293375E-1,-1.0704741E0,1.227246E0,-3.9846724E-1,-1.3061332E0,-7.9971874E-1,-3.1128293E-2,9.319067E-3,-1.1751363E-2,-5.725528E-2,1.0470266E-2,-5.9485964E-2,4.4429153E-3,2.0530235E-2,5.8861397E-2,-2.287204E-2,1.4591065E-2,-5.7573088E-2,-4.9708877E-3,-4.5120634E-2,-2.2068224E-3,-2.2482101E-3,2.47874E-2],"categories":[],"categories_nodes":[],"categories_segments":[],"categories_sizes":[],"default_left":[0,0,0,0,0,0,0,0,0,0,0,0,0,0,0,0,0,0,0,0,0,0,0,0,0,0,0,0,0,0,0],"id":35,"left_children":[1,3,5,7,9,11,13,15,17,19,21,23,25,27,29,-1,-1,-1,-1,-1,-1,-1,-1,-1,-1,-1,-1,-1,-1,-1,-1],"loss_changes":[6.905495E1,4.26193E1,6.3283283E1,3.912336E1,2.116529E1,3.2262276E1,5.8010727E1,8.6209564E1,8.051834E1,2.4470234E0,7.221138E0,3.4626938E1,7.1544037E0,2.4844948E1,4.4291084E1,0E0,0E0,0E0,0E0,0E0,0E0,0E0,0E0,0E0,0E0,0E0,0E0,0E0,0E0,0E0,0E0],"parents":[2147483647,0,0,1,1,2,2,3,3,4,4,5,5,6,6,7,7,8,8,9,9,10,10,11,11,12,12,13,13,14,14],"right_children":[2,4,6,8,10,12,14,16,18,20,22,24,26,28,30,-1,-1,-1,-1,-1,-1,-1,-1,-1,-1,-1,-1,-1,-1,-1,-1],"split_conditions":[-8.766728E-2,1.3046227E0,-3.8192043E-1,-5.184699E-1,-2.9375358E0,6.222681E-1,-3.7468365E-1,-1.1048473E0,-1.579019E0,9.047679E-1,1.2350143E0,9.42482E-1,2.9443521E0,8.81989E-1,2.1651292E0,9.319067E-3,-1.1751363E-2,-5.725528E-2,1.0470266E-2,-5.9485964E-2,4.4429153E-3,2.0530235E-2,5.8861397E-2,-2.287204E-2,1.4591065E-2,-5.7573088E-2,-4.9708877E-3,-4.5120634E-2,-2.2068224E-3,-2.2482101E-3,2.47874E-2],"split_indices":[26,10,10,25,25,26,21,29,5,11,14,29,2,8,10,0,0,0,0,0,0,0,0,0,0,0,0,0,0,0,0],"split_type":[0,0,0,0,0,0,0,0,0,0,0,0,0,0,0,0,0,0,0,0,0,0,0,0,0,0,0,0,0,0,0],"sum_hessian":[5.65247E3,2.536115E3,3.1163552E3,2.487749E3,4.8365993E1,3.0474698E2,2.8116084E3,1.240898E3,1.2468512E3,3.6348639E0,4.473113E1,2.591619E2,4.5585075E1,1.0089777E2,2.7107104E3,6.26629E2,6.142689E2,2.7767256E1,1.2190839E3,2.495999E0,1.1388649E0,1.2193592E1,3.2537537E1,2.1140285E2,4.7759052E1,4.0772255E1,4.812823E0,6.966501E1,3.1232761E1,2.611017E3,9.969336E1],"tree_param":{"num_deleted":"0","num_feature":"30","num_nodes":"31","size_leaf_vector":"1"}},{"base_weights":[2.6841634E-3,1.4748605E-1,-6.311366E-2,1.178283E-1,1.1241E0,-1.3420816E-1,1.4522617E-1,6.80253E-2,5.493597E-1,-1.8225672E-2,1.1930367E0,-3.0684153E-2,-3.662199E-1,3.0735356E-1,-2.08557E-1,9.956331E-3,-4.021692E-3,-5.0917726E-2,2.5403425E-2,3.0618193E-2,6.230716E-2,-5.2056066E-3,1.4390583E-2,-2.2538377E-2,-1.4826055E-3,1.8546978E-2,-6.4577614E-3,1.2472777E-2,-1.7993424E-2],"categories":[],"categories_nodes":[],"categories_segments":[],"categories_sizes":[],"default_left":[0,0,0,0,0,0,0,0,0,0,0,0,0,0,0,0,0,0,0,0,0,0,0,0,0,0,0,0,0],"id":36,"left_children":[1,3,5,7,9,11,13,15,17,-1,19,21,23,25,27,-1,-1,-1,-1,-1,-1,-1,-1,-1,-1,-1,-1,-1,-1],"loss_changes":[5.361133E1,5.0787067E1,5.7325317E1,3.6655617E1,6.173485E0,6.9285416E1,5.6551563E1,4.6731396E1,2.8383026E1,0E0,6.5739975E0,7.7558136E1,5.7763832E1,4.9595184E1,3.9072754E1,0E0,0E0,0E0,0E0,0E0,0E0,0E0,0E0,0E0,0E0,0E0,0E0,0E0,0E0],"parents":[2147483647,0,0,1,1,2,2,3,3,4,4,5,5,6,6,7,7,8,8,10,10,11,11,12,12,13,13,14,14],"right_children":[2,4,6,8,10,12,14,16,18,-1,20,22,24,26,28,-1,-1,-1,-1,-1,-1,-1,-1,-1,-1,-1,-1,-1,-1],"split_conditions":[-5.4232216E-1,2.3741296E-1,6.5135795E-1,-3.9178127E-1,-2.120395E0,6.458975E-1,1.3636042E0,-1.1897715E0,-1.5594535E0,-1.8225672E-2,2.543582E-1,4.6351597E-1,9.180644E-1,1.2320411E0,1.0511968E0,9.956331E-3,-4.021692E-3,-5.0917726E-2,2.5403425E-2,3.0618193E-2,6.230716E-2,-5.2056066E-3,1.4390583E-2,-2.2538377E-2,-1.4826055E-3,1.8546978E-2,-6.4577614E-3,1.2472777E-2,-1.7993424E-2],"split_indices":[26,24,14,21,6,26,26,26,4,0,2,24,28,17,21,0,0,0,0,0,0,0,0,0,0,0,0,0,0],"split_type":[0,0,0,0,0,0,0,0,0,0,0,0,0,0,0,0,0,0,0,0,0,0,0,0,0,0,0,0,0],"sum_hessian":[5.624944E3,1.7570175E3,3.8679263E3,1.7063207E3,5.0696777E1,2.8841025E3,9.838237E2,1.5308079E3,1.755128E2,1.8852428E0,4.8811535E1,1.9950435E3,8.8905914E2,6.747424E2,3.090814E2,7.381996E2,7.9260834E2,7.2634077E0,1.6824939E2,2.3893303E1,2.4918234E1,1.5905591E3,4.0448425E2,5.5548425E2,3.3357486E2,5.0602042E2,1.6872194E2,9.78188E1,2.1126259E2],"tree_param":{"num_deleted":"0","num_feature":"30","num_nodes":"29","size_leaf_vector":"1"}},{"base_weights":[-3.0983398E-3,4.0046766E-1,-2.5165295E-2,-9.7208005E-1,4.5752504E-1,-5.112531E-1,-3.0694264E-3,-1.446718E0,2.865087E-1,1.026325E0,3.3981708E-1,-1.671963E-1,-9.348797E-1,6.1319333E-2,-1.456517E-1,-6.436661E-2,-5.3943363E-3,4.1964903E-2,-3.116383E-2,7.1661896E-3,5.1834207E-2,-3.830994E-4,2.6089959E-2,-1.8657735E-2,3.6195926E-2,-5.838625E-2,-1.5072466E-2,-7.3886E-4,1.2163389E-2,-1.7314924E-2,2.7553055E-3],"categories":[],"categories_nodes":[],"categories_segments":[],"categories_sizes":[],"default_left":[0,0,0,0,0,0,0,0,0,0,0,0,0,0,0,0,0,0,0,0,0,0,0,0,0,0,0,0,0,0,0],"id":37,"left_children":[1,3,5,7,9,11,13,15,17,19,21,23,25,27,29,-1,-1,-1,-1,-1,-1,-1,-1,-1,-1,-1,-1,-1,-1,-1,-1],"loss_changes":[5.0013004E1,2.3246738E1,5.7188457E1,7.547536E0,1.8412663E1,3.358693E1,4.6777042E1,1.6660213E0,4.1529512E0,1.0625618E1,2.5514061E1,4.1798965E1,2.9772873E1,6.79975E1,9.770171E1,0E0,0E0,0E0,0E0,0E0,0E0,0E0,0E0,0E0,0E0,0E0,0E0,0E0,0E0,0E0,0E0],"parents":[2147483647,0,0,1,1,2,2,3,3,4,4,5,5,6,6,7,7,8,8,9,9,10,10,11,11,12,12,13,13,14,14],"right_children":[2,4,6,8,10,12,14,16,18,20,22,24,26,28,30,-1,-1,-1,-1,-1,-1,-1,-1,-1,-1,-1,-1,-1,-1,-1,-1],"split_conditions":[-1.6448853E0,-3.6478918E0,-1.3348087E0,3.453369E0,-2.1249728E0,3.1288534E-1,6.458975E-1,-8.4507763E-1,1.9175804E-1,-3.1652544E0,-1.2240796E0,1.9433188E-1,8.007511E-1,8.1691027E-1,4.3119448E-1,-6.436661E-2,-5.3943363E-3,4.1964903E-2,-3.116383E-2,7.1661896E-3,5.1834207E-2,-3.830994E-4,2.6089959E-2,-1.8657735E-2,3.6195926E-2,-5.838625E-2,-1.5072466E-2,-7.3886E-4,1.2163389E-2,-1.7314924E-2,2.7553055E-3],"split_indices":[26,10,10,2,29,15,26,6,1,14,10,15,4,8,14,0,0,0,0,0,0,0,0,0,0,0,0,0,0,0,0],"split_type":[0,0,0,0,0,0,0,0,0,0,0,0,0,0,0,0,0,0,0,0,0,0,0,0,0,0,0,0,0,0,0],"sum_hessian":[5.613853E3,2.9016135E2,5.3236914E3,1.0940657E1,2.792207E2,2.3051198E2,5.0931797E3,7.8360543E0,3.1046028E0,4.655137E1,2.3266933E2,1.279718E2,1.02540184E2,3.5090823E3,1.5840973E3,6.770977E0,1.0650772E0,1.8185797E0,1.2860233E0,1.163757E1,3.49138E1,1.10295044E2,1.2237428E2,1.004881E2,2.7483698E1,5.2013752E1,5.0526432E1,2.6417349E3,8.673474E2,6.76873E2,9.072243E2],"tree_param":{"num_deleted":"0","num_feature":"30","num_nodes":"31","size_leaf_vector":"1"}},{"base_weights":[-2.4724626E-3,1.03043854E-1,-8.488766E-2,-2.4944518E-2,2.2974573E-1,-3.2769176E-1,-5.1176087E-3,2.0836686E-1,-2.761691E-1,-1.2369597E0,2.6483804E-1,-2.3644844E-1,-8.4120846E-1,-7.62596E-1,1.8940788E-2,-5.076662E-2,1.018532E-2,-3.6082227E-2,-5.767228E-3,-5.5630233E-2,3.7664704E-2,8.16474E-3,4.0093504E-2,-5.1772516E-2,-7.1534324E-3,-3.4260473E-3,-4.3955997E-2,-4.3321744E-2,3.3445098E-2,5.3258375E-3,-6.2425346E-3],"categories":[],"categories_nodes":[],"categories_segments":[],"categories_sizes":[],"default_left":[0,0,0,0,0,0,0,0,0,0,0,0,0,0,0,0,0,0,0,0,0,0,0,0,0,0,0,0,0,0,0],"id":38,"left_children":[1,3,5,7,9,11,13,15,17,19,21,23,25,27,29,-1,-1,-1,-1,-1,-1,-1,-1,-1,-1,-1,-1,-1,-1,-1,-1],"loss_changes":[4.8800457E1,3.9913742E1,6.102372E1,7.186923E1,6.398571E1,3.630774E1,4.3252296E1,4.3786514E1,4.864017E1,1.10518265E1,5.3922737E1,4.0174683E1,2.2717415E1,3.8335476E1,4.600049E1,0E0,0E0,0E0,0E0,0E0,0E0,0E0,0E0,0E0,0E0,0E0,0E0,0E0,0E0,0E0,0E0],"parents":[2147483647,0,0,1,1,2,2,3,3,4,4,5,5,6,6,7,7,8,8,9,9,10,10,11,11,12,12,13,13,14,14],"right_children":[2,4,6,8,10,12,14,16,18,20,22,24,26,28,30,-1,-1,-1,-1,-1,-1,-1,-1,-1,-1,-1,-1,-1,-1,-1,-1],"split_conditions":[-1.1925578E-1,-5.4747236E-1,-8.965389E-2,-1.1048473E0,-1.579019E0,6.566178E-1,-1.1657355E0,-1.855871E0,-6.722395E-1,1.2316446E0,-3.126788E-2,-1.2848828E0,-5.646872E-1,7.312473E-1,9.451649E-1,-5.076662E-2,1.018532E-2,-3.6082227E-2,-5.767228E-3,-5.5630233E-2,3.7664704E-2,8.16474E-3,4.0093504E-2,-5.1772516E-2,-7.1534324E-3,-3.4260473E-3,-4.3955997E-2,-4.3321744E-2,3.3445098E-2,5.3258375E-3,-6.2425346E-3],"split_indices":[26,25,10,29,1,26,25,1,14,13,24,18,13,21,26,0,0,0,0,0,0,0,0,0,0,0,0,0,0,0,0],"split_type":[0,0,0,0,0,0,0,0,0,0,0,0,0,0,0,0,0,0,0,0,0,0,0,0,0,0,0,0,0,0,0],"sum_hessian":[5.6097266E3,2.4599712E3,3.1497554E3,1.2241721E3,1.235799E3,7.781412E2,2.3716143E3,6.348032E2,5.893689E2,2.8076456E1,1.2077225E3,6.6197906E2,1.1616214E2,7.206148E1,2.2995527E3,1.8471605E1,6.163316E2,1.0162598E2,4.8774295E2,2.6562878E1,1.5135788E0,1.1170322E3,9.069029E1,3.308149E1,6.288975E2,2.9881443E1,8.62807E1,6.029794E1,1.1763541E1,1.3916327E3,9.0792004E2],"tree_param":{"num_deleted":"0","num_feature":"30","num_nodes":"31","size_leaf_vector":"1"}},{"base_weights":[6.542077E-3,8.638836E-2,-1.03470795E-1,4.272321E-2,4.4265893E-1,-3.293368E-1,1.739994E-2,2.668038E-2,8.9447546E-1,1.4465849E-1,7.844943E-1,-5.5624837E-1,-1.0750247E-1,-1.3207467E0,3.6154144E-2,9.3012275E-3,-1.8174443E-3,4.469885E-2,-4.766741E-2,2.9410006E-2,-1.953482E-3,4.101384E-2,1.2596102E-2,-2.4428137E-2,2.597552E-2,1.8735731E-2,-1.479661E-2,9.778051E-4,-5.8357317E-2,4.9501588E-3,-1.0722744E-2],"categories":[],"categories_nodes":[],"categories_segments":[],"categories_sizes":[],"default_left":[0,0,0,0,0,0,0,0,0,0,0,0,0,0,0,0,0,0,0,0,0,0,0,0,0,0,0,0,0,0,0],"id":39,"left_children":[1,3,5,7,9,11,13,15,17,19,21,23,25,27,29,-1,-1,-1,-1,-1,-1,-1,-1,-1,-1,-1,-1,-1,-1,-1,-1],"loss_changes":[4.911148E1,5.0378197E1,6.419834E1,3.9425625E1,3.590606E1,4.120182E1,3.8510067E1,4.2091686E1,2.6146152E1,2.1763954E1,1.8277695E1,2.6984665E1,6.299975E1,3.9782295E0,4.0338585E1,0E0,0E0,0E0,0E0,0E0,0E0,0E0,0E0,0E0,0E0,0E0,0E0,0E0,0E0,0E0,0E0],"parents":[2147483647,0,0,1,1,2,2,3,3,4,4,5,5,6,6,7,7,8,8,9,9,10,10,11,11,12,12,13,13,14,14],"right_children":[2,4,6,8,10,12,14,16,18,20,22,24,26,28,30,-1,-1,-1,-1,-1,-1,-1,-1,-1,-1,-1,-1,-1,-1,-1,-1],"split_conditions":[3.1014353E-1,6.688556E-1,1.3430351E-1,1.4261205E0,-7.7575225E-1,4.6351597E-1,-3.5859653E-1,-1.1897715E0,1.8940582E0,-4.3357546E-3,3.6123666E-1,1.3152621E0,5.7141316E-1,-6.8366957E-1,1.3910446E0,9.3012275E-3,-1.8174443E-3,4.469885E-2,-4.766741E-2,2.9410006E-2,-1.953482E-3,4.101384E-2,1.2596102E-2,-2.4428137E-2,2.597552E-2,1.8735731E-2,-1.479661E-2,9.778051E-4,-5.8357317E-2,4.9501588E-3,-1.0722744E-2],"split_indices":[26,25,14,10,28,24,21,26,18,16,21,0,26,21,26,0,0,0,0,0,0,0,0,0,0,0,0,0,0,0,0],"split_type":[0,0,0,0,0,0,0,0,0,0,0,0,0,0,0,0,0,0,0,0,0,0,0,0,0,0,0,0,0,0,0],"sum_hessian":[5.5889224E3,3.2385957E3,2.3503267E3,2.8860022E3,3.5259357E2,8.187112E2,1.5316155E3,2.8336611E3,5.234094E1,1.8913515E2,1.6345842E2,4.039788E2,4.147324E2,2.020946E1,1.511406E3,7.345959E2,2.0990652E3,4.770586E1,4.6350765E0,4.5983475E1,1.4315167E2,1.07261116E2,5.6197296E1,3.8699292E2,1.6985868E1,1.2957652E2,2.8515588E2,1.9593202E0,1.825014E1,1.1739613E3,3.3744464E2],"tree_param":{"num_deleted":"0","num_feature":"30","num_nodes":"31","size_leaf_vector":"1"}},{"base_weights":[6.308348E-3,1.4655426E-1,-6.2065236E-2,7.9532236E-2,5.0278467E-1,-8.8358706E-1,-4.2682353E-2,4.4032834E-2,7.259334E-1,-1.3690864E0,5.6260324E-1,-1.0807452E0,2.5871307E-1,-6.911691E-2,4.7668833E-1,2.272723E-2,-4.639257E-5,3.2902382E-2,-3.0177414E-2,-6.472463E-2,9.133583E-3,3.1927604E-2,7.7210376E-3,-5.0640516E-3,-5.1419694E-2,3.8171504E-2,-4.565202E-2,-6.296892E-3,2.4993222E-3,4.17177E-2,6.754484E-3],"categories":[],"categories_nodes":[],"categories_segments":[],"categories_sizes":[],"default_left":[0,0,0,0,0,0,0,0,0,0,0,0,0,0,0,0,0,0,0,0,0,0,0,0,0,0,0,0,0,0,0],"id":40,"left_children":[1,3,5,7,9,11,13,15,17,19,21,23,25,27,29,-1,-1,-1,-1,-1,-1,-1,-1,-1,-1,-1,-1,-1,-1,-1,-1],"loss_changes":[5.3788235E1,4.385224E1,6.0008972E1,3.550064E1,3.334556E1,1.984391E1,5.0626736E1,3.479603E1,1.2142368E1,4.0691643E0,2.4453117E1,1.4347786E1,1.4326618E1,4.0770252E1,3.095589E1,0E0,0E0,0E0,0E0,0E0,0E0,0E0,0E0,0E0,0E0,0E0,0E0,0E0,0E0,0E0,0E0],"parents":[2147483647,0,0,1,1,2,2,3,3,4,4,5,5,6,6,7,7,8,8,9,9,10,10,11,11,12,12,13,13,14,14],"right_children":[2,4,6,8,10,12,14,16,18,20,22,24,26,28,30,-1,-1,-1,-1,-1,-1,-1,-1,-1,-1,-1,-1,-1,-1,-1,-1],"split_conditions":[-5.010216E-1,-1.12280406E-1,-1.0250105E0,1.1509304E0,-1.8556719E0,1.3414767E0,1.3116301E0,-2.0030575E0,-5.504819E-1,1.2600247E0,8.9490503E-1,-4.1313273E-1,5.426835E-1,4.8302573E-1,1.2677801E0,2.272723E-2,-4.639257E-5,3.2902382E-2,-3.0177414E-2,-6.472463E-2,9.133583E-3,3.1927604E-2,7.7210376E-3,-5.0640516E-3,-5.1419694E-2,3.8171504E-2,-4.565202E-2,-6.296892E-3,2.4993222E-3,4.17177E-2,6.754484E-3],"split_indices":[26,24,14,8,8,28,4,26,26,11,20,26,26,25,23,0,0,0,0,0,0,0,0,0,0,0,0,0,0,0,0],"split_type":[0,0,0,0,0,0,0,0,0,0,0,0,0,0,0,0,0,0,0,0,0,0,0,0,0,0,0,0,0,0,0],"sum_hessian":[5.6073525E3,1.8373959E3,3.7699565E3,1.5474739E3,2.899221E2,8.5869934E1,3.6840867E3,1.4679257E3,7.95482E1,8.3002205E0,2.8162186E2,7.327648E1,1.25934515E1,3.5064832E3,1.7760356E2,1.15601204E2,1.3523245E3,7.5091225E1,4.456975E0,7.169574E0,1.1306465E0,1.7127986E2,1.10342E2,1.3232049E1,6.004443E1,8.626089E0,3.9673624E0,2.098299E3,1.408184E3,6.17059E1,1.1589767E2],"tree_param":{"num_deleted":"0","num_feature":"30","num_nodes":"31","size_leaf_vector":"1"}},{"base_weights":[-3.1029794E-3,5.9325006E-2,-1.3659573E-1,2.363326E-2,4.6039402E-1,-3.2260984E-1,6.394447E-2,-5.074646E-2,2.0812419E-1,1.8649389E-1,1.0415215E0,-4.7739157E-1,-3.8939316E-2,2.3236929E-1,-2.5296837E-1,1.2349864E-3,-1.2933361E-2,4.5728497E-2,7.08681E-3,-6.115694E-3,2.912939E-2,-9.131081E-3,4.6491202E-2,-8.608251E-3,-3.345476E-2,2.9476337E-2,-8.063101E-3,-2.8420066E-2,1.2040263E-2,9.115059E-3,-1.843456E-2],"categories":[],"categories_nodes":[],"categories_segments":[],"categories_sizes":[],"default_left":[0,0,0,0,0,0,0,0,0,0,0,0,0,0,0,0,0,0,0,0,0,0,0,0,0,0,0,0,0,0,0],"id":41,"left_children":[1,3,5,7,9,11,13,15,17,19,21,23,25,27,29,-1,-1,-1,-1,-1,-1,-1,-1,-1,-1,-1,-1,-1,-1,-1,-1],"loss_changes":[4.6703648E1,5.465066E1,6.6633545E1,4.81422E1,4.946588E1,4.0664444E1,4.5969486E1,5.5644146E1,2.897345E1,3.9322407E1,1.5557144E1,5.623346E1,4.1559883E1,3.6595245E1,2.9991623E1,0E0,0E0,0E0,0E0,0E0,0E0,0E0,0E0,0E0,0E0,0E0,0E0,0E0,0E0,0E0,0E0],"parents":[2147483647,0,0,1,1,2,2,3,3,4,4,5,5,6,6,7,7,8,8,9,9,10,10,11,11,12,12,13,13,14,14],"right_children":[2,4,6,8,10,12,14,16,18,20,22,24,26,28,30,-1,-1,-1,-1,-1,-1,-1,-1,-1,-1,-1,-1,-1,-1,-1,-1],"split_conditions":[5.607024E-1,5.9509933E-1,5.241312E-1,7.6356405E-1,6.2030137E-1,9.180644E-1,1.3910446E0,5.551862E-1,7.807752E-1,6.550935E-1,-1.6629127E0,-3.8040793E-1,1.0422988E0,-1.0061991E0,1.0511968E0,1.2349864E-3,-1.2933361E-2,4.5728497E-2,7.08681E-3,-6.115694E-3,2.912939E-2,-9.131081E-3,4.6491202E-2,-8.608251E-3,-3.345476E-2,2.9476337E-2,-8.063101E-3,-2.8420066E-2,1.2040263E-2,9.115059E-3,-1.843456E-2],"split_indices":[26,24,14,4,21,28,26,22,15,5,6,17,28,25,21,0,0,0,0,0,0,0,0,0,0,0,0,0,0,0,0],"split_type":[0,0,0,0,0,0,0,0,0,0,0,0,0,0,0,0,0,0,0,0,0,0,0,0,0,0,0,0,0,0,0],"sum_hessian":[5.6022305E3,3.8175198E3,1.7847106E3,3.5065276E3,3.109923E2,9.255727E2,8.591378E2,2.4995352E3,1.00699243E3,2.122666E2,9.872571E1,5.9838666E2,3.2718607E2,5.611688E2,2.9796902E2,1.9242439E3,5.7529114E2,3.1114702E1,9.7587775E2,1.3094858E2,8.131802E1,8.4962E0,9.0229515E1,3.4673923E2,2.516474E2,5.6088947E1,2.710971E2,3.7444324E1,5.237245E2,8.9912636E1,2.0805638E2],"tree_param":{"num_deleted":"0","num_feature":"30","num_nodes":"31","size_leaf_vector":"1"}},{"base_weights":[-3.4525844E-3,3.247382E-1,-2.7406923E-2,2.004641E-1,8.8254154E-1,-1.8253903E-1,3.518961E-2,-3.8302323E-1,3.423882E-1,-4.4312436E-2,9.4653434E-1,-1.174672E-1,-5.4476845E-1,1.1831432E-1,-1.5550019E-1,1.1022177E-2,-4.3953445E-2,1.8160979E-3,2.6490318E-2,2.2227453E-2,4.6292976E-2,-6.2940144E-3,2.6167462E-2,-1.3876912E-2,-3.7147336E-2,2.2586228E-3,1.9800035E-2,-2.2263087E-2,2.3001106E-3],"categories":[],"categories_nodes":[],"categories_segments":[],"categories_sizes":[],"default_left":[0,0,0,0,0,0,0,0,0,0,0,0,0,0,0,0,0,0,0,0,0,0,0,0,0,0,0,0,0],"id":42,"left_children":[1,3,5,7,9,11,13,15,17,-1,19,21,23,25,27,-1,-1,-1,-1,-1,-1,-1,-1,-1,-1,-1,-1,-1,-1],"loss_changes":[4.3875065E1,2.613984E1,5.0513557E1,2.5948505E1,9.821209E0,3.5186012E1,5.877312E1,2.9279583E1,2.384219E1,0E0,4.899044E0,3.9158283E1,1.6955215E1,6.0125805E1,9.620186E1,0E0,0E0,0E0,0E0,0E0,0E0,0E0,0E0,0E0,0E0,0E0,0E0,0E0,0E0],"parents":[2147483647,0,0,1,1,2,2,3,3,4,4,5,5,6,6,7,7,8,8,10,10,11,11,12,12,13,13,14,14],"right_children":[2,4,6,8,10,12,14,16,18,-1,20,22,24,26,28,-1,-1,-1,-1,-1,-1,-1,-1,-1,-1,-1,-1,-1,-1],"split_conditions":[-1.5546176E0,1.1192789E-2,-2.7056882E-1,-9.8703396E-1,-1.182249E0,3.5974607E-1,8.1286234E-1,-4.4699568E-1,-1.4791309E0,-4.4312436E-2,-3.056773E-1,6.87466E-1,5.797258E-2,8.055095E-1,5.3737825E-1,1.1022177E-2,-4.3953445E-2,1.8160979E-3,2.6490318E-2,2.2227453E-2,4.6292976E-2,-6.2940144E-3,2.6167462E-2,-1.3876912E-2,-3.7147336E-2,2.2586228E-3,1.9800035E-2,-2.2263087E-2,2.3001106E-3],"split_indices":[26,11,14,17,18,26,26,2,10,0,18,24,3,21,10,0,0,0,0,0,0,0,0,0,0,0,0,0,0],"split_type":[0,0,0,0,0,0,0,0,0,0,0,0,0,0,0,0,0,0,0,0,0,0,0,0,0,0,0,0,0],"sum_hessian":[5.5788057E3,3.7863882E2,5.200167E3,3.1076276E2,6.787607E1,1.4944863E3,3.7056807E3,6.0467243E1,2.5029552E2,1.6062349E0,6.626983E1,1.2680203E3,2.2646611E2,2.5809731E3,1.1247075E3,3.1813005E1,2.865424E1,1.3038261E2,1.199129E2,2.4492302E1,4.177753E1,1.2064601E3,6.1560154E1,1.5070558E2,7.576053E1,2.2179539E3,3.6301932E2,3.895624E2,7.3514514E2],"tree_param":{"num_deleted":"0","num_feature":"30","num_nodes":"29","size_leaf_vector":"1"}},{"base_weights":[-8.000098E-3,